"[[1.1577179431915283, 0.2725774049758911, 0.08506057411432266, 0.03541770204901695, -1.4546257257461548], [1.563822865486145, -0.33180078864097595, -0.17497460544109344, -0.216813325881958, -1.8028420209884644], [-0.050595346838235855, 1.3365325927734375, 1.1387004852294922, -0.32192444801330566, 1.2577297687530518], [-1.2976468801498413, 0.4686439037322998, -0.08168023824691772, 1.3725545406341553, -0.08294989168643951], [2.0426981449127197, 0.19853980839252472, 0.6211776733398438, 1.5904746055603027, 1.5666776895523071]]"
"[[1.1865942478179932, 0.256780743598938, 0.05761626362800598, 0.0038735184352844954, -1.4754165410995483], [1.607993721961975, -0.3727894723415375, -0.22147290408611298, -0.2603536546230316, -1.844752550125122], [-0.020841242745518684, 1.3226447105407715, 1.112550973892212, -0.29218024015426636, 1.2876063585281372], [-1.2354393005371094, 0.5309799313545227, -0.019786404445767403, 1.310163140296936, -0.020414987578988075], [2.0687811374664307, 0.1777614951133728, 0.5939833521842957, 1.555187463760376, 1.5609773397445679]]"
"[[1.2230336666107178, 0.22272558510303497, 0.04929618909955025, -0.031759895384311676, -1.5078229904174805], [1.6514537334442139, -0.4164429008960724, -0.2641153633594513, -0.303305983543396, -1.8882564306259155], [0.014625506475567818, 1.2896379232406616, 1.1161483526229858, -0.2567266523838043, 1.3210341930389404], [-1.21598219871521, 0.5492273569107056, 0.000537935527972877, 1.2911397218704224, -0.001477300189435482], [2.105681896209717, 0.14271427690982819, 0.5890881419181824, 1.520363688468933, 1.533582329750061]]"
"[[1.2622233629226685, 0.1892537921667099, 0.02677476964890957, -0.06782911717891693, -1.5452617406845093], [1.6847660541534424, -0.44957441091537476, -0.29757872223854065, -0.33592844009399414, -1.9224780797958374], [0.04917857050895691, 1.262534737586975, 1.1057472229003906, -0.22218681871891022, 1.3549811840057373], [-1.1861634254455566, 0.5774185657501221, 0.031009119004011154, 1.2620433568954468, 0.027564218267798424], [2.146853446960449, 0.10949073731899261, 0.572608470916748, 1.4872870445251465, 1.4961663484573364]]"
"[[1.3055000305175781, 0.16209758818149567, -0.01911049894988537, -0.11427300423383713, -1.5706990957260132], [1.712929606437683, -0.47549447417259216, -0.32745611667633057, -0.36477571725845337, -1.9476182460784912], [0.08088415861129761, 1.2507871389389038, 1.0825427770614624, -0.19060856103897095, 1.375838041305542], [-1.1401870250701904, 0.6207980513572693, 0.07690487056970596, 1.2171907424926758, 0.07353711873292923], [2.1897895336151123, 0.08029580861330032, 0.5280004739761353, 1.4286881685256958, 1.4851398468017578]]"
"[[1.3516745567321777, 0.1168358102440834, -0.05381494387984276, -0.15027591586112976, -1.6101161241531372], [1.7349348068237305, -0.4996158480644226, -0.3483414053916931, -0.385383278131485, -1.970031499862671], [0.11881255358457565, 1.2228188514709473, 1.0787248611450195, -0.15269684791564941, 1.4022061824798584], [-1.1153550148010254, 0.6322600841522217, 0.10198447108268738, 1.1981428861618042, 0.09755504876375198], [2.2368831634521484, 0.03540090098977089, 0.4964052736759186, 1.3958680629730225, 1.4422974586486816]]"
"[[1.3907755613327026, 0.08748327940702438, -0.09950236976146698, -0.1839079111814499, -1.6442207098007202], [1.765947699546814, -0.5291358828544617, -0.38175874948501587, -0.41515591740608215, -2.000514507293701], [0.15999042987823486, 1.20596182346344, 1.0468693971633911, -0.11148091405630112, 1.4313231706619263], [-1.0941543579101562, 0.6285616755485535, 0.12298901379108429, 1.187486171722412, 0.11842609196901321], [2.2765696048736572, 0.00509115494787693, 0.4520407021045685, 1.3654232025146484, 1.4098531007766724]]"
"[[1.428579330444336, 0.05869366228580475, -0.13931678235530853, -0.2194129079580307, -1.6822258234024048], [1.79947829246521, -0.5610849261283875, -0.41680586338043213, -0.4481009542942047, -2.034724712371826], [0.19829915463924408, 1.1881968975067139, 1.016957402229309, -0.07315671443939209, 1.4604848623275757], [-1.0573666095733643, 0.6313367486000061, 0.15990537405014038, 1.1644749641418457, 0.15456725656986237], [2.3179500102996826, -0.02300250716507435, 0.416268914937973, 1.3333218097686768, 1.3700134754180908]]"
"[[1.4700664281845093, 0.017591211944818497, -0.168656587600708, -0.26002004742622375, -1.7138830423355103], [1.808363914489746, -0.5723986625671387, -0.42288872599601746, -0.457383930683136, -2.0429816246032715], [0.23558121919631958, 1.1592625379562378, 1.0299696922302246, -0.035924702882766724, 1.4694476127624512], [-1.0164785385131836, 0.6018095016479492, 0.20147819817066193, 1.151815414428711, 0.19533759355545044], [2.3601033687591553, -0.06472013145685196, 0.38868242502212524, 1.2874494791030884, 1.3409489393234253]]"
"[[1.51322340965271, -0.023729415610432625, -0.20406091213226318, -0.3010695278644562, -1.7483457326889038], [1.8145527839660645, -0.5810508728027344, -0.42648521065711975, -0.463700532913208, -2.0488431453704834], [0.2602998912334442, 1.132384181022644, 1.0331108570098877, -0.01131217647343874, 1.4918804168701172], [-0.9280204772949219, 0.6209776997566223, 0.29028743505477905, 1.082297444343567, 0.2837250530719757], [2.4054324626922607, -0.10612045228481293, 0.35445481538772583, 1.2403236627578735, 1.3072394132614136]]"
"[[1.5436729192733765, -0.04960936680436134, -0.2389300912618637, -0.327523410320282, -1.7719305753707886], [1.8179947137832642, -0.5853244066238403, -0.43004822731018066, -0.46635326743125916, -2.0515215396881104], [0.27787837386131287, 1.1205024719238281, 1.0240910053253174, 0.006236733868718147, 1.5064371824264526], [-0.8469778895378113, 0.6482261419296265, 0.3708164095878601, 1.0118948221206665, 0.3648975193500519], [2.436073064804077, -0.13315902650356293, 0.3175967037677765, 1.2116892337799072, 1.2864010334014893]]"
"[[1.5860693454742432, -0.08263497799634933, -0.2896205484867096, -0.3665612041950226, -1.8090521097183228], [1.841015338897705, -0.6069203019142151, -0.45528119802474976, -0.48837459087371826, -2.0738987922668457], [0.30081504583358765, 1.1166396141052246, 0.9966753125190735, 0.029076192528009415, 1.5218591690063477], [-0.7833825349807739, 0.6408165693283081, 0.42887818813323975, 0.9695925116539001, 0.42813894152641296], [2.483424663543701, -0.16556808352470398, 0.26662948727607727, 1.1698368787765503, 1.2465388774871826]]"
"[[1.615763783454895, -0.11258214712142944, -0.3173898756504059, -0.3901962637901306, -1.8365888595581055], [1.8530194759368896, -0.6207387447357178, -0.46684399247169495, -0.49880847334861755, -2.0863916873931885], [0.32657694816589355, 1.1023322343826294, 0.999526858329773, 0.054900966584682465, 1.5246367454528809], [-0.7352134585380554, 0.6054521203041077, 0.4707174599170685, 0.9479357004165649, 0.47623899579048157], [2.5145418643951416, -0.19646474719047546, 0.23865549266338348, 1.1477464437484741, 1.216059684753418]]"
"[[1.6394481658935547, -0.13291168212890625, -0.34053948521614075, -0.4156566858291626, -1.8520475625991821], [1.8667439222335815, -0.6342105865478516, -0.48052772879600525, -0.5131029486656189, -2.0977227687835693], [0.3434968888759613, 1.0891519784927368, 0.9902722835540771, 0.07174603641033173, 1.5420124530792236], [-0.6942201852798462, 0.5975135564804077, 0.49192145466804504, 0.9246712923049927, 0.5175997018814087], [2.538579225540161, -0.21786102652549744, 0.21439963579177856, 1.1163983345031738, 1.205186128616333]]"
"[[1.6730200052261353, -0.1611924171447754, -0.3782162368297577, -0.44660523533821106, -1.8804795742034912], [1.9022223949432373, -0.6680261492729187, -0.5184292197227478, -0.5476304292678833, -2.1315643787384033], [0.3663318157196045, 1.0760128498077393, 0.9778029322624207, 0.09455040842294693, 1.558290719985962], [-0.6416049003601074, 0.5963906645774841, 0.5013182163238525, 0.8963966369628906, 0.5702243447303772], [2.575335741043091, -0.2465621531009674, 0.1754995882511139, 1.0824730396270752, 1.1751127243041992]]"
"[[1.7071653604507446, -0.18757550418376923, -0.4167747497558594, -0.4806060194969177, -1.9142978191375732], [1.918962836265564, -0.6833335757255554, -0.536363422870636, -0.5641881227493286, -2.1489310264587402], [0.38906583189964294, 1.0694801807403564, 0.9496331214904785, 0.11724989861249924, 1.5786632299423218], [-0.5847674608230591, 0.60419762134552, 0.46914318203926086, 0.8758087158203125, 0.6268920302391052], [2.6158454418182373, -0.2724487781524658, 0.13714008033275604, 1.0461870431900024, 1.1364425420761108]]"
"[[1.7351491451263428, -0.21662943065166473, -0.44495391845703125, -0.5000128149986267, -1.9423439502716064], [1.9301928281784058, -0.6965750455856323, -0.547903835773468, -0.5727927088737488, -2.161416530609131], [0.4184323251247406, 1.0592495203018188, 0.9550902843475342, 0.1468024104833603, 1.5701322555541992], [-0.5351174473762512, 0.5770040154457092, 0.48935651779174805, 0.8514793515205383, 0.6764584183692932], [2.6461021900177, -0.3033120334148407, 0.10734428465366364, 1.0293411016464233, 1.102855920791626]]"
"[[1.7643598318099976, -0.23599478602409363, -0.48156124353408813, -0.531594455242157, -1.9682964086532593], [1.940934658050537, -0.7046175599098206, -0.560731053352356, -0.5840294361114502, -2.171499729156494], [0.4471997618675232, 1.0610789060592651, 0.9253199696540833, 0.17548047006130219, 1.5761816501617432], [-0.5030229091644287, 0.5820533037185669, 0.4355257451534271, 0.8530041575431824, 0.708506166934967], [2.6816914081573486, -0.32240042090415955, 0.06874685734510422, 0.992576539516449, 1.0732357501983643]]"
"[[1.8019111156463623, -0.2685164213180542, -0.5261951088905334, -0.5635492205619812, -1.997359037399292], [1.9643967151641846, -0.7271459102630615, -0.5873985886573792, -0.6053999662399292, -2.192476511001587], [0.47836804389953613, 1.0609930753707886, 0.9182441830635071, 0.20664002001285553, 1.5625356435775757], [-0.44508102536201477, 0.5945207476615906, 0.44669419527053833, 0.8113413453102112, 0.7665544152259827], [2.7227306365966797, -0.3571856915950775, 0.019416235387325287, 0.9557040929794312, 1.0406160354614258]]"
"[[1.8280973434448242, -0.2916630506515503, -0.5535661578178406, -0.5884224772453308, -2.0198421478271484], [1.9882391691207886, -0.7501128911972046, -0.6124687790870667, -0.6287187337875366, -2.2152163982391357], [0.5055081844329834, 1.0526454448699951, 0.9114525318145752, 0.23376499116420746, 1.5629045963287354], [-0.40730908513069153, 0.583673894405365, 0.44413211941719055, 0.7953559160232544, 0.8043700456619263], [2.752902030944824, -0.381789892911911, -0.009826083667576313, 0.9270452260971069, 1.0146617889404297]]"
"[[1.854910969734192, -0.3185545802116394, -0.5763098001480103, -0.6145824790000916, -2.0417373180389404], [2.0137221813201904, -0.77607262134552, -0.6374375224113464, -0.6541448831558228, -2.2392942905426025], [0.5354094505310059, 1.0328068733215332, 0.9110806584358215, 0.2636621594429016, 1.571837306022644], [-0.3680390417575836, 0.5595128536224365, 0.44701385498046875, 0.7819449305534363, 0.8438611626625061], [2.7829527854919434, -0.4106317162513733, -0.03381571173667908, 0.8962440490722656, 0.9900821447372437]]"
"[[1.8789745569229126, -0.341493159532547, -0.5985298752784729, -0.6378937363624573, -2.0626492500305176], [2.0231876373291016, -0.786188542842865, -0.6464145183563232, -0.6634177565574646, -2.248298406600952], [0.5609521865844727, 1.0202500820159912, 0.9047630429267883, 0.28917258977890015, 1.5785528421401978], [-0.33681291341781616, 0.5442523956298828, 0.43802228569984436, 0.7736659646034241, 0.8750540614128113], [2.8113460540771484, -0.4350220561027527, -0.057490359991788864, 0.8686184883117676, 0.9649529457092285]]"
"[[1.8975107669830322, -0.3549010157585144, -0.6213772892951965, -0.6562672257423401, -2.0807816982269287], [2.0243914127349854, -0.7862825989723206, -0.6489173769950867, -0.6643175482749939, -2.249811887741089], [0.5864344239234924, 1.0175812244415283, 0.8825644850730896, 0.31467539072036743, 1.5859861373901367], [-0.30060508847236633, 0.5499488711357117, 0.41392219066619873, 0.758529782295227, 0.9112120866775513], [2.8347229957580566, -0.44938498735427856, -0.08247978240251541, 0.8475421667098999, 0.94310063123703]]"
"[[1.9138776063919067, -0.37268829345703125, -0.6388710737228394, -0.665991485118866, -2.0960803031921387], [2.0320885181427, -0.7955313324928284, -0.6574874520301819, -0.6695138216018677, -2.2577903270721436], [0.6198251247406006, 1.00664222240448, 0.8949808478355408, 0.34833797812461853, 1.5664904117584229], [-0.27262082695961, 0.5316609740257263, 0.4269539415836334, 0.7445458769798279, 0.9392094016075134], [2.852177619934082, -0.46925145387649536, -0.1021408885717392, 0.8385394811630249, 0.9243346452713013]]"
"[[1.9262784719467163, -0.3907639682292938, -0.6427702903747559, -0.6744877696037292, -2.11138916015625], [2.044065475463867, -0.8106571435928345, -0.6668420433998108, -0.6804266571998596, -2.2718541622161865], [0.6522906422615051, 0.9749109148979187, 0.9130652546882629, 0.38102373480796814, 1.5717219114303589], [-0.26018646359443665, 0.48493796586990356, 0.4368642270565033, 0.7551584839820862, 0.951286792755127], [2.8667800426483154, -0.48863935470581055, -0.10491874068975449, 0.8310330510139465, 0.9042811393737793]]"
"[[1.948146104812622, -0.4096202254295349, -0.6668017506599426, -0.6955618262290955, -2.1279006004333496], [2.077662706375122, -0.842408299446106, -0.7024394869804382, -0.7137012481689453, -2.3032009601593018], [0.6708441376686096, 0.9709333181381226, 0.895146369934082, 0.3995392322540283, 1.581512689590454], [-0.1939552128314972, 0.5153924822807312, 0.4497339129447937, 0.6980917453765869, 1.017637848854065], [2.8904788494110107, -0.5087912678718567, -0.13104553520679474, 0.8062642812728882, 0.8873986005783081]]"
"[[1.9613580703735352, -0.4257071316242218, -0.6786341071128845, -0.7023142576217651, -2.1426279544830322], [2.088355541229248, -0.854914665222168, -0.7132167816162109, -0.7221577167510986, -2.3151841163635254], [0.7053653597831726, 0.9639609456062317, 0.907468855381012, 0.434374064207077, 1.5553878545761108], [-0.18066081404685974, 0.49903368949890137, 0.4497053623199463, 0.6979759335517883, 1.0294747352600098], [2.905202627182007, -0.5264194011688232, -0.14382509887218475, 0.8011459112167358, 0.8682563900947571]]"
"[[1.9768216609954834, -0.44024568796157837, -0.6920086741447449, -0.7162320017814636, -2.164490222930908], [2.0924179553985596, -0.8595744967460632, -0.716528594493866, -0.725587785243988, -2.3227462768554688], [0.7326202988624573, 0.9407448768615723, 0.8949959874153137, 0.4617769420146942, 1.5816024541854858], [-0.1663767397403717, 0.46885842084884644, 0.4275403320789337, 0.7114059925079346, 1.0432469844818115], [2.9275314807891846, -0.5415080189704895, -0.157105952501297, 0.7866631746292114, 0.838978111743927]]"
"[[1.9949119091033936, -0.46023115515708923, -0.7092944979667664, -0.728277862071991, -2.1816060543060303], [2.0976898670196533, -0.8669689893722534, -0.7218143939971924, -0.7286191582679749, -2.3286235332489014], [0.7652186751365662, 0.9278042316436768, 0.9085502624511719, 0.4945637583732605, 1.5635151863098145], [-0.13914896547794342, 0.45682352781295776, 0.44486796855926514, 0.6947896480560303, 1.0678668022155762], [2.9483559131622314, -0.5636707544326782, -0.17671433091163635, 0.773501455783844, 0.8169337511062622]]"
"[[2.0128676891326904, -0.47513487935066223, -0.7283163666725159, -0.7457355260848999, -2.200554132461548], [2.0997369289398193, -0.8688856959342957, -0.7241343855857849, -0.7302276492118835, -2.3318936824798584], [0.7970686554908752, 0.916110098361969, 0.9074461460113525, 0.526503324508667, 1.5588228702545166], [-0.10401307791471481, 0.44997555017471313, 0.45082521438598633, 0.6783238649368286, 1.0929443836212158], [2.9720544815063477, -0.5802286267280579, -0.19799606502056122, 0.7528858780860901, 0.7932796478271484]]"
"[[2.025764226913452, -0.4836740493774414, -0.7461531162261963, -0.7578654289245605, -2.2125706672668457], [2.0983564853668213, -0.8663872480392456, -0.7245672941207886, -0.728145956993103, -2.3305585384368896], [0.8167392015457153, 0.9262430667877197, 0.8849159479141235, 0.5461881160736084, 1.553734302520752], [-0.08327172696590424, 0.4653165340423584, 0.42539921402931213, 0.6724092960357666, 1.1035295724868774], [2.9896023273468018, -0.5906062126159668, -0.21927891671657562, 0.7373324036598206, 0.7775278091430664]]"
"[[2.036924123764038, -0.49431493878364563, -0.7539162039756775, -0.7714391350746155, -2.2213971614837646], [2.1044907569885254, -0.8728172183036804, -0.7293157577514648, -0.7353798151016235, -2.335998296737671], [0.8393762707710266, 0.9088447093963623, 0.8851882815361023, 0.5687312483787537, 1.561010718345642], [-0.0706033781170845, 0.44080379605293274, 0.4221154749393463, 0.6802847385406494, 1.1088868379592896], [3.0030031204223633, -0.6021026968955994, -0.22733032703399658, 0.7206768989562988, 0.7676859498023987]]"
"[[2.0526437759399414, -0.5115189552307129, -0.7647455930709839, -0.7874550819396973, -2.2326693534851074], [2.1038289070129395, -0.874372661113739, -0.7264757752418518, -0.7350064516067505, -2.3342177867889404], [0.8609554171562195, 0.8857763409614563, 0.8939065933227539, 0.5901719927787781, 1.5686372518539429], [-0.04089478403329849, 0.4183805584907532, 0.44162610173225403, 0.670159637928009, 1.1285451650619507], [3.0231473445892334, -0.622718095779419, -0.24139775335788727, 0.698278546333313, 0.7524501085281372]]"
"[[2.0658786296844482, -0.5220065116882324, -0.7826098203659058, -0.7965002059936523, -2.2491917610168457], [2.113522529602051, -0.8830874562263489, -0.7385849356651306, -0.7426412105560303, -2.3459341526031494], [0.8864414095878601, 0.8877852559089661, 0.8818749189376831, 0.6158692836761475, 1.5600006580352783], [-0.018092114478349686, 0.4226500689983368, 0.42156344652175903, 0.6767598986625671, 1.1188580989837646], [3.0395164489746094, -0.6331785917282104, -0.26011383533477783, 0.69031822681427, 0.7318213582038879]]"
"[[2.084211826324463, -0.5386579632759094, -0.8037994503974915, -0.8118011355400085, -2.262688398361206], [2.1305294036865234, -0.8995975255966187, -0.7575244307518005, -0.7582834362983704, -2.3610286712646484], [0.8994960784912109, 0.8933640122413635, 0.8786802291870117, 0.6289070844650269, 1.5468947887420654], [0.03252476081252098, 0.45005059242248535, 0.4397001564502716, 0.6450479626655579, 1.1295466423034668], [3.055490732192993, -0.6484702229499817, -0.28034862875938416, 0.6761770844459534, 0.7196803092956543]]"
"[[2.0943217277526855, -0.546638548374176, -0.8134311437606812, -0.8231227993965149, -2.274301052093506], [2.148629665374756, -0.9162407517433167, -0.7758935689926147, -0.7769719362258911, -2.3798630237579346], [0.9177586436271667, 0.8822701573371887, 0.8700425624847412, 0.6472072005271912, 1.5574662685394287], [0.048704300075769424, 0.4300127327442169, 0.4231308698654175, 0.6531866192817688, 1.1410000324249268], [3.062967538833618, -0.6522594690322876, -0.2847207188606262, 0.669395387172699, 0.7110760807991028]]"
"[[2.114969491958618, -0.5681678652763367, -0.8310809135437012, -0.8407949805259705, -2.295274257659912], [2.164686918258667, -0.933560848236084, -0.7912809252738953, -0.7919482588768005, -2.396998882293701], [0.9374222755432129, 0.8610011339187622, 0.877389669418335, 0.6669668555259705, 1.565136194229126], [0.09579524397850037, 0.41055411100387573, 0.4492661654949188, 0.6373685598373413, 1.1582965850830078], [3.085747241973877, -0.6737275123596191, -0.3015531003475189, 0.6515969038009644, 0.6869031190872192]]"
"[[2.1183950901031494, -0.5657586455345154, -0.8427584171295166, -0.844735324382782, -2.2969470024108887], [2.167534112930298, -0.933205246925354, -0.7976710796356201, -0.7945429682731628, -2.3985867500305176], [0.944674551486969, 0.8780868649482727, 0.8466848134994507, 0.6741747856140137, 1.5679893493652344], [0.11455491930246353, 0.44439294934272766, 0.40128883719444275, 0.6348282694816589, 1.1649320125579834], [3.0897607803344727, -0.6709862351417542, -0.3149275481700897, 0.6470610499382019, 0.6857517957687378]]"
"[[2.1182637214660645, -0.5654001832008362, -0.8450655341148376, -0.8438628315925598, -2.2916648387908936], [2.162421703338623, -0.928260326385498, -0.7935294508934021, -0.7889570593833923, -2.3909404277801514], [0.9476425647735596, 0.8859870433807373, 0.8422306776046753, 0.6768473982810974, 1.560044288635254], [0.15688155591487885, 0.4767814576625824, 0.41199782490730286, 0.6053707003593445, 1.169885516166687], [3.0896592140197754, -0.6734640598297119, -0.3210066258907318, 0.6446349620819092, 0.6912562251091003]]"
"[[2.129988431930542, -0.5763952136039734, -0.8563257455825806, -0.8551090359687805, -2.30145525932312], [2.1648361682891846, -0.9311303496360779, -0.7958310842514038, -0.7910954356193542, -2.392918348312378], [0.9638218879699707, 0.8788352608680725, 0.8360258340835571, 0.6927796602249146, 1.5648298263549805], [0.20100611448287964, 0.4680626690387726, 0.4140690267086029, 0.5976195335388184, 1.1778219938278198], [3.1059396266937256, -0.6874876618385315, -0.33571743965148926, 0.628630518913269, 0.6774344444274902]]"
"[[2.125347137451172, -0.5769195556640625, -0.8463336229324341, -0.8470778465270996, -2.3035085201263428], [2.153027057647705, -0.9227951169013977, -0.7814405560493469, -0.7779994606971741, -2.3850483894348145], [0.9798089265823364, 0.8591675162315369, 0.8485437035560608, 0.7096570730209351, 1.567118763923645], [0.19787180423736572, 0.41964972019195557, 0.4244876205921173, 0.6348491907119751, 1.1495206356048584], [3.109321355819702, -0.6936361789703369, -0.33076444268226624, 0.632325291633606, 0.6663805842399597]]"
"[[2.126373767852783, -0.5763214826583862, -0.852167546749115, -0.8428271412849426, -2.3146910667419434], [2.1547234058380127, -0.923658549785614, -0.7854861617088318, -0.7770489454269409, -2.3919754028320312], [0.9992989301681519, 0.8619204759597778, 0.8324690461158752, 0.7300583720207214, 1.5663105249404907], [0.19808228313922882, 0.4159058630466461, 0.38482949137687683, 0.6678215861320496, 1.1256386041641235], [3.1129019260406494, -0.6920127868652344, -0.33582931756973267, 0.6413466334342957, 0.6515865921974182]]"
"[[2.1242547035217285, -0.5746874213218689, -0.8543269634246826, -0.8364040851593018, -2.3112337589263916], [2.1427879333496094, -0.9126076698303223, -0.7753661870956421, -0.7628799676895142, -2.379591941833496], [1.0053844451904297, 0.8708264827728271, 0.8303717374801636, 0.7360770106315613, 1.552541971206665], [0.23473286628723145, 0.44343629479408264, 0.39326605200767517, 0.6418218016624451, 1.1302411556243896], [3.119784116744995, -0.6993356943130493, -0.34907475113868713, 0.637951135635376, 0.6460230946540833]]"
"[[2.1335554122924805, -0.5850651264190674, -0.8567743301391602, -0.8513630032539368, -2.3110835552215576], [2.1484668254852295, -0.919333815574646, -0.7778684496879578, -0.7714909911155701, -2.3807318210601807], [1.0112510919570923, 0.8538357019424438, 0.8398563861846924, 0.741073727607727, 1.5614184141159058], [0.2631213963031769, 0.4182446300983429, 0.41712355613708496, 0.6223411560058594, 1.1605024337768555], [3.1268813610076904, -0.7095298767089844, -0.3505878746509552, 0.6195337176322937, 0.649607241153717]]"
"[[2.122581958770752, -0.5774290561676025, -0.8408342003822327, -0.8436873555183411, -2.296356678009033], [2.133152723312378, -0.9060470461845398, -0.7596567273139954, -0.7578940391540527, -2.3633790016174316], [1.0167182683944702, 0.8389268517494202, 0.8479475378990173, 0.7461614012718201, 1.56917405128479], [0.2689287066459656, 0.39440208673477173, 0.4302709400653839, 0.6192885637283325, 1.1752777099609375], [3.126220226287842, -0.7122641801834106, -0.3460673987865448, 0.6133517026901245, 0.6557744741439819]]"
"[[2.128380537033081, -0.5797010064125061, -0.8486552834510803, -0.8521311283111572, -2.3001902103424072], [2.1409378051757812, -0.9117061495780945, -0.7684465050697327, -0.7667485475540161, -2.369952917098999], [1.0212548971176147, 0.8409060835838318, 0.8362605571746826, 0.7502234578132629, 1.5757646560668945], [0.28311675786972046, 0.40047359466552734, 0.41205477714538574, 0.6093235015869141, 1.1988284587860107], [3.126267910003662, -0.7094921469688416, -0.3482305407524109, 0.6100631952285767, 0.6585267782211304]]"
"[[2.150714874267578, -0.6008796095848083, -0.8682917952537537, -0.8752888441085815, -2.3180465698242188], [2.1591708660125732, -0.9300342798233032, -0.7859416007995605, -0.7855250835418701, -2.3865532875061035], [1.0317271947860718, 0.8273138999938965, 0.8417355418205261, 0.7605277299880981, 1.5809266567230225], [0.32608792185783386, 0.3947232961654663, 0.4319322407245636, 0.5876637101173401, 1.2120736837387085], [3.141390085220337, -0.7241286635398865, -0.35987696051597595, 0.5929458141326904, 0.6475902795791626]]"
"[[2.138416051864624, -0.5990346074104309, -0.8459850549697876, -0.8571329712867737, -2.316155433654785], [2.1432924270629883, -0.9206470847129822, -0.7652143836021423, -0.7674912214279175, -2.37693452835083], [1.0551642179489136, 0.7838000655174255, 0.8647556304931641, 0.7866607308387756, 1.5974572896957397], [0.3242768943309784, 0.33049702644348145, 0.452059268951416, 0.612420380115509, 1.205796718597412], [3.144251585006714, -0.7340093851089478, -0.3489896059036255, 0.6007020473480225, 0.632856547832489]]"
"[[2.1216723918914795, -0.5890322923660278, -0.8263022303581238, -0.8331887722015381, -2.3138322830200195], [2.128096342086792, -0.9092259407043457, -0.7485105991363525, -0.7490732669830322, -2.369628667831421], [1.0762481689453125, 0.7648077011108398, 0.8726522326469421, 0.8110311627388, 1.5993002653121948], [0.30894413590431213, 0.2951368987560272, 0.444001704454422, 0.6651571393013, 1.1590112447738647], [3.138570785522461, -0.7316437363624573, -0.3370257616043091, 0.6208563446998596, 0.6225920915603638]]"
"[[2.1170120239257812, -0.5805476307868958, -0.8259077072143555, -0.8335852026939392, -2.299327850341797], [2.1214470863342285, -0.9001838564872742, -0.7434278726577759, -0.7444943189620972, -2.357044219970703], [1.0681767463684082, 0.775982677936554, 0.8563660979270935, 0.8007146120071411, 1.6081072092056274], [0.3530762493610382, 0.3287626802921295, 0.43432047963142395, 0.6160639524459839, 1.2094879150390625], [3.1386489868164062, -0.7300156950950623, -0.3452499806880951, 0.6100015044212341, 0.6349611282348633]]"
"[[2.1155190467834473, -0.5811727643013, -0.8231591582298279, -0.8306993246078491, -2.296882152557373], [2.1199989318847656, -0.9000255465507507, -0.7414467930793762, -0.7424961924552917, -2.3552064895629883], [1.0674365758895874, 0.7746059894561768, 0.863897442817688, 0.8000411987304688, 1.60220205783844], [0.36250340938568115, 0.3294190764427185, 0.45021557807922363, 0.6144863963127136, 1.1968517303466797], [3.136762857437134, -0.7315583825111389, -0.3434308171272278, 0.6124124526977539, 0.6369949579238892]]"
"[[2.122809648513794, -0.5906097888946533, -0.829608142375946, -0.8342272639274597, -2.302856922149658], [2.1227104663848877, -0.9045808911323547, -0.7440916299819946, -0.7435216307640076, -2.357757091522217], [1.0771002769470215, 0.7637305855751038, 0.8691439628601074, 0.8080590963363647, 1.6052274703979492], [0.39177101850509644, 0.32053738832473755, 0.4646431505680084, 0.6008325219154358, 1.205911636352539], [3.145840883255005, -0.7428944110870361, -0.3523934483528137, 0.6066513657569885, 0.6280965209007263]]"
"[[2.1076157093048096, -0.5826897621154785, -0.8093876838684082, -0.8149998784065247, -2.2935900688171387], [2.107468605041504, -0.8935577869415283, -0.7262486219406128, -0.7266575694084167, -2.346015453338623], [1.09407377243042, 0.7425529956817627, 0.8816513419151306, 0.828639030456543, 1.607743263244629], [0.3829502463340759, 0.2833351492881775, 0.4772922694683075, 0.629256546497345, 1.1813745498657227], [3.143648862838745, -0.745672881603241, -0.34435027837753296, 0.6147060394287109, 0.6236900091171265]]"
"[[2.1123037338256836, -0.5917815566062927, -0.8071982860565186, -0.8188339471817017, -2.2989695072174072], [2.109318494796753, -0.898396372795105, -0.7249241471290588, -0.7285919189453125, -2.3489677906036377], [1.1085177659988403, 0.7168048024177551, 0.8891821503639221, 0.843080461025238, 1.6250947713851929], [0.39621058106422424, 0.24984849989414215, 0.48800092935562134, 0.626839280128479, 1.197432279586792], [3.150069236755371, -0.7553185224533081, -0.3431578576564789, 0.6092106103897095, 0.6162320971488953]]"
"[[2.1110217571258545, -0.5938199162483215, -0.802471399307251, -0.8165103197097778, -2.297010660171509], [2.1076672077178955, -0.898766040802002, -0.7216752171516418, -0.7267175316810608, -2.347230911254883], [1.111709713935852, 0.7059147953987122, 0.8963119387626648, 0.8457599878311157, 1.6304336786270142], [0.3989047110080719, 0.23541758954524994, 0.5030842423439026, 0.6225508451461792, 1.2021492719650269], [3.1495187282562256, -0.758473813533783, -0.3399844765663147, 0.6098570823669434, 0.6167107224464417]]"
"[[2.083676338195801, -0.5777587294578552, -0.7668105363845825, -0.7852790355682373, -2.2768280506134033], [2.0828490257263184, -0.8800711631774902, -0.6923959851264954, -0.7005965709686279, -2.3266384601593018], [1.125709891319275, 0.6872139573097229, 0.9112288355827332, 0.8631850481033325, 1.6290974617004395], [0.3719974458217621, 0.20168842375278473, 0.5256375670433044, 0.6529315114021301, 1.1711902618408203], [3.136042594909668, -0.7543545961380005, -0.31877100467681885, 0.6284993290901184, 0.6216687560081482]]"
"[[2.0907421112060547, -0.5867987275123596, -0.7703033089637756, -0.7915326952934265, -2.2835752964019775], [2.0852909088134766, -0.8839995265007019, -0.6933279037475586, -0.7030009627342224, -2.329562187194824], [1.133254051208496, 0.6703546643257141, 0.9145674109458923, 0.8698205351829529, 1.6451717615127563], [0.389657199382782, 0.18607965111732483, 0.5307418704032898, 0.6413917541503906, 1.191227912902832], [3.1464154720306396, -0.7643070816993713, -0.3247967064380646, 0.6187478303909302, 0.6117182970046997]]"
"[[2.0816617012023926, -0.5889771580696106, -0.7496744394302368, -0.7797790169715881, -2.274907350540161], [2.07452130317688, -0.8794851303100586, -0.6770867705345154, -0.6920444369316101, -2.32013201713562], [1.155082106590271, 0.6419057250022888, 0.9292096495628357, 0.8926127552986145, 1.6547956466674805], [0.38177287578582764, 0.1464724987745285, 0.5647485852241516, 0.6514319777488708, 1.1813682317733765], [3.144202947616577, -0.7709978222846985, -0.3128391206264496, 0.6216856837272644, 0.6116318106651306]]"
"[[2.082524299621582, -0.5914297103881836, -0.7514174580574036, -0.7768387198448181, -2.2769827842712402], [2.073617696762085, -0.8797898888587952, -0.6768357157707214, -0.6892322897911072, -2.3201708793640137], [1.1604347229003906, 0.6401183009147644, 0.9309321045875549, 0.896797776222229, 1.6519066095352173], [0.40180230140686035, 0.14900381863117218, 0.566192626953125, 0.6406612992286682, 1.187662124633789], [3.1474199295043945, -0.775554358959198, -0.3175296485424042, 0.6225172877311707, 0.6065561771392822]]"
"[[2.066545248031616, -0.5807464718818665, -0.731182336807251, -0.7625654935836792, -2.255885124206543], [2.0588839054107666, -0.8673465847969055, -0.6597151160240173, -0.6758975386619568, -2.3025691509246826], [1.1652957201004028, 0.6293126344680786, 0.9319479465484619, 0.9002261161804199, 1.6639193296432495], [0.41478317975997925, 0.13890835642814636, 0.5647492408752441, 0.6336961388587952, 1.20340895652771], [3.136739492416382, -0.770987331867218, -0.30655279755592346, 0.6271559596061707, 0.6217855215072632]]"
"[[2.032323122024536, -0.5483523607254028, -0.6999446749687195, -0.7309476733207703, -2.2205846309661865], [2.0308051109313965, -0.8396663665771484, -0.6318762302398682, -0.6486805081367493, -2.272429943084717], [1.1579561233520508, 0.6409804821014404, 0.9315522313117981, 0.8936380743980408, 1.6518865823745728], [0.41453760862350464, 0.15427950024604797, 0.5512347221374512, 0.6394892334938049, 1.1943271160125732], [3.1087310314178467, -0.7496966123580933, -0.2851366698741913, 0.6503642201423645, 0.651619017124176]]"
"[[2.0226147174835205, -0.5537343621253967, -0.678063154220581, -0.7120218276977539, -2.217961311340332], [2.0203351974487305, -0.8370034098625183, -0.6163498759269714, -0.6352956295013428, -2.2679972648620605], [1.1808273792266846, 0.6178882718086243, 0.9462906718254089, 0.9200857877731323, 1.6529561281204224], [0.3954029083251953, 0.11794234812259674, 0.5743495225906372, 0.6642994284629822, 1.1714930534362793], [3.098975896835327, -0.7507306337356567, -0.26559463143348694, 0.6691878437995911, 0.6498594284057617]]"
"[[2.0113651752471924, -0.5272925496101379, -0.690198540687561, -0.7001453638076782, -2.216710090637207], [2.0172672271728516, -0.827034592628479, -0.6230709552764893, -0.6285145282745361, -2.2670300006866455], [1.1645606756210327, 0.6520201563835144, 0.9344894886016846, 0.9044402837753296, 1.6261354684829712], [0.4114205241203308, 0.16587619483470917, 0.5444985628128052, 0.6593515276908875, 1.167909860610962], [3.0913076400756836, -0.7365502119064331, -0.2757607400417328, 0.6853944063186646, 0.6525382995605469]]"
"[[2.025249481201172, -0.556669294834137, -0.6795307993888855, -0.7127045392990112, -2.2264339923858643], [2.024448871612549, -0.8407188057899475, -0.6203673481941223, -0.6388379335403442, -2.2760121822357178], [1.1870253086090088, 0.6089333295822144, 0.9472252130508423, 0.9289727210998535, 1.6622042655944824], [0.3975498676300049, 0.11065046489238739, 0.5586175322532654, 0.6763057112693787, 1.181952714920044], [3.101618766784668, -0.750327467918396, -0.26479288935661316, 0.6711227893829346, 0.6412785053253174]]"
"[[2.0091264247894287, -0.5396491289138794, -0.6708970665931702, -0.6956160664558411, -2.210277557373047], [2.010943651199341, -0.8267120718955994, -0.6097646951675415, -0.6239374876022339, -2.2612407207489014], [1.1830002069473267, 0.6162989139556885, 0.945710301399231, 0.9242318272590637, 1.65546715259552], [0.4038847088813782, 0.12163343280553818, 0.5580801963806152, 0.6673038005828857, 1.1833783388137817], [3.086103677749634, -0.739038348197937, -0.25840049982070923, 0.6871014833450317, 0.6569891571998596]]"
"[[2.0022621154785156, -0.5343753695487976, -0.6632181406021118, -0.6917826533317566, -2.1942694187164307], [2.0017614364624023, -0.8182207942008972, -0.599854588508606, -0.6164654493331909, -2.2467305660247803], [1.180305004119873, 0.6145409941673279, 0.9461610913276672, 0.9188884496688843, 1.6603223085403442], [0.41624942421913147, 0.12295087426900864, 0.5656479001045227, 0.6480789184570312, 1.1979237794876099], [3.0786120891571045, -0.7361326813697815, -0.25430208444595337, 0.6863483190536499, 0.6728324890136719]]"
"[[1.997728943824768, -0.5313887000083923, -0.6554566621780396, -0.6910358667373657, -2.1851048469543457], [1.999794840812683, -0.8159880638122559, -0.5962591767311096, -0.6169993877410889, -2.2422733306884766], [1.1806567907333374, 0.6108361482620239, 0.9455339312553406, 0.9183140993118286, 1.6666427850723267], [0.4205986559391022, 0.11981157958507538, 0.5633469820022583, 0.6438324451446533, 1.2080423831939697], [3.0708491802215576, -0.730170488357544, -0.24568086862564087, 0.6874176263809204, 0.6847739219665527]]"
"[[1.9985296726226807, -0.5317736268043518, -0.6542184948921204, -0.6961450576782227, -2.1788203716278076], [2.0013790130615234, -0.8167440891265869, -0.5968213677406311, -0.6210893392562866, -2.2398481369018555], [1.178822636604309, 0.6083299517631531, 0.9432918429374695, 0.9139882326126099, 1.6746916770935059], [0.4300044775009155, 0.1194206178188324, 0.5590423345565796, 0.6328386664390564, 1.2256311178207397], [3.0687596797943115, -0.728834331035614, -0.24380622804164886, 0.681706964969635, 0.6938347220420837]]"
"[[2.0015320777893066, -0.5291671752929688, -0.6654539704322815, -0.6980828046798706, -2.181518077850342], [2.004688262939453, -0.8185402154922485, -0.6036301851272583, -0.6223724484443665, -2.241650104522705], [1.1731235980987549, 0.6176143288612366, 0.9420740604400635, 0.9029078483581543, 1.6672089099884033], [0.450914591550827, 0.13504087924957275, 0.5657311081886292, 0.6101945638656616, 1.2301493883132935], [3.0726494789123535, -0.7325978875160217, -0.25500547885894775, 0.6802136898040771, 0.6918137073516846]]"
"[[1.983446717262268, -0.5227273106575012, -0.6399385333061218, -0.676124095916748, -2.163679599761963], [1.9812138080596924, -0.800204336643219, -0.5768530368804932, -0.5986036062240601, -2.2199525833129883], [1.1834461688995361, 0.6072733998298645, 0.9462512731552124, 0.9160043597221375, 1.670966386795044], [0.45098474621772766, 0.12266843765974045, 0.5675343871116638, 0.6201015114784241, 1.2255518436431885], [3.059412717819214, -0.7259519100189209, -0.23829291760921478, 0.6939740180969238, 0.7015108466148376]]"
"[[1.967376470565796, -0.5032362341880798, -0.6291959285736084, -0.6659120321273804, -2.1454854011535645], [1.969490885734558, -0.7864043116569519, -0.5663838982582092, -0.5888292193412781, -2.2052252292633057], [1.1779578924179077, 0.6145331263542175, 0.942107617855072, 0.9100973010063171, 1.6678204536437988], [0.4528574049472809, 0.1320895105600357, 0.5590187311172485, 0.6194877624511719, 1.2263857126235962], [3.0456326007843018, -0.7133957147598267, -0.22974033653736115, 0.7016124725341797, 0.7197692394256592]]"
"[[1.9468071460723877, -0.4947420656681061, -0.6003776788711548, -0.6433475017547607, -2.120051383972168], [1.9468433856964111, -0.7686691880226135, -0.539921224117279, -0.5671647191047668, -2.181443929672241], [1.1779497861862183, 0.6077256202697754, 0.9494215250015259, 0.9104252457618713, 1.6709240674972534], [0.44456252455711365, 0.12267323583364487, 0.5773802995681763, 0.6139853000640869, 1.2256678342819214], [3.0236785411834717, -0.7012463808059692, -0.20642845332622528, 0.7192711234092712, 0.7423839569091797]]"
"[[1.9399391412734985, -0.5001494288444519, -0.5834528803825378, -0.6297647953033447, -2.110889434814453], [1.936610460281372, -0.7631598114967346, -0.5263888835906982, -0.556236743927002, -2.172881603240967], [1.1855957508087158, 0.5983134508132935, 0.9535272717475891, 0.9227252006530762, 1.6747111082077026], [0.4395451843738556, 0.11011195927858353, 0.5790317058563232, 0.6259042620658875, 1.2201868295669556], [3.013570785522461, -0.6968024373054504, -0.19249065220355988, 0.7308209538459778, 0.7487103343009949]]"
"[[1.9007691144943237, -0.46732011437416077, -0.5501010417938232, -0.5870100259780884, -2.07857608795166], [1.8997540473937988, -0.7306848168373108, -0.4904167056083679, -0.5163225531578064, -2.1385226249694824], [1.1840741634368896, 0.60664302110672, 0.9565991163253784, 0.9222481846809387, 1.659500002861023], [0.43736740946769714, 0.11897039413452148, 0.5905025005340576, 0.6272292137145996, 1.199231743812561], [2.9828505516052246, -0.6779401302337646, -0.16857372224330902, 0.7666300535202026, 0.7733516097068787]]"
"[[1.8784315586090088, -0.449240505695343, -0.5281797647476196, -0.5662499666213989, -2.052896022796631], [1.87589693069458, -0.7084263563156128, -0.4659769535064697, -0.4935390055179596, -2.1125473976135254], [1.180398941040039, 0.6077319979667664, 0.9550992846488953, 0.9149325489997864, 1.6629555225372314], [0.4466530680656433, 0.12326650321483612, 0.5906103253364563, 0.6144002079963684, 1.2092920541763306], [2.9620862007141113, -0.6633707880973816, -0.1521098017692566, 0.7826288342475891, 0.7971063852310181]]"
"[[1.8322525024414062, -0.39334529638290405, -0.5072723627090454, -0.5264139175415039, -2.0193910598754883], [1.8318156003952026, -0.6623597741127014, -0.42884576320648193, -0.44695645570755005, -2.069291353225708], [1.1703276634216309, 0.6255564093589783, 0.9486175179481506, 0.9011242389678955, 1.6498513221740723], [0.46132081747055054, 0.1484912633895874, 0.5797210335731506, 0.6020606756210327, 1.2113572359085083], [2.923625946044922, -0.6326546669006348, -0.13176250457763672, 0.8240062594413757, 0.8333214521408081]]"
"[[1.8282763957977295, -0.3925057053565979, -0.5038619041442871, -0.5177426934242249, -2.0124661922454834], [1.8259713649749756, -0.6563462615013123, -0.4247623085975647, -0.43995219469070435, -2.063167095184326], [1.1708259582519531, 0.624046266078949, 0.9461599588394165, 0.8964301347732544, 1.6558231115341187], [0.47271549701690674, 0.15013334155082703, 0.5746855735778809, 0.5898047685623169, 1.2278445959091187], [2.916134834289551, -0.626275360584259, -0.12886181473731995, 0.8321741819381714, 0.8406873941421509]]"
"[[1.8589248657226562, -0.446810245513916, -0.4974842071533203, -0.5200613737106323, -2.0222079753875732], [1.8379658460617065, -0.6790440678596497, -0.42855212092399597, -0.4488925039768219, -2.076512575149536], [1.1857059001922607, 0.6011879444122314, 0.956549346446991, 0.9126842617988586, 1.6706844568252563], [0.4686426520347595, 0.12248005717992783, 0.5887197852134705, 0.5920076370239258, 1.2341959476470947], [2.9294536113739014, -0.6427420973777771, -0.12964749336242676, 0.8229387998580933, 0.8221704363822937]]"
"[[1.8515350818634033, -0.4521154463291168, -0.47369158267974854, -0.5065815448760986, -2.0018765926361084], [1.8291879892349243, -0.6756446957588196, -0.41426849365234375, -0.44170325994491577, -2.064642906188965], [1.18889319896698, 0.5949802994728088, 0.9609988927841187, 0.9185625910758972, 1.6730672121047974], [0.46142685413360596, 0.11317836493253708, 0.5979575514793396, 0.5958161354064941, 1.229384183883667], [2.9170644283294678, -0.6372698545455933, -0.11278839409351349, 0.8295435309410095, 0.837745726108551]]"
"[[1.8461174964904785, -0.4446103572845459, -0.4693569242954254, -0.5066836476325989, -1.9859185218811035], [1.8237676620483398, -0.6679673194885254, -0.4092457890510559, -0.4398166835308075, -2.0528738498687744], [1.1842644214630127, 0.5969434380531311, 0.9598477482795715, 0.9059109091758728, 1.6772502660751343], [0.4655602276325226, 0.11832588165998459, 0.5973806977272034, 0.5801892280578613, 1.2448807954788208], [2.9110188484191895, -0.6330240964889526, -0.11024811118841171, 0.8254144191741943, 0.8540545105934143]]"
"[[1.8274641036987305, -0.46944764256477356, -0.3978915214538574, -0.44691893458366394, -1.9322865009307861], [1.7928088903427124, -0.6599409580230713, -0.3633614778518677, -0.4050927460193634, -2.0206258296966553], [1.1968424320220947, 0.5740020871162415, 0.9698674082756042, 0.9249923229217529, 1.6938116550445557], [0.4524441659450531, 0.0883016511797905, 0.6140138506889343, 0.5885493755340576, 1.2471178770065308], [2.878765106201172, -0.6171447038650513, -0.06663256883621216, 0.8567689061164856, 0.880629301071167]]"
"[[1.805051326751709, -0.4397159814834595, -0.40302059054374695, -0.44044435024261475, -1.9211390018463135], [1.7827502489089966, -0.6381464600563049, -0.36354148387908936, -0.3977327346801758, -2.0102391242980957], [1.1876424551010132, 0.5885191559791565, 0.9682860374450684, 0.9067838788032532, 1.6814464330673218], [0.4594472348690033, 0.1081206351518631, 0.6231561899185181, 0.570345938205719, 1.2406625747680664], [2.8671152591705322, -0.610751211643219, -0.06740709394216537, 0.8669022917747498, 0.8978373408317566]]"
"[[1.7946085929870605, -0.4374639093875885, -0.3859804570674896, -0.42691096663475037, -1.9038419723510742], [1.7708806991577148, -0.6283001899719238, -0.34999966621398926, -0.3875766396522522, -1.9977442026138306], [1.1859673261642456, 0.5877890586853027, 0.9685974717140198, 0.9105889797210693, 1.6817325353622437], [0.4534490704536438, 0.10653761774301529, 0.6246370673179626, 0.5741135478019714, 1.2375874519348145], [2.854166269302368, -0.6004907488822937, -0.053603582084178925, 0.8769318461418152, 0.9109821915626526]]"
"[[1.781652808189392, -0.44720590114593506, -0.35079747438430786, -0.3877284824848175, -1.8739585876464844], [1.7497334480285645, -0.6224227547645569, -0.32305580377578735, -0.36042261123657227, -1.9765422344207764], [1.1950496435165405, 0.5808653235435486, 0.9733710289001465, 0.913331925868988, 1.6840832233428955], [0.4616110622882843, 0.10003771632909775, 0.6365088224411011, 0.5665099024772644, 1.2381200790405273], [2.8391218185424805, -0.5960217714309692, -0.0373656190931797, 0.8967788815498352, 0.9203973412513733]]"
"[[1.7589282989501953, -0.44764280319213867, -0.3077745735645294, -0.34498608112335205, -1.8251944780349731], [1.7220323085784912, -0.6079564690589905, -0.29000917077064514, -0.33060401678085327, -1.943033218383789], [1.197906494140625, 0.5764565467834473, 0.9755568504333496, 0.9111921191215515, 1.6889785528182983], [0.46279972791671753, 0.09553152322769165, 0.6439139246940613, 0.5594009757041931, 1.243333101272583], [2.8110759258270264, -0.5788065791130066, -0.011898006312549114, 0.9195323586463928, 0.9511783719062805]]"
"[[1.712224006652832, -0.4095858335494995, -0.2875231206417084, -0.3078652322292328, -1.8040096759796143], [1.6884549856185913, -0.5633844137191772, -0.2703286111354828, -0.3009118437767029, -1.924057126045227], [1.1906545162200928, 0.5873897075653076, 0.9710282683372498, 0.9172220230102539, 1.6755410432815552], [0.4587078392505646, 0.10797488689422607, 0.6280601024627686, 0.5752258896827698, 1.229076862335205], [2.7820117473602295, -0.552629292011261, 0.007595131639391184, 0.9597254395484924, 0.9674457311630249]]"
"[[1.6703258752822876, -0.3545354902744293, -0.3076135218143463, -0.3041159510612488, -1.8120683431625366], [1.6693612337112427, -0.5178983211517334, -0.27647456526756287, -0.2895737290382385, -1.9203433990478516], [1.181386113166809, 0.6081357002258301, 0.9663156867027283, 0.9140446782112122, 1.6500195264816284], [0.4616689085960388, 0.13263940811157227, 0.6209295392036438, 0.5822569131851196, 1.2036634683609009], [2.7666444778442383, -0.537977397441864, 0.0045999400317668915, 0.9855576753616333, 0.9764008522033691]]"
"[[1.669871211051941, -0.36245986819267273, -0.29509082436561584, -0.28205788135528564, -1.8075298070907593], [1.6580976247787476, -0.5147849917411804, -0.26436445116996765, -0.27248501777648926, -1.9146039485931396], [1.1850308179855347, 0.6071500182151794, 0.9677988290786743, 0.9226700663566589, 1.6457992792129517], [0.46192124485969543, 0.13124747574329376, 0.6190589070320129, 0.5910329222679138, 1.195444941520691], [2.752918243408203, -0.5293107628822327, 0.017132898792624474, 1.0101653337478638, 0.9777641892433167]]"
"[[1.6738330125808716, -0.3961399793624878, -0.2362375557422638, -0.2285357117652893, -1.7646301984786987], [1.635894775390625, -0.5291656851768494, -0.22001439332962036, -0.2382427453994751, -1.8873839378356934], [1.1880282163619995, 0.5926240086555481, 0.9728421568870544, 0.9365108013153076, 1.6595615148544312], [0.4408365488052368, 0.108934685587883, 0.6285150647163391, 0.6074740886688232, 1.1918883323669434], [2.7178685665130615, -0.5094343423843384, 0.06198112666606903, 1.051620364189148, 0.9975945949554443]]"
"[[1.6292825937271118, -0.36554834246635437, -0.21395231783390045, -0.1775040626525879, -1.74129056930542], [1.5961085557937622, -0.4868399500846863, -0.197072833776474, -0.19797135889530182, -1.866058588027954], [1.1855944395065308, 0.6033219695091248, 0.9720084071159363, 0.93993079662323, 1.6423417329788208], [0.434209942817688, 0.11969848722219467, 0.6264188289642334, 0.6178843975067139, 1.173133373260498], [2.6862969398498535, -0.4859819710254669, 0.07934927195310593, 1.10250723361969, 1.008692979812622]]"
"[[1.6421841382980347, -0.40769147872924805, -0.14714175462722778, -0.12147248536348343, -1.6814817190170288], [1.5896313190460205, -0.5263963341712952, -0.15096743404865265, -0.16740167140960693, -1.8326404094696045], [1.190598726272583, 0.5846000909805298, 0.9738993644714355, 0.9475423097610474, 1.6671853065490723], [0.43162795901298523, 0.09745936095714569, 0.6226066946983337, 0.6255708336830139, 1.1892915964126587], [2.660439968109131, -0.47269728779792786, 0.11392394453287125, 1.1274909973144531, 1.0285972356796265]]"
"[[1.6617251634597778, -0.4365137219429016, -0.12301082164049149, -0.10806770622730255, -1.6573739051818848], [1.6010209321975708, -0.5609223246574402, -0.1356256753206253, -0.1635349988937378, -1.8210471868515015], [1.2023789882659912, 0.5736184120178223, 0.9820715188980103, 0.9459438920021057, 1.6739654541015625], [0.44815874099731445, 0.08803137391805649, 0.6469230055809021, 0.5964589715003967, 1.2023200988769531], [2.6757009029388428, -0.48845261335372925, 0.11838185042142868, 1.088918924331665, 1.0363832712173462]]"
"[[1.631321668624878, -0.4185553193092346, -0.10087589919567108, -0.07316750288009644, -1.630250334739685], [1.5691072940826416, -0.5340264439582825, -0.11359374970197678, -0.13503113389015198, -1.7984366416931152], [1.2008484601974487, 0.581858217716217, 0.9812448620796204, 0.9501436948776245, 1.6600044965744019], [0.44510751962661743, 0.09700985997915268, 0.6433399319648743, 0.6048685312271118, 1.187930703163147], [2.645564556121826, -0.46823087334632874, 0.13875438272953033, 1.1251603364944458, 1.0567491054534912]]"
"[[1.593577265739441, -0.4053817093372345, -0.05669157952070236, -0.009375407360494137, -1.5816394090652466], [1.5265231132507324, -0.5122892260551453, -0.07289467751979828, -0.08566846698522568, -1.7612645626068115], [1.2049449682235718, 0.5867071747779846, 0.9852505326271057, 0.9570258855819702, 1.644264578819275], [0.4402708113193512, 0.10061409324407578, 0.6557870507240295, 0.6073524355888367, 1.168155312538147], [2.60542368888855, -0.44922980666160583, 0.1674034297466278, 1.1718138456344604, 1.0810400247573853]]"
"[[1.5520234107971191, -0.41113948822021484, 0.04227954149246216, 0.08452843874692917, -1.486340045928955], [1.4729301929473877, -0.5143852233886719, 0.01554030179977417, -0.013142470270395279, -1.6889088153839111], [1.1899118423461914, 0.5755056142807007, 0.9792122840881348, 0.9567106366157532, 1.6740885972976685], [0.42000702023506165, 0.08435633033514023, 0.6424847841262817, 0.6276528239250183, 1.1796090602874756], [2.541253089904785, -0.4115588068962097, 0.22769621014595032, 1.2366970777511597, 1.1158816814422607]]"
"[[1.4994686841964722, -0.34171199798583984, 0.027499163523316383, 0.02037406526505947, -1.4466229677200317], [1.4195500612258911, -0.41327595710754395, 0.0022886735387146473, -0.055618468672037125, -1.6554514169692993], [1.1659077405929565, 0.6028372645378113, 0.968010425567627, 0.9083355069160461, 1.6661969423294067], [0.4496724307537079, 0.1264772266149521, 0.6460623741149902, 0.5687254071235657, 1.2105683088302612], [2.600569009780884, -0.3203486204147339, 0.31172069907188416, 1.1291589736938477, 1.2331732511520386]]"
"[[1.4840141534805298, -0.3519981801509857, 0.06153339892625809, 0.06980787217617035, -1.408401370048523], [1.4075889587402344, -0.43489739298820496, 0.03075694479048252, -0.010738762095570564, -1.6273114681243896], [1.166076421737671, 0.6012674570083618, 0.9691809415817261, 0.920922577381134, 1.6632810831069946], [0.44150203466415405, 0.12332388758659363, 0.6450165510177612, 0.58147794008255, 1.199123740196228], [2.547262668609619, -0.2770524024963379, 0.3691485822200775, 1.1528515815734863, 1.274383544921875]]"
"[[1.4979381561279297, -0.37798288464546204, 0.10222084820270538, 0.07850577682256699, -1.35535728931427], [1.4206708669662476, -0.46642374992370605, 0.0662226602435112, -0.002066252753138542, -1.5881372690200806], [1.1763921976089478, 0.5896363258361816, 0.9748589992523193, 0.9268853664398193, 1.6710816621780396], [0.449087530374527, 0.11228456348180771, 0.652787983417511, 0.5760852694511414, 1.2049262523651123], [2.541879892349243, -0.26925840973854065, 0.3911582827568054, 1.1484099626541138, 1.293665885925293]]"
"[[1.5057250261306763, -0.40305227041244507, 0.13125555217266083, 0.11640098690986633, -1.326193928718567], [1.4270708560943604, -0.49466198682785034, 0.0915493592619896, 0.03420085459947586, -1.5667014122009277], [1.1851627826690674, 0.5757022500038147, 0.9793882966041565, 0.9423666596412659, 1.6809732913970947], [0.4459771513938904, 0.09568244218826294, 0.6540857553482056, 0.5866197347640991, 1.205159068107605], [2.526712656021118, -0.2747423052787781, 0.3990654945373535, 1.1630228757858276, 1.2883057594299316]]"
"[[1.4286507368087769, -0.34114012122154236, 0.1039116233587265, 0.128641739487648, -1.2797722816467285], [1.3475587368011475, -0.4244210720062256, 0.05809411779046059, 0.05378246679902077, -1.5180559158325195], [1.1674357652664185, 0.6099600195884705, 0.9668376445770264, 0.9255149960517883, 1.6470046043395996], [0.4523150324821472, 0.1370210349559784, 0.6296387910842896, 0.5854399800300598, 1.193466305732727], [2.4836368560791016, -0.20848330855369568, 0.4313439130783081, 1.1731294393539429, 1.3435572385787964]]"
"[[1.4084901809692383, -0.3418846130371094, 0.19585639238357544, 0.10692929476499557, -1.172715187072754], [1.3244725465774536, -0.42620381712913513, 0.1455720067024231, 0.024937454611063004, -1.4302513599395752], [1.161625623703003, 0.6064829230308533, 0.9703261852264404, 0.9112514853477478, 1.65849769115448], [0.44394803047180176, 0.13249681890010834, 0.6503362059593201, 0.5679751634597778, 1.2000261545181274], [2.457054376602173, -0.15481232106685638, 0.5247031450271606, 1.1581835746765137, 1.4131172895431519]]"
"[[1.3745464086532593, -0.3006993234157562, 0.18838436901569366, 0.07544643431901932, -1.0976835489273071], [1.2934887409210205, -0.3772676885128021, 0.12940242886543274, -0.0038394008297473192, -1.3539048433303833], [1.1434589624404907, 0.6222903728485107, 0.9605243802070618, 0.8882603645324707, 1.6564570665359497], [0.4450618028640747, 0.1505461484193802, 0.6423007845878601, 0.5555678009986877, 1.2095047235488892], [2.4432878494262695, -0.10326778143644333, 0.5713777542114258, 1.1381278038024902, 1.4753109216690063]]"
"[[1.3397527933120728, -0.3680438995361328, 0.2639637887477875, 0.19131185114383698, -1.0255305767059326], [1.250091552734375, -0.4541911482810974, 0.19382032752037048, 0.116585873067379, -1.289886236190796], [1.1673609018325806, 0.5900724530220032, 0.9758309125900269, 0.9331372380256653, 1.6707284450531006], [0.42638131976127625, 0.11273282766342163, 0.6530879139900208, 0.5899814367294312, 1.1909161806106567], [2.375391960144043, -0.11246585100889206, 0.6110849976539612, 1.200545310974121, 1.4537445306777954]]"
"[[1.3105828762054443, -0.35202646255493164, 0.26864367723464966, 0.1967623084783554, -1.008954644203186], [1.2224504947662354, -0.4361899495124817, 0.19665026664733887, 0.12001846730709076, -1.272191047668457], [1.1717567443847656, 0.5984002351760864, 0.9778349995613098, 0.9371079206466675, 1.6505900621414185], [0.4283939599990845, 0.12163981050252914, 0.6541192531585693, 0.5900146961212158, 1.1795631647109985], [2.3534770011901855, -0.08123119920492172, 0.6383842825889587, 1.209916114807129, 1.4660817384719849]]"
"[[1.222701907157898, -0.3634988069534302, 0.2831052839756012, 0.30945977568626404, -1.0149540901184082], [1.1245406866073608, -0.45208996534347534, 0.2025236189365387, 0.24543359875679016, -1.2980161905288696], [1.1797699928283691, 0.5948272943496704, 0.9823597073554993, 0.9523497223854065, 1.6428292989730835], [0.4230457842350006, 0.11516024172306061, 0.6547967791557312, 0.6044679880142212, 1.1660845279693604], [2.2754337787628174, -0.06501220166683197, 0.6715672612190247, 1.2699246406555176, 1.4756364822387695]]"
"[[1.2243635654449463, -0.35310712456703186, 0.28562048077583313, 0.285104364156723, -0.9767462611198425], [1.1382582187652588, -0.43765854835510254, 0.2080012410879135, 0.20410454273223877, -1.2517800331115723], [1.183288335800171, 0.5979939699172974, 0.9844638109207153, 0.9558594226837158, 1.6324187517166138], [0.4242124855518341, 0.1184956505894661, 0.6571683287620544, 0.6053447723388672, 1.1579326391220093], [2.2598934173583984, -0.04487232118844986, 0.69640052318573, 1.2750005722045898, 1.488834023475647]]"
"[[1.1166026592254639, -0.3989306092262268, 0.2333378791809082, 0.4306555390357971, -1.0873327255249023], [1.0305122137069702, -0.49045228958129883, 0.15640118718147278, 0.347802072763443, -1.3574870824813843], [1.1949281692504883, 0.590949296951294, 0.9905490279197693, 0.9735332727432251, 1.6266611814498901], [0.4230518341064453, 0.10875899344682693, 0.6562975645065308, 0.6199307441711426, 1.1482212543487549], [2.160355567932129, -0.11743632704019547, 0.6150208711624146, 1.3887157440185547, 1.3976188898086548]]"
"[[1.1684601306915283, -0.38925230503082275, 0.28721925616264343, 0.36028972268104553, -1.027314305305481], [1.0814517736434937, -0.47653862833976746, 0.2084076702594757, 0.2773677110671997, -1.2997671365737915], [1.196510672569275, 0.5864167809486389, 0.9928100109100342, 0.9740467667579651, 1.6317211389541626], [0.4193340241909027, 0.10245697945356369, 0.6647131443023682, 0.6178473234176636, 1.1483458280563354], [2.19962739944458, -0.08020007610321045, 0.6712163686752319, 1.3385000228881836, 1.451284646987915]]"
"[[1.2239896059036255, -0.31551945209503174, 0.30553820729255676, 0.2840338349342346, -0.951732337474823], [1.1375999450683594, -0.39505937695503235, 0.22628121078014374, 0.20245197415351868, -1.2241891622543335], [1.1751601696014404, 0.6044047474861145, 0.9825980067253113, 0.9516811370849609, 1.6285017728805542], [0.41043975949287415, 0.12336023896932602, 0.6633006930351257, 0.6051913499832153, 1.1500017642974854], [2.2490522861480713, 0.010366858914494514, 0.7524319291114807, 1.2680845260620117, 1.537402868270874]]"
"[[1.1747677326202393, -0.359235554933548, 0.3542722761631012, 0.3073873221874237, -0.976477324962616], [1.0866477489471436, -0.4428555369377136, 0.2743529975414276, 0.2257508784532547, -1.2492566108703613], [1.1848914623260498, 0.5886327028274536, 0.9908838868141174, 0.9685323238372803, 1.6374489068984985], [0.3944277763366699, 0.10119149088859558, 0.6787784695625305, 0.6186321377754211, 1.1398112773895264], [2.2144393920898438, -0.003782672807574272, 0.7700202465057373, 1.2945103645324707, 1.5221929550170898]]"
"[[1.1882050037384033, -0.3420686721801758, 0.3396914303302765, 0.29886165261268616, -0.9561868906021118], [1.1009804010391235, -0.42422419786453247, 0.2596642076969147, 0.21730279922485352, -1.2281008958816528], [1.1847383975982666, 0.5942224860191345, 0.990340530872345, 0.967068076133728, 1.6289336681365967], [0.3972338140010834, 0.10817679762840271, 0.6756377220153809, 0.6162860989570618, 1.138874888420105], [2.2198405265808105, 0.012085319496691227, 0.781067430973053, 1.2847684621810913, 1.5372438430786133]]"
"[[1.2081562280654907, -0.3391999304294586, 0.3445497155189514, 0.2810477614402771, -0.9320160150527954], [1.121035099029541, -0.42023423314094543, 0.2641710042953491, 0.19929224252700806, -1.2043858766555786], [1.180198073387146, 0.591106116771698, 0.9880021214485168, 0.9597647190093994, 1.6412030458450317], [0.3995121717453003, 0.10620027035474777, 0.6754871010780334, 0.6093152165412903, 1.1500204801559448], [2.232356548309326, 0.029018666595220566, 0.8031437993049622, 1.266690969467163, 1.5610742568969727]]"
"[[1.2205183506011963, -0.27659282088279724, 0.32870063185691833, 0.25659167766571045, -0.8932796120643616], [1.1339333057403564, -0.352347731590271, 0.24920091032981873, 0.17509038746356964, -1.164000153541565], [1.1707355976104736, 0.6154062747955322, 0.9816944599151611, 0.9467008113861084, 1.6154142618179321], [0.406606525182724, 0.13489963114261627, 0.668310284614563, 0.5974395871162415, 1.143683671951294], [2.2458858489990234, 0.07104339450597763, 0.8254095315933228, 1.2438130378723145, 1.5942455530166626]]"
"[[1.1934040784835815, -0.2987990975379944, 0.3317789137363434, 0.28219544887542725, -0.9063267707824707], [1.106873631477356, -0.3767743408679962, 0.25237587094306946, 0.2007097452878952, -1.1760419607162476], [1.1722475290298462, 0.6076242923736572, 0.9837149977684021, 0.9576867818832397, 1.6212977170944214], [0.3935569226741791, 0.12388870120048523, 0.6685526371002197, 0.6125648021697998, 1.1383601427078247], [2.2233636379241943, 0.05680561810731888, 0.8208924531936646, 1.2649240493774414, 1.5760756731033325]]"
"[[1.1939589977264404, -0.28753525018692017, 0.3725491762161255, 0.24770541489124298, -0.8888972997665405], [1.1062196493148804, -0.36497530341148376, 0.29302531480789185, 0.16617245972156525, -1.1594526767730713], [1.1734833717346191, 0.6114550828933716, 0.9861619472503662, 0.9495806097984314, 1.6161526441574097], [0.3971553444862366, 0.12927334010601044, 0.6849589943885803, 0.5924902558326721, 1.1382347345352173], [2.2387073040008545, 0.07910142093896866, 0.8567371964454651, 1.2405292987823486, 1.609271764755249]]"
"[[1.1888542175292969, -0.3396148979663849, 0.3985520601272583, 0.2545660436153412, -0.8896252512931824], [1.0996648073196411, -0.4192016124725342, 0.3186228573322296, 0.17291691899299622, -1.1615300178527832], [1.1884139776229858, 0.5833167433738708, 0.9956473708152771, 0.9655233025550842, 1.6433906555175781], [0.3982201814651489, 0.09859532862901688, 0.6945806741714478, 0.5985400676727295, 1.150071382522583], [2.2338945865631104, 0.0581359900534153, 0.8705831170082092, 1.2446755170822144, 1.6051671504974365]]"
"[[1.1890662908554077, -0.3588864803314209, 0.43298113346099854, 0.2353486567735672, -0.8871656656265259], [1.0981072187423706, -0.4393267035484314, 0.35382503271102905, 0.15282514691352844, -1.1612718105316162], [1.1977131366729736, 0.5727185606956482, 1.0013964176177979, 0.9661794900894165, 1.6528292894363403], [0.40647268295288086, 0.08766864240169525, 0.7049165964126587, 0.5890103578567505, 1.1586997509002686], [2.2437283992767334, 0.05688996985554695, 0.8932023048400879, 1.230342149734497, 1.624899983406067]]"
"[[1.1986095905303955, -0.3027811646461487, 0.3769656717777252, 0.24804699420928955, -0.8610222935676575], [1.1119827032089233, -0.3805081248283386, 0.295977383852005, 0.167158842086792, -1.131378412246704], [1.1618040800094604, 0.5983877778053284, 0.9804850816726685, 0.9390623569488525, 1.6521469354629517], [0.3890060484409332, 0.11701645702123642, 0.6863045692443848, 0.5882629156112671, 1.158363699913025], [2.229844093322754, 0.08667442202568054, 0.8887854218482971, 1.2352653741836548, 1.6346505880355835]]"
"[[1.1951876878738403, -0.3054446578025818, 0.39838990569114685, 0.2321814000606537, -0.8566036820411682], [1.1081095933914185, -0.3831939697265625, 0.3167702257633209, 0.15114952623844147, -1.127411961555481], [1.1542099714279175, 0.5951851010322571, 0.976876974105835, 0.9281241297721863, 1.6681767702102661], [0.38714250922203064, 0.11462011933326721, 0.6939173936843872, 0.5777468681335449, 1.1664656400680542], [2.234893321990967, 0.09377117455005646, 0.9064426422119141, 1.2244560718536377, 1.6529110670089722]]"
"[[1.1824111938476562, -0.33615490794181824, 0.4328567683696747, 0.22460632026195526, -0.8625694513320923], [1.0941063165664673, -0.4147547483444214, 0.3505202829837799, 0.14318794012069702, -1.1337958574295044], [1.1762104034423828, 0.5799280405044556, 0.9904934167861938, 0.9461213946342468, 1.6666641235351562], [0.3952665627002716, 0.09749231487512589, 0.7068815231323242, 0.5764108300209045, 1.1674964427947998], [2.236355781555176, 0.0842759907245636, 0.924156904220581, 1.2221155166625977, 1.6536905765533447]]"
"[[1.1699481010437012, -0.33611994981765747, 0.41709399223327637, 0.2516515851020813, -0.8740547895431519], [1.082277774810791, -0.4149479568004608, 0.334676593542099, 0.17084860801696777, -1.1443839073181152], [1.18143892288208, 0.582688570022583, 0.9938250184059143, 0.9628743529319763, 1.650168776512146], [0.3858194053173065, 0.09768696129322052, 0.7028278708457947, 0.5937398076057434, 1.151937484741211], [2.218508243560791, 0.0744808092713356, 0.9088360071182251, 1.242392659187317, 1.6313700675964355]]"
"[[1.154910683631897, -0.3540455400943756, 0.4206857681274414, 0.26882097125053406, -0.8743352293968201], [1.066456913948059, -0.43289458751678467, 0.33810701966285706, 0.1884387731552124, -1.144425868988037], [1.1922029256820679, 0.5722969174385071, 1.0004597902297974, 0.978033185005188, 1.6514309644699097], [0.38672909140586853, 0.08471976965665817, 0.7042468786239624, 0.6041184663772583, 1.149962067604065], [2.20509672164917, 0.06450337171554565, 0.9134568572044373, 1.254955768585205, 1.6188033819198608]]"
"[[1.1657952070236206, -0.3240179121494293, 0.4092196226119995, 0.2537727355957031, -0.842978835105896], [1.0781550407409668, -0.4016226530075073, 0.3271043598651886, 0.17314276099205017, -1.112513542175293], [1.180475115776062, 0.5845981240272522, 0.9932053089141846, 0.9616497159004211, 1.6481982469558716], [0.38643497228622437, 0.10034383088350296, 0.7001797556877136, 0.5927990674972534, 1.153165340423584], [2.205872058868408, 0.09169647097587585, 0.9337705969810486, 1.2414641380310059, 1.6497862339019775]]"
"[[1.172511339187622, -0.3191244900226593, 0.4008640944957733, 0.2538378834724426, -0.8330544233322144], [1.0851080417633057, -0.3963432013988495, 0.31887856125831604, 0.17321260273456573, -1.1024419069290161], [1.1800940036773682, 0.5857659578323364, 0.9928478002548218, 0.9611073732376099, 1.6468855142593384], [0.3876790404319763, 0.10202903300523758, 0.6983610391616821, 0.5922618508338928, 1.153845191001892], [2.205531120300293, 0.09603190422058105, 0.9363551735877991, 1.2404112815856934, 1.6523183584213257]]"
"[[1.1574138402938843, -0.32850801944732666, 0.41786763072013855, 0.2537831664085388, -0.8390122652053833], [1.0695865154266357, -0.4061035215854645, 0.3356572091579437, 0.17309555411338806, -1.1085879802703857], [1.1756514310836792, 0.5804003477096558, 0.9909358620643616, 0.9579410552978516, 1.6605463027954102], [0.38222038745880127, 0.09566125273704529, 0.7024932503700256, 0.5915747284889221, 1.159030795097351], [2.1991183757781982, 0.09526892751455307, 0.9509233236312866, 1.2419699430465698, 1.6562237739562988]]"
"[[1.1322494745254517, -0.3127906918525696, 0.43070903420448303, 0.25381726026535034, -0.8499423265457153], [1.0443240404129028, -0.3902529180049896, 0.34864145517349243, 0.17314480245113373, -1.1190179586410522], [1.1760318279266357, 0.5921867489814758, 0.9914034605026245, 0.9599754810333252, 1.63960862159729], [0.3768295347690582, 0.10685736685991287, 0.7044170498847961, 0.5921210646629333, 1.1449946165084839], [2.1897757053375244, 0.10389881581068039, 0.9555128216743469, 1.246185302734375, 1.6591033935546875]]"
"[[1.1099708080291748, -0.345050573348999, 0.44673487544059753, 0.27218344807624817, -0.85381680727005], [1.0211118459701538, -0.4233435094356537, 0.36437028646469116, 0.19184571504592896, -1.1232637166976929], [1.1896586418151855, 0.5758739113807678, 1.0003515481948853, 0.9774416089057922, 1.6469961404800415], [0.37947389483451843, 0.08787792921066284, 0.7085317969322205, 0.6025720834732056, 1.146135687828064], [2.1722910404205322, 0.09392820298671722, 0.9739694595336914, 1.258812427520752, 1.6507362127304077]]"
"[[1.1107770204544067, -0.29371994733810425, 0.43653443455696106, 0.25286898016929626, -0.8347752690315247], [1.0234332084655762, -0.37039196491241455, 0.35456520318984985, 0.17198826372623444, -1.1028717756271362], [1.1758029460906982, 0.6016748547554016, 0.9915663003921509, 0.9603346586227417, 1.6233974695205688], [0.3746161460876465, 0.11681559681892395, 0.7047319412231445, 0.5914032459259033, 1.1343146562576294], [2.169542074203491, 0.1302689015865326, 0.9874193668365479, 1.249094009399414, 1.6769574880599976]]"
"[[1.0935977697372437, -0.31661832332611084, 0.4539346694946289, 0.26195573806762695, -0.8499017953872681], [1.005710244178772, -0.39436909556388855, 0.3718400001525879, 0.18100441992282867, -1.118213176727295], [1.189171314239502, 0.5932707190513611, 1.000210165977478, 0.9761412143707275, 1.6189970970153809], [0.3774935305118561, 0.10724428296089172, 0.7094699144363403, 0.5992696285247803, 1.127503752708435], [2.1618762016296387, 0.11945343762636185, 0.9911763072013855, 1.2572475671768188, 1.667460560798645]]"
"[[1.0888291597366333, -0.3408956527709961, 0.4625788927078247, 0.2703714966773987, -0.8441303372383118], [1.000382900238037, -0.41883137822151184, 0.3802032768726349, 0.1894771009683609, -1.1126493215560913], [1.1971516609191895, 0.5774258971214294, 1.0055667161941528, 0.9856277704238892, 1.6345312595367432], [0.3806411325931549, 0.08966013044118881, 0.7122500538825989, 0.6038005948066711, 1.1379575729370117], [2.1546478271484375, 0.11210919171571732, 1.0080630779266357, 1.2622623443603516, 1.6624304056167603]]"
"[[1.0691609382629395, -0.32764363288879395, 0.43305280804634094, 0.31556951999664307, -0.8469223380088806], [0.9811945557594299, -0.4056156575679779, 0.35052648186683655, 0.23642069101333618, -1.1147491931915283], [1.197671890258789, 0.5860989093780518, 1.0058282613754272, 0.9970085620880127, 1.615203619003296], [0.3725733458995819, 0.09747569262981415, 0.7058979272842407, 0.6192709803581238, 1.1183260679244995], [2.125256061553955, 0.11923368275165558, 0.9993905425071716, 1.2874997854232788, 1.6437251567840576]]"
"[[1.0557714700698853, -0.33933117985725403, 0.4487435519695282, 0.31565049290657043, -0.8416712284088135], [0.9676011800765991, -0.417211651802063, 0.36614105105400085, 0.2360716462135315, -1.1094322204589844], [1.2056612968444824, 0.5791771411895752, 1.0110843181610107, 1.0046336650848389, 1.6165765523910522], [0.3766258656978607, 0.08949679136276245, 0.7100784182548523, 0.621308445930481, 1.1186637878417969], [2.1165595054626465, 0.11993175745010376, 1.0166387557983398, 1.2895344495773315, 1.6497132778167725]]"
"[[1.0632826089859009, -0.34290817379951477, 0.45292341709136963, 0.3062719404697418, -0.8229105472564697], [0.9760667085647583, -0.4199582040309906, 0.37044557929039, 0.22570207715034485, -1.0898066759109497], [1.199075698852539, 0.5725956559181213, 1.0070677995681763, 0.9985198974609375, 1.6354314088821411], [0.37289029359817505, 0.08239081501960754, 0.7090739011764526, 0.6192476749420166, 1.1328792572021484], [2.114490032196045, 0.12324167788028717, 1.0313996076583862, 1.2860677242279053, 1.6596485376358032]]"
"[[1.0654691457748413, -0.28962498903274536, 0.43230921030044556, 0.2961502969264984, -0.804781973361969], [0.9795531630516052, -0.3655129075050354, 0.3504754304885864, 0.21563616394996643, -1.0704718828201294], [1.173680305480957, 0.5986118316650391, 0.9904210567474365, 0.9739819169044495, 1.6244927644729614], [0.3586606979370117, 0.11180083453655243, 0.6995702385902405, 0.6103814840316772, 1.1257432699203491], [2.108902931213379, 0.16042229533195496, 1.030482530593872, 1.2805172204971313, 1.6815869808197021]]"
"[[1.0664312839508057, -0.29669809341430664, 0.4311978816986084, 0.3005672097206116, -0.8020232915878296], [0.9804509878158569, -0.3727061152458191, 0.34932029247283936, 0.2200506180524826, -1.0678720474243164], [1.1769424676895142, 0.5946972370147705, 0.9926324486732483, 0.9775189757347107, 1.6266345977783203], [0.35972875356674194, 0.10750734061002731, 0.7005242109298706, 0.6123838424682617, 1.126796841621399], [2.106440305709839, 0.15743030607700348, 1.0312498807907104, 1.2818613052368164, 1.6826434135437012]]"
"[[1.0632978677749634, -0.297498494386673, 0.42530590295791626, 0.3103145956993103, -0.7989652752876282], [0.9772822856903076, -0.3733774721622467, 0.3434924781322479, 0.22974751889705658, -1.064534306526184], [1.1742548942565918, 0.5929288864135742, 0.9909723997116089, 0.9773008227348328, 1.6319200992584229], [0.35632801055908203, 0.10535696893930435, 0.6986960172653198, 0.615696132183075, 1.128553867340088], [2.0998997688293457, 0.15805885195732117, 1.0316346883773804, 1.287732481956482, 1.6771349906921387]]"
"[[1.0654988288879395, -0.29804861545562744, 0.42626118659973145, 0.30671656131744385, -0.7932823896408081], [0.9795123338699341, -0.3737524747848511, 0.34446197748184204, 0.22607265412807465, -1.0588289499282837], [1.1748130321502686, 0.5916604399681091, 0.9914200305938721, 0.9780149459838867, 1.6331722736358643], [0.3564305603504181, 0.10397667437791824, 0.698993444442749, 0.6159909963607788, 1.1294602155685425], [2.0988481044769287, 0.1572013944387436, 1.0352797508239746, 1.2864220142364502, 1.6823029518127441]]"
"[[1.0792276859283447, -0.2636014223098755, 0.4179215729236603, 0.283622145652771, -0.7752543687820435], [0.9936485886573792, -0.3381642997264862, 0.33639612793922424, 0.20317968726158142, -1.0406326055526733], [1.1647967100143433, 0.6065472960472107, 0.9842572808265686, 0.964375376701355, 1.6234488487243652], [0.35597309470176697, 0.12126703560352325, 0.695341169834137, 0.6043691039085388, 1.1284059286117554], [2.1071887016296387, 0.18342821300029755, 1.0380514860153198, 1.272290825843811, 1.7038273811340332]]"
"[[1.0620070695877075, -0.31052538752555847, 0.4227502644062042, 0.31946462392807007, -0.7893522381782532], [0.9759005904197693, -0.38637658953666687, 0.3409132659435272, 0.23889701068401337, -1.0548430681228638], [1.173895239830017, 0.5828181505203247, 0.9912303686141968, 0.9806973338127136, 1.647178292274475], [0.35277417302131653, 0.09450259804725647, 0.6966925263404846, 0.6235605478286743, 1.1351025104522705], [2.0884013175964355, 0.15271545946598053, 1.037622094154358, 1.2943178415298462, 1.6788309812545776]]"
"[[1.0434435606002808, -0.292475163936615, 0.4096064865589142, 0.3407791554927826, -0.7982825040817261], [0.957495391368866, -0.36847278475761414, 0.3280152380466461, 0.26041632890701294, -1.062705159187317], [1.1711177825927734, 0.5955796837806702, 0.9891734719276428, 0.9827437996864319, 1.6279618740081787], [0.3438471853733063, 0.1069883480668068, 0.6906691193580627, 0.6303990483283997, 1.1203768253326416], [2.075409173965454, 0.16073234379291534, 1.0221461057662964, 1.3104972839355469, 1.6576735973358154]]"
"[[1.028712272644043, -0.2953406870365143, 0.42275288701057434, 0.33932921290397644, -0.8011789321899414], [0.9425806999206543, -0.37131989002227783, 0.341124027967453, 0.25892743468284607, -1.0653365850448608], [1.1718180179595947, 0.5947500467300415, 0.9902742505073547, 0.9839817881584167, 1.6278342008590698], [0.341838002204895, 0.10556752979755402, 0.6941274404525757, 0.6304863095283508, 1.1186368465423584], [2.0677404403686523, 0.16092197597026825, 1.040047287940979, 1.3125205039978027, 1.6606253385543823]]"
"[[1.0296140909194946, -0.2866381108760834, 0.4172772765159607, 0.3393382132053375, -0.7930044531822205], [0.9435247778892517, -0.3623184263706207, 0.3357880711555481, 0.25901105999946594, -1.0569761991500854], [1.182282567024231, 0.6001743078231812, 0.996917724609375, 0.9933083057403564, 1.606675148010254], [0.34632888436317444, 0.11070870608091354, 0.694614827632904, 0.6319685578346252, 1.1076804399490356], [2.0661957263946533, 0.16235002875328064, 1.0347789525985718, 1.3117625713348389, 1.6670185327529907]]"
"[[1.0557215213775635, -0.2430335432291031, 0.416230708360672, 0.29154109954833984, -0.7573927640914917], [0.9703856110572815, -0.3170107305049896, 0.3351023495197296, 0.21103550493717194, -1.0208674669265747], [1.1672961711883545, 0.6172576546669006, 0.986089825630188, 0.9724931120872498, 1.6008803844451904], [0.3472718596458435, 0.1312984824180603, 0.6919695138931274, 0.6116207838058472, 1.1119109392166138], [2.083427906036377, 0.2016146183013916, 1.055530309677124, 1.283393383026123, 1.706060767173767]]"
"[[1.0521621704101562, -0.25108033418655396, 0.41167786717414856, 0.30496469140052795, -0.7643690705299377], [0.9671873450279236, -0.3255375921726227, 0.33043327927589417, 0.22427649796009064, -1.0278360843658447], [1.1636148691177368, 0.6134837865829468, 0.9839998483657837, 0.9731061458587646, 1.60955810546875], [0.3397888243198395, 0.12653398513793945, 0.6887197494506836, 0.6189806461334229, 1.1148179769515991], [2.073063611984253, 0.1948338747024536, 1.0525312423706055, 1.293126106262207, 1.698376178741455]]"
"[[1.038360834121704, -0.27421069145202637, 0.4248597025871277, 0.3165140450000763, -0.7731437683105469], [0.9531407356262207, -0.3490840494632721, 0.343438059091568, 0.23562675714492798, -1.036405086517334], [1.1628260612487793, 0.5999979972839355, 0.9846065640449524, 0.97532057762146, 1.628809928894043], [0.3343644440174103, 0.11201126128435135, 0.6910192966461182, 0.6244063973426819, 1.1260654926300049], [2.0613584518432617, 0.18328857421875, 1.0714985132217407, 1.3033815622329712, 1.686354398727417]]"
"[[0.9978946447372437, -0.30623573064804077, 0.43594223260879517, 0.3614216148853302, -0.807959258556366], [0.9123131632804871, -0.38184425234794617, 0.35434213280677795, 0.28013330698013306, -1.0708072185516357], [1.1836209297180176, 0.5889892578125, 1.0001811981201172, 1.0007209777832031, 1.6186597347259521], [0.33318835496902466, 0.09706439077854156, 0.6968981623649597, 0.6447322964668274, 1.1120257377624512], [2.032313823699951, 0.1483614444732666, 1.056677222251892, 1.3362932205200195, 1.6535985469818115]]"
"[[1.00407075881958, -0.28673893213272095, 0.4318193197250366, 0.34741124510765076, -0.797321617603302], [0.9187027215957642, -0.36214160919189453, 0.3504813313484192, 0.2661427855491638, -1.0595821142196655], [1.1935123205184937, 0.6022797226905823, 1.0066983699798584, 1.0103175640106201, 1.5870153903961182], [0.3380049467086792, 0.11069551855325699, 0.6987431645393372, 0.6457710266113281, 1.0884231328964233], [2.0382821559906006, 0.15910114347934723, 1.0512105226516724, 1.3326466083526611, 1.653024435043335]]"
"[[0.9885286688804626, -0.2880244553089142, 0.42671069502830505, 0.3686053156852722, -0.8112290501594543], [0.903326153755188, -0.3636702299118042, 0.3453468084335327, 0.28724387288093567, -1.0732262134552002], [1.199981689453125, 0.6057554483413696, 1.0116835832595825, 1.019320011138916, 1.5727565288543701], [0.3368638753890991, 0.1131540909409523, 0.6989129781723022, 0.6552301645278931, 1.0727289915084839], [2.0221729278564453, 0.14906765520572662, 1.034510612487793, 1.3493473529815674, 1.6397554874420166]]"
"[[0.9728331565856934, -0.28614068031311035, 0.44115105271339417, 0.36353400349617004, -0.8120216131210327], [0.8873736262321472, -0.3617551028728485, 0.3598800599575043, 0.2822904586791992, -1.0739885568618774], [1.1944043636322021, 0.6064063310623169, 1.008252501487732, 1.0137070417404175, 1.5782437324523926], [0.33120888471603394, 0.11332190781831741, 0.7000014185905457, 0.6520072817802429, 1.077610969543457], [2.0117874145507812, 0.15654237568378448, 1.058138132095337, 1.3468787670135498, 1.6567258834838867]]"
"[[0.9788143038749695, -0.2576238214969635, 0.44246527552604675, 0.3362686336040497, -0.7953828573226929], [0.8935420513153076, -0.3328540623188019, 0.36144182085990906, 0.25526896119117737, -1.0570331811904907], [1.18715238571167, 0.6223840117454529, 1.0026367902755737, 1.0049279928207397, 1.564433217048645], [0.32936471700668335, 0.13132816553115845, 0.6984471678733826, 0.642827033996582, 1.068264126777649], [2.0195794105529785, 0.18164578080177307, 1.0769034624099731, 1.3298450708389282, 1.6814271211624146]]"
"[[0.984866738319397, -0.27036088705062866, 0.4629010260105133, 0.31300824880599976, -0.779803454875946], [0.8990936875343323, -0.3454083502292633, 0.3818173408508301, 0.23210108280181885, -1.0417873859405518], [1.1824089288711548, 0.6093918681144714, 0.99985271692276, 0.998871922492981, 1.5876785516738892], [0.3277028203010559, 0.11908100545406342, 0.7008737325668335, 0.6336525082588196, 1.0929114818572998], [2.028123378753662, 0.18569062650203705, 1.1104114055633545, 1.3115850687026978, 1.7080247402191162]]"
"[[0.9736064076423645, -0.28452935814857483, 0.46697160601615906, 0.3261564373970032, -0.7873915433883667], [0.8876985311508179, -0.35985028743743896, 0.3857790529727936, 0.2452378273010254, -1.0494680404663086], [1.1873376369476318, 0.6020411252975464, 1.0042310953140259, 1.0065557956695557, 1.5905449390411377], [0.32549214363098145, 0.11018290370702744, 0.7014038562774658, 0.6434305906295776, 1.0922991037368774], [2.0172996520996094, 0.1728697419166565, 1.113926887512207, 1.3203864097595215, 1.7028005123138428]]"
"[[0.9857138991355896, -0.2766494154930115, 0.4820031523704529, 0.29249605536460876, -0.7659011483192444], [0.899579644203186, -0.3516169786453247, 0.40109023451805115, 0.21154414117336273, -1.0281907320022583], [1.175687551498413, 0.6010934114456177, 0.9954356551170349, 0.9893814921379089, 1.607481598854065], [0.326445072889328, 0.11173835396766663, 0.7026386857032776, 0.6210301518440247, 1.1156747341156006], [2.0305423736572266, 0.19244050979614258, 1.151635766029358, 1.2966405153274536, 1.732479214668274]]"
"[[0.9726324677467346, -0.27693310379981995, 0.47888490557670593, 0.30725666880607605, -0.7763594388961792], [0.8866884708404541, -0.35203850269317627, 0.3978714644908905, 0.2262752503156662, -1.0384188890457153], [1.1736871004104614, 0.6028429269790649, 0.9942020177841187, 0.9919048547744751, 1.6055964231491089], [0.31929948925971985, 0.11223067343235016, 0.6993489861488342, 0.6301721334457397, 1.1100190877914429], [2.0176897048950195, 0.189631387591362, 1.1434775590896606, 1.3090516328811646, 1.7219630479812622]]"
"[[0.9731377363204956, -0.28419914841651917, 0.49538442492485046, 0.2911294400691986, -0.7717207670211792], [0.886711835861206, -0.3593645393848419, 0.41456982493400574, 0.21003495156764984, -1.0343633890151978], [1.17902410030365, 0.5976016521453857, 0.9985068440437317, 0.9938380718231201, 1.6075842380523682], [0.3272252082824707, 0.10797027498483658, 0.7048701643943787, 0.6234979033470154, 1.1149368286132812], [2.023864269256592, 0.1877259761095047, 1.162628173828125, 1.297314167022705, 1.7391045093536377]]"
"[[0.9589380621910095, -0.32529890537261963, 0.5086584687232971, 0.3126657009124756, -0.7769692540168762], [0.8717081546783447, -0.4007735848426819, 0.4279273450374603, 0.23121632635593414, -1.0402926206588745], [1.187674880027771, 0.5699736475944519, 1.0062956809997559, 1.0072897672653198, 1.6316022872924805], [0.32600921392440796, 0.07785095274448395, 0.7056846022605896, 0.6393817663192749, 1.1331619024276733], [2.010207414627075, 0.15912173688411713, 1.178020715713501, 1.310934066772461, 1.724739670753479]]"
"[[0.9604209065437317, -0.28858253359794617, 0.47884154319763184, 0.3239891231060028, -0.7722561955451965], [0.8749083876609802, -0.3635956943035126, 0.39736491441726685, 0.2432090789079666, -1.0337995290756226], [1.1821072101593018, 0.5947960019111633, 1.0013271570205688, 1.003983736038208, 1.6049538850784302], [0.31874531507492065, 0.10341750830411911, 0.7000877261161804, 0.641633927822113, 1.107058048248291], [2.003598213195801, 0.18098653852939606, 1.1489509344100952, 1.3182947635650635, 1.7196400165557861]]"
"[[0.9597815275192261, -0.2778714895248413, 0.477226197719574, 0.31984052062034607, -0.7743003964424133], [0.8745567202568054, -0.3529067635536194, 0.3957701623439789, 0.23906786739826202, -1.0356626510620117], [1.179216980934143, 0.602535605430603, 0.999025285243988, 1.0010470151901245, 1.5981582403182983], [0.3168608546257019, 0.1116809993982315, 0.6990710496902466, 0.6390522122383118, 1.1014620065689087], [2.0030152797698975, 0.19001084566116333, 1.148832082748413, 1.3174337148666382, 1.7212626934051514]]"
"[[0.9631783366203308, -0.26724132895469666, 0.470385879278183, 0.31773483753204346, -0.765091061592102], [0.8781466484069824, -0.34200581908226013, 0.3889126181602478, 0.23716279864311218, -1.0262433290481567], [1.1695693731307983, 0.6064942479133606, 0.9915469884872437, 0.9909630417823792, 1.6039689779281616], [0.310837060213089, 0.11610320210456848, 0.695164144039154, 0.6336935758590698, 1.1080036163330078], [2.0015416145324707, 0.1994551420211792, 1.1556499004364014, 1.3136390447616577, 1.7302145957946777]]"
"[[0.9791553020477295, -0.23750928044319153, 0.4598637521266937, 0.29603835940361023, -0.740014374256134], [0.8944299221038818, -0.3116290271282196, 0.3785509765148163, 0.2157888263463974, -1.0010277032852173], [1.1513475179672241, 0.6194977760314941, 0.976516604423523, 0.9686358571052551, 1.6093782186508179], [0.3039344847202301, 0.13157470524311066, 0.6892874240875244, 0.614040732383728, 1.1192967891693115], [2.0090324878692627, 0.22457708418369293, 1.157458782196045, 1.294488549232483, 1.7648311853408813]]"
"[[0.9898770451545715, -0.24712365865707397, 0.4628286361694336, 0.2881876230239868, -0.7246662974357605], [0.9049271941184998, -0.32112541794776917, 0.3814888894557953, 0.20795966684818268, -0.9857183694839478], [1.155295729637146, 0.6101621985435486, 0.9797183275222778, 0.9701384902000427, 1.6177592277526855], [0.31012097001075745, 0.12325543165206909, 0.6927642226219177, 0.6088520288467407, 1.1298502683639526], [2.015184164047241, 0.22370709478855133, 1.1702619791030884, 1.2872291803359985, 1.7710587978363037]]"
"[[0.9796411395072937, -0.22810256481170654, 0.4432308077812195, 0.3090973496437073, -0.7313145995140076], [0.8950611352920532, -0.30182620882987976, 0.36195385456085205, 0.22908036410808563, -0.9918439388275146], [1.143172264099121, 0.6225645542144775, 0.9699549674987793, 0.9632263779640198, 1.6138736009597778], [0.2951972782611847, 0.1341278851032257, 0.682304322719574, 0.6168769598007202, 1.1228389739990234], [2.0005722045898438, 0.23500357568264008, 1.1527386903762817, 1.3019434213638306, 1.7576431035995483]]"
"[[0.9640916585922241, -0.27802830934524536, 0.4667668342590332, 0.3292810022830963, -0.7356883883476257], [0.8783676028251648, -0.3524271845817566, 0.38530728220939636, 0.24944835901260376, -0.9963510036468506], [1.1680893898010254, 0.5910763144493103, 0.9913889169692993, 0.989967405796051, 1.6250855922698975], [0.3084065318107605, 0.10197851806879044, 0.6942406892776489, 0.6338613033294678, 1.128612756729126], [1.9955427646636963, 0.19973419606685638, 1.1736444234848022, 1.3131871223449707, 1.7367005348205566]]"
"[[0.9643386006355286, -0.2395821213722229, 0.4494512975215912, 0.3198516070842743, -0.7287837266921997], [0.8798342347145081, -0.31398826837539673, 0.3683173358440399, 0.2399107664823532, -0.9883263111114502], [1.1574398279190063, 0.6191059947013855, 0.9821011424064636, 0.979922890663147, 1.5997940301895142], [0.2986045181751251, 0.1315821260213852, 0.6863659620285034, 0.6279376149177551, 1.1066648960113525], [1.9908772706985474, 0.22767111659049988, 1.157299280166626, 1.3101158142089844, 1.7505970001220703]]"
"[[0.9448518753051758, -0.2660645544528961, 0.46946555376052856, 0.33279848098754883, -0.741273045539856], [0.8597561717033386, -0.3406856656074524, 0.38835740089416504, 0.2524171471595764, -1.0005242824554443], [1.17713463306427, 0.6024633646011353, 0.9991735219955444, 1.0034428834915161, 1.5982831716537476], [0.3078036308288574, 0.11317943036556244, 0.6957933306694031, 0.6448639631271362, 1.1011173725128174], [1.9818841218948364, 0.20604099333286285, 1.1695667505264282, 1.3275082111358643, 1.7202961444854736]]"
"[[0.9548920392990112, -0.2526072561740875, 0.46741655468940735, 0.31471896171569824, -0.7217877507209778], [0.8700556755065918, -0.3269313871860504, 0.3863929212093353, 0.23437806963920593, -0.9807349443435669], [1.1653631925582886, 0.6076197624206543, 0.9890893697738647, 0.9895565509796143, 1.605664849281311], [0.3036014139652252, 0.12016306072473526, 0.6925128102302551, 0.6306915283203125, 1.111809253692627], [1.9876610040664673, 0.22141635417938232, 1.1780226230621338, 1.3127985000610352, 1.7435411214828491]]"
"[[0.9487841725349426, -0.25128820538520813, 0.46775558590888977, 0.3167547583580017, -0.7136205434799194], [0.863771915435791, -0.3254336416721344, 0.3867780268192291, 0.23655135929584503, -0.9723427295684814], [1.1598702669143677, 0.6063138246536255, 0.984795331954956, 0.9844511151313782, 1.6133016347885132], [0.29935237765312195, 0.11894843727350235, 0.6900233030319214, 0.6291928887367249, 1.1186002492904663], [1.980586051940918, 0.2223162204027176, 1.185364842414856, 1.312270998954773, 1.752771019935608]]"
"[[0.9340870380401611, -0.21822822093963623, 0.4479491412639618, 0.32586827874183655, -0.7209683656692505], [0.8496063351631165, -0.29207661747932434, 0.36703696846961975, 0.24594642221927643, -0.9787285327911377], [1.1540006399154663, 0.6316667199134827, 0.9792354106903076, 0.9811932444572449, 1.5858172178268433], [0.2910938262939453, 0.1444500833749771, 0.6829279661178589, 0.6323589086532593, 1.090981125831604], [1.972396969795227, 0.24258974194526672, 1.1577568054199219, 1.322678565979004, 1.7424031496047974]]"
"[[0.9480999708175659, -0.18640102446079254, 0.43639713525772095, 0.29961344599723816, -0.6884453892707825], [0.8637606501579285, -0.25923603773117065, 0.3556937873363495, 0.21984854340553284, -0.9456340074539185], [1.136075735092163, 0.6458788514137268, 0.963359534740448, 0.9597455263137817, 1.5888198614120483], [0.2860856354236603, 0.16105595231056213, 0.6763738393783569, 0.6107006072998047, 1.0998327732086182], [1.9820959568023682, 0.2711455523967743, 1.1608633995056152, 1.300439476966858, 1.7773046493530273]]"
"[[0.9468214511871338, -0.19308564066886902, 0.4341300427913666, 0.30847999453544617, -0.6868802309036255], [0.862438976764679, -0.26609373092651367, 0.3533897399902344, 0.22883370518684387, -0.9439507126808167], [1.1431211233139038, 0.6422644257545471, 0.9693582057952881, 0.9679328203201294, 1.5852785110473633], [0.28927576541900635, 0.15688276290893555, 0.6779344081878662, 0.6176167726516724, 1.095513105392456], [1.9787176847457886, 0.26636937260627747, 1.159360408782959, 1.305620789527893, 1.7706012725830078]]"
"[[0.9199491143226624, -0.19217273592948914, 0.4524005651473999, 0.3069794178009033, -0.6981022953987122], [0.8351104855537415, -0.2652926445007324, 0.3718780279159546, 0.2272806316614151, -0.9550275206565857], [1.1361398696899414, 0.6435773968696594, 0.9642658829689026, 0.9622935652732849, 1.5904326438903809], [0.2805849611759186, 0.1574236899614334, 0.6777821779251099, 0.6167705655097961, 1.0985482931137085], [1.9673669338226318, 0.2662842273712158, 1.175164818763733, 1.3081400394439697, 1.7755719423294067]]"
"[[0.921096920967102, -0.18721064925193787, 0.4437386095523834, 0.31120046973228455, -0.6871338486671448], [0.8364116549491882, -0.26008671522140503, 0.363116979598999, 0.2316870391368866, -0.9435707330703735], [1.1312333345413208, 0.6443332433700562, 0.9600450396537781, 0.9581657648086548, 1.594523310661316], [0.27662864327430725, 0.15834562480449677, 0.6739866137504578, 0.61610347032547, 1.102477788925171], [1.963753581047058, 0.27239057421684265, 1.175399661064148, 1.3097772598266602, 1.775347352027893]]"
"[[0.9052057266235352, -0.18625378608703613, 0.44390153884887695, 0.32422974705696106, -0.6954340934753418], [0.8205329179763794, -0.25917693972587585, 0.36336684226989746, 0.24467699229717255, -0.9516368508338928], [1.1299517154693604, 0.6461885571479797, 0.9591370820999146, 0.9597433805465698, 1.592634916305542], [0.27013126015663147, 0.15905410051345825, 0.6708348393440247, 0.6238051652908325, 1.0982673168182373], [1.9520633220672607, 0.2708413004875183, 1.172154188156128, 1.3208308219909668, 1.7652114629745483]]"
"[[0.9035117626190186, -0.20610283315181732, 0.4616726338863373, 0.31995850801467896, -0.687761127948761], [0.8186302781105042, -0.2794525921344757, 0.38136962056159973, 0.24018752574920654, -0.9440798163414001], [1.1267470121383667, 0.631144642829895, 0.9571020007133484, 0.9559551477432251, 1.6147079467773438], [0.26939657330513, 0.14514216780662537, 0.6726762652397156, 0.6217636466026306, 1.1163524389266968], [1.9486942291259766, 0.26014840602874756, 1.1957212686538696, 1.3150250911712646, 1.7788842916488647]]"
"[[0.893418550491333, -0.1871602088212967, 0.4632801413536072, 0.31221088767051697, -0.6944292783737183], [0.8086841702461243, -0.2602393627166748, 0.3830569088459015, 0.23239238560199738, -0.9506960511207581], [1.1222617626190186, 0.6445517539978027, 0.9531903266906738, 0.9514160752296448, 1.6029775142669678], [0.2641526162624359, 0.15778474509716034, 0.6700814366340637, 0.6183903217315674, 1.1078733205795288], [1.9451051950454712, 0.26573142409324646, 1.1921923160552979, 1.3121392726898193, 1.7902376651763916]]"
"[[0.9056726098060608, -0.1821434050798416, 0.4593411684036255, 0.3014468550682068, -0.6781483888626099], [0.8211830258369446, -0.2548397481441498, 0.3789360523223877, 0.22170908749103546, -0.9341567754745483], [1.121110200881958, 0.6444753408432007, 0.95186847448349, 0.9489392638206482, 1.6049314737319946], [0.2664751708507538, 0.15849930047988892, 0.6706809401512146, 0.6117039918899536, 1.112678050994873], [1.9508204460144043, 0.27155035734176636, 1.1927766799926758, 1.30385422706604, 1.8009521961212158]]"
"[[0.8984227180480957, -0.19008368253707886, 0.4658866822719574, 0.30557867884635925, -0.6794601082801819], [0.8136873245239258, -0.26304662227630615, 0.3856450617313385, 0.22579193115234375, -0.9352191090583801], [1.132067322731018, 0.6419603228569031, 0.9611651301383972, 0.9605733156204224, 1.5958067178726196], [0.2728140652179718, 0.1557723879814148, 0.6751037240028381, 0.6172851920127869, 1.104740023612976], [1.952720046043396, 0.2678758203983307, 1.1914899349212646, 1.31013822555542, 1.7849012613296509]]"
"[[0.8892073035240173, -0.16056610643863678, 0.44779011607170105, 0.3110516667366028, -0.6822273135185242], [0.8048502206802368, -0.23272450268268585, 0.3673074543476105, 0.23146870732307434, -0.9374774098396301], [1.1175464391708374, 0.6591481566429138, 0.9481183290481567, 0.9477630257606506, 1.590338945388794], [0.25922322273254395, 0.17220886051654816, 0.6651129126548767, 0.6157456040382385, 1.09809410572052], [1.9448941946029663, 0.28576982021331787, 1.1754751205444336, 1.314670443534851, 1.7853482961654663]]"
"[[0.8787572383880615, -0.16970130801200867, 0.4578668475151062, 0.31566426157951355, -0.6890474557876587], [0.7943466305732727, -0.2423139363527298, 0.3774016201496124, 0.23608234524726868, -0.944182813167572], [1.12557852268219, 0.6570522785186768, 0.9556930661201477, 0.9562138319015503, 1.5833971500396729], [0.2620711922645569, 0.16963429749011993, 0.6688478589057922, 0.6211335062980652, 1.0918816328048706], [1.9405791759490967, 0.2808251678943634, 1.188435673713684, 1.3189282417297363, 1.7786755561828613]]"
"[[0.864237368106842, -0.16719943284988403, 0.4367438852787018, 0.35298463702201843, -0.7067313194274902], [0.7799401879310608, -0.2400166392326355, 0.35615274310112, 0.2737247943878174, -0.9615238308906555], [1.1323575973510742, 0.6640786528587341, 0.961726725101471, 0.966818630695343, 1.5658793449401855], [0.2573181092739105, 0.1740298569202423, 0.6643142104148865, 0.6414090394973755, 1.0707892179489136], [1.9276829957962036, 0.27758997678756714, 1.1659209728240967, 1.3445650339126587, 1.743932843208313]]"
"[[0.8799378871917725, -0.17721621692180634, 0.4432404637336731, 0.3374967575073242, -0.68158358335495], [0.7956674695014954, -0.25002092123031616, 0.3627777695655823, 0.2581516206264496, -0.9363650679588318], [1.1282190084457397, 0.6515202522277832, 0.9581380486488342, 0.9607438445091248, 1.5861282348632812], [0.25921201705932617, 0.16362309455871582, 0.6653200387954712, 0.6325299143791199, 1.0909922122955322], [1.9325793981552124, 0.27368512749671936, 1.1825673580169678, 1.3282310962677002, 1.7700886726379395]]"
"[[0.8759700655937195, -0.1784009039402008, 0.4443367123603821, 0.3402240574359894, -0.6813226938247681], [0.7917150855064392, -0.2512888014316559, 0.3638754189014435, 0.26093000173568726, -0.9360164999961853], [1.1298643350601196, 0.6513862609863281, 0.959692656993866, 0.9625905156135559, 1.5842947959899902], [0.25936102867126465, 0.16341863572597504, 0.6657406687736511, 0.6342446804046631, 1.089137315750122], [1.92918062210083, 0.2738284766674042, 1.1853784322738647, 1.3299641609191895, 1.7696226835250854]]"
"[[0.8458911180496216, -0.19290529191493988, 0.45158466696739197, 0.37048694491386414, -0.7076109647750854], [0.761145830154419, -0.2664945423603058, 0.3710174262523651, 0.2916560769081116, -0.9624103307723999], [1.1537243127822876, 0.6518195867538452, 0.9815512895584106, 0.9889355897903442, 1.5562065839767456], [0.2699397802352905, 0.16159887611865997, 0.6749906539916992, 0.6553213000297546, 1.0603803396224976], [1.9155479669570923, 0.2655182480812073, 1.1960232257843018, 1.3544321060180664, 1.7320915460586548]]"
"[[0.854926586151123, -0.14848269522190094, 0.43733730912208557, 0.3414537310600281, -0.6872110366821289], [0.7710987329483032, -0.2212056964635849, 0.35711872577667236, 0.26205942034721375, -0.9413373470306396], [1.1278883218765259, 0.6744279861450195, 0.9577221274375916, 0.9624633193016052, 1.5591198205947876], [0.25234663486480713, 0.18564338982105255, 0.6606919169425964, 0.6348642706871033, 1.0677196979522705], [1.9110137224197388, 0.2978801131248474, 1.1834955215454102, 1.3383634090423584, 1.767757534980774]]"
"[[0.82929927110672, -0.18769821524620056, 0.456361323595047, 0.37202274799346924, -0.6947708129882812], [0.7450186610221863, -0.2611800730228424, 0.37610355019569397, 0.29280927777290344, -0.9489653706550598], [1.1522419452667236, 0.6537524461746216, 0.980823278427124, 0.9882127046585083, 1.554969310760498], [0.2649924159049988, 0.16339334845542908, 0.6726125478744507, 0.6583582162857056, 1.0587531328201294], [1.8918119668960571, 0.2743110656738281, 1.2180509567260742, 1.3558167219161987, 1.748668909072876]]"
"[[0.8263203501701355, -0.16934068500995636, 0.4629073143005371, 0.3513573706150055, -0.6911958456039429], [0.7423758506774902, -0.24264249205589294, 0.38301345705986023, 0.27165696024894714, -0.9450054168701172], [1.1486326456069946, 0.6662004590034485, 0.977138102054596, 0.9844455122947693, 1.5444815158843994], [0.2637975513935089, 0.17670078575611115, 0.6720705032348633, 0.651491105556488, 1.0502238273620605], [1.8934969902038574, 0.29071250557899475, 1.218592643737793, 1.3512780666351318, 1.7531886100769043]]"
"[[0.8201177716255188, -0.18129868805408478, 0.46242836117744446, 0.3669664263725281, -0.6974030137062073], [0.7360863089561462, -0.2547553777694702, 0.3824358284473419, 0.2872810363769531, -0.9512526392936707], [1.1528233289718628, 0.6596953272819519, 0.9812138080596924, 0.9895422458648682, 1.5468679666519165], [0.2636045813560486, 0.16928406059741974, 0.6724231839179993, 0.6598565578460693, 1.05070161819458], [1.8862168788909912, 0.2795092761516571, 1.2157307863235474, 1.3605095148086548, 1.745235800743103]]"
"[[0.8152453899383545, -0.19271144270896912, 0.4625927805900574, 0.3797931373119354, -0.6995556354522705], [0.7311112284660339, -0.2663043737411499, 0.38249510526657104, 0.3002072870731354, -0.9534459710121155], [1.154104471206665, 0.6520141959190369, 0.9826396703720093, 0.9913411736488342, 1.5541186332702637], [0.26238274574279785, 0.16077914834022522, 0.6720417141914368, 0.6648309826850891, 1.0566530227661133], [1.8786792755126953, 0.270201712846756, 1.2172369956970215, 1.3665492534637451, 1.7425520420074463]]"
"[[0.7978726029396057, -0.19274871051311493, 0.4682818055152893, 0.3880048990249634, -0.7145363688468933], [0.71358722448349, -0.26660478115081787, 0.3883095681667328, 0.3083999752998352, -0.9685038328170776], [1.1608039140701294, 0.6567029356956482, 0.9887024164199829, 0.9988262057304382, 1.5408352613449097], [0.26553240418434143, 0.164958655834198, 0.6750540137290955, 0.6710590124130249, 1.042488694190979], [1.872663140296936, 0.2722736597061157, 1.2195827960968018, 1.3769211769104004, 1.7276419401168823]]"
"[[0.8076432943344116, -0.1769331991672516, 0.4697604179382324, 0.36251866817474365, -0.6983664035797119], [0.7237913012504578, -0.25052130222320557, 0.3898346722126007, 0.2827948331832886, -0.9521343111991882], [1.149408221244812, 0.663657009601593, 0.9779961705207825, 0.9860551357269287, 1.546048879623413], [0.2592730224132538, 0.17331229150295258, 0.6707252264022827, 0.6577880382537842, 1.0500054359436035], [1.8741346597671509, 0.2815615236759186, 1.2182070016860962, 1.3591232299804688, 1.759482502937317]]"
"[[0.797828733921051, -0.19029802083969116, 0.47612184286117554, 0.3736325800418854, -0.698514461517334], [0.7138503789901733, -0.263895720243454, 0.39607831835746765, 0.2939152717590332, -0.9523743987083435], [1.1504054069519043, 0.6535339951515198, 0.9798125624656677, 0.9876155257225037, 1.556390643119812], [0.25817298889160156, 0.16264528036117554, 0.6713241338729858, 0.66258704662323, 1.0583878755569458], [1.8578286170959473, 0.2719724774360657, 1.2397284507751465, 1.3639655113220215, 1.7635977268218994]]"
"[[0.7962613701820374, -0.18660418689250946, 0.4634762406349182, 0.3866731524467468, -0.6964859366416931], [0.7124990224838257, -0.2601149380207062, 0.3832349181175232, 0.3071956932544708, -0.9499883055686951], [1.1484293937683105, 0.6554418206214905, 0.9777342677116394, 0.9864990711212158, 1.5560604333877563], [0.25476300716400146, 0.16435839235782623, 0.6680387854576111, 0.6652736067771912, 1.057088017463684], [1.8531447649002075, 0.2770620882511139, 1.228330135345459, 1.3719419240951538, 1.7554113864898682]]"
