"[[1.079467535018921, 0.25947996973991394, 0.027601763606071472, 0.02973378449678421, -1.4655680656433105, 1.4768034219741821, -0.33469945192337036, -0.17634831368923187, -0.13437248766422272, -1.8049572706222534, -0.13095693290233612, 1.3235719203948975, 1.0820066928863525, -0.4022776484489441, 1.177319884300232, -1.3809832334518433, 0.38508519530296326, -0.1667487621307373, 1.3728760480880737, -0.16554652154445648, 1.9645068645477295, 0.18657614290714264, 0.5613493919372559, 1.5836117267608643, 1.5513849258422852, 0.2661416530609131, -0.02920302376151085, -1.01214599609375, 0.6262072324752808, -0.8258777260780334, -0.4869590401649475, -0.3884756863117218, -0.92508465051651, -0.4853794574737549, -0.5839016437530518, -1.3658238649368286, -0.08088868856430054, 0.9392569661140442, 0.7726553082466125, 0.2604801654815674, -1.0694706439971924, 0.43407946825027466, 1.2492505311965942, -0.772228479385376, -1.6487290859222412, 0.9461238980293274, 0.06705883890390396, -0.38105759024620056, 0.11483319848775864, 0.38458573818206787], [-1.7721781730651855, 1.621097445487976, 2.2629244327545166, -0.5089499950408936, 1.2251027822494507, -1.208121418952942, 1.027971625328064, -0.737554132938385, 0.1834782212972641, 0.3648093640804291, -0.010875681415200233, 1.0180745124816895, -0.11094438284635544, -0.7034634947776794, -0.08188831806182861, -0.3987085521221161, -0.05014122650027275, 0.0043249730952084064, 1.9238537549972534, -0.2338598519563675, 0.2928972840309143, -1.4736242294311523, -0.010123451240360737, 1.0829554796218872, -0.26160869002342224, -0.3910781443119049, 1.0289373397827148, 0.3934628963470459, -0.6216936111450195, -1.5363601446151733, -1.2679206132888794, 0.15622088313102722, -1.0361648797988892, -0.4049270451068878, 1.6996686458587646, 0.5566313862800598, -0.5265540480613708, -1.7038639783859253, -0.615888237953186, 1.4365124702453613, 0.23919855058193207, 0.7510550022125244, 0.2834627032279968, 0.6635634303092957, 0.3505989909172058, -0.07938054949045181, 0.257841557264328, -0.38972485065460205, 1.7631944417953491, -0.8319001197814941], [-0.7845553159713745, -1.0633212327957153, 0.12337036430835724, 0.49279776215553284, 0.4680406451225281, 2.109581470489502, -0.5012766718864441, -1.3417259454727173, -0.5317619442939758, 2.287972927093506, 1.8412457704544067, -0.21258185803890228, -0.7840265035629272, -1.4565070867538452, 0.5610222220420837, 0.3819553256034851, 0.7612073421478271, -2.003563165664673, -1.042940378189087, -0.656598687171936, -2.3011600971221924, 1.6990870237350464, -0.2384272813796997, -0.7096682190895081, 1.2580101490020752, -0.07172631472349167, -1.234785556793213, 0.0646909847855568, 0.4997114837169647, 0.38644343614578247, -1.0243488550186157, -0.22447969019412994, -1.1345272064208984, -1.819465160369873, -0.10745656490325928, -0.44630196690559387, -0.7352277040481567, 1.2584768533706665, -2.0849597454071045, -0.0931914821267128, -0.38046056032180786, -0.36969801783561707, 1.0977917909622192, -0.06540148705244064, 0.1786569356918335, 0.618660569190979, 1.3915516138076782, 0.4978893995285034, -0.6154045462608337, 0.03869084641337395], [0.9314285516738892, -1.114609956741333, 0.43887412548065186, 0.6185322999954224, 0.10166381299495697, 0.5554576516151428, -0.6154940128326416, -0.639316976070404, 0.3950730562210083, -1.3925172090530396, 0.5129433274269104, -0.0068524559028446674, -0.5394471287727356, 0.29398512840270996, 0.022534985095262527, -0.6491948962211609, 0.7558900117874146, 2.17026948928833, 0.4803611636161804, 0.5943989753723145, 2.057530641555786, -0.20196819305419922, 1.5755259990692139, 0.8064407706260681, -2.4149978160858154, -1.6620148420333862, 0.46179065108299255, -0.25645774602890015, 0.30523473024368286, 0.7729557752609253, 0.27055037021636963, -1.9866890907287598, 1.008031964302063, -0.14444230496883392, -0.4303164482116699, 1.922442078590393, 1.5221021175384521, -0.04012852534651756, 0.41348332166671753, -0.28524497151374817, 0.24630983173847198, -0.041658248752355576, 1.8706122636795044, -0.20246070623397827, 0.5169299244880676, -0.6725485324859619, -1.1452937126159668, 0.6492190957069397, 0.5445510745048523, -0.4741879105567932], [0.8602768778800964, 1.198401927947998, -0.7619519233703613, -0.509742796421051, -0.2906590700149536, 1.886275291442871, -0.3809555470943451, 0.5294152498245239, -0.33592310547828674, 0.26957839727401733, 0.7456146478652954, -0.7559803128242493, -0.6340795755386353, -0.8807276487350464, -0.4067642390727997, 0.223825141787529, -0.17826712131500244, 0.06677380949258804, -0.8500548005104065, 0.6119213104248047, 2.6663827896118164, 0.45216047763824463, 0.5274882316589355, 1.3534157276153564, -0.2755245268344879, -1.445347547531128, 0.013353371061384678, 1.0129148960113525, -0.1579083502292633, 1.7886401414871216, 0.025157980620861053, 1.9119384288787842, -0.3384844660758972, 0.47053438425064087, 0.40372228622436523, 0.5094077587127686, -1.4761099815368652, -1.8511333465576172, -0.7432522177696228, -1.5633622407913208, 1.4736666679382324, -1.9004026651382446, 1.1817653179168701, -0.5753729343414307, -1.7337626218795776, -1.0763989686965942, -1.5646308660507202, -0.7738111019134521, 0.36215007305145264, -0.0843551978468895]]"
"[[1.070264220237732, 0.25027742981910706, 0.022174188867211342, 0.02032533474266529, -1.4715133905410767, 1.470855712890625, -0.3441075086593628, -0.18219991028308868, -0.08865492790937424, -1.8103559017181396, -0.1407015174627304, 1.3140016794204712, 1.0724364519119263, -0.4120219051837921, 1.1676326990127563, -1.405489444732666, 0.375220388174057, -0.17661301791667938, 1.3483628034591675, -0.1901773363351822, 1.9518262147903442, 0.17612002789974213, 0.5502853989601135, 1.5714601278305054, 1.505143404006958, 0.259647935628891, -0.03569670021533966, -1.058382272720337, 0.6107812523841858, -0.8717052340507507, -0.49490076303482056, -0.3979651629924774, -0.9345732927322388, -0.49332118034362793, -0.592485785484314, -1.3702876567840576, -0.054594628512859344, 0.9655512571334839, 0.7681902647018433, 0.287484347820282, -1.0788568258285522, 0.42493417859077454, 1.240105152130127, -0.7683643102645874, -1.6581422090530396, 0.9367062449455261, 0.061705008149147034, -0.38176092505455017, 0.11412987112998962, 0.4185698628425598], [-1.7374175786972046, 1.6558715105056763, 2.299834966659546, -0.5123264193534851, 1.2256568670272827, -1.2075676918029785, 1.0245953798294067, -0.7364681959152222, 0.23480050265789032, 0.40317705273628235, -0.017981089651584625, 1.0133062601089478, -0.11571264266967773, -0.7105684280395508, -0.08843664824962616, -0.44178131222724915, -0.05824638158082962, -0.003780199447646737, 1.8807806968688965, -0.2769680917263031, 0.28878745436668396, -1.477468729019165, -0.01416395790874958, 1.0789082050323486, -0.2658975422382355, -0.3968416154384613, 1.0231738090515137, 0.38917383551597595, -0.6275101900100708, -1.5404924154281616, -1.2701318264007568, 0.15277943015098572, -1.0396058559417725, -0.4071386456489563, 1.696926474571228, 0.5779024362564087, -0.4995071589946747, -1.6768203973770142, -0.5946180820465088, 1.4745807647705078, 0.2354375422000885, 0.7475504875183105, 0.27995818853378296, 0.6694650650024414, 0.3469240367412567, -0.08305537700653076, 0.25523120164871216, -0.3847903609275818, 1.7681292295455933, -0.8210649490356445], [-0.7594850659370422, -1.0382524728775024, 0.1496812254190445, 0.5177245736122131, 0.49399158358573914, 2.1355338096618652, -0.47635170817375183, -1.3155977725982666, -0.5320599675178528, 2.266078472137451, 1.8660873174667358, -0.18773794174194336, -0.7591841816902161, -1.4316720962524414, 0.5858718156814575, 0.4064182937145233, 0.78603196144104, -1.9787496328353882, -1.0184807777404785, -0.6321646571159363, -2.277085304260254, 1.7234387397766113, -0.2136896848678589, -0.6854398846626282, 1.2178752422332764, -0.06089012324810028, -1.2239500284194946, 0.024557456374168396, 0.4718959331512451, 0.34648942947387695, -0.9989194273948669, -0.1996915340423584, -1.1097420454025269, -1.7940410375595093, -0.08232252299785614, -0.42096394300460815, -0.711678683757782, 1.2820264101028442, -2.059631586074829, -0.06962224841117859, -0.35559171438217163, -0.34486374258995056, 1.1226277351379395, -0.03937957063317299, 0.20346342027187347, 0.6434674859046936, 1.4169082641601562, 0.5187994241714478, -0.5944958329200745, 0.06831198185682297], [0.9346985816955566, -1.111339807510376, 0.4433969259262085, 0.6217272281646729, 0.10602288693189621, 0.5598167181015015, -0.6122991442680359, -0.6349281668663025, 0.4309825301170349, -1.3879916667938232, 0.5136925578117371, -0.006069360766559839, -0.5386639833450317, 0.2947341501712799, 0.024039676412940025, -0.6491612792015076, 0.7310559749603271, 2.1454343795776367, 0.48039475083351135, 0.5695226788520813, 2.0606632232666016, -0.19880247116088867, 1.5786705017089844, 0.809581995010376, -2.4121153354644775, -1.6606531143188477, 0.46315228939056396, -0.2535742521286011, 0.30638399720191956, 0.7758603692054749, 0.27724507451057434, -1.981940507888794, 1.012781023979187, -0.13774777948856354, -0.4249705374240875, 1.9593373537063599, 1.5409284830093384, -0.021302085369825363, 0.45037832856178284, -0.24493254721164703, 0.24948817491531372, -0.03850036486983299, 1.8737703561782837, -0.19834524393081665, 0.520108699798584, -0.6693699359893799, -1.141822338104248, 0.6530570983886719, 0.5483890771865845, -0.45629724860191345], [0.9015068411827087, 1.2396317720413208, -0.7204604148864746, -0.46851933002471924, -0.24918951094150543, 1.9277467727661133, -0.33973175287246704, 0.5708919763565063, -0.29220619797706604, 0.31107664108276367, 0.7868305444717407, -0.7147637605667114, -0.5928629040718079, -0.8395152688026428, -0.3655495345592499, 0.2646828293800354, -0.1370626538991928, 0.10797875374555588, -0.8091996312141418, 0.6527661085128784, 2.6850550174713135, 0.49315398931503296, 0.5686985850334167, 1.3943997621536255, -0.31764742732048035, -1.4095282554626465, 0.04917784407734871, 0.9707916378974915, -0.2002730816602707, 1.7465171813964844, 0.06638245284557343, 1.9531590938568115, -0.29726600646972656, 0.5117594003677368, 0.4449418783187866, 0.5506346821784973, -1.4349243640899658, -1.8099514245986938, -0.7020280957221985, -1.5221680402755737, 1.5148855447769165, -1.8592079877853394, 1.222970724105835, -0.5343504548072815, -1.6925615072250366, -1.0351929664611816, -1.5233885049819946, -0.7338030338287354, 0.40216049551963806, -0.04906319081783295]]"
"[[1.054699420928955, 0.23471294343471527, 0.010815534740686417, 0.004419729113578796, -1.4838969707489014, 1.4584654569625854, -0.3600122034549713, -0.19448566436767578, -0.042964089661836624, -1.822510838508606, -0.15702444314956665, 1.2979886531829834, 1.0564236640930176, -0.42830690741539, 1.1523672342300415, -1.4421706199645996, 0.35857659578323364, -0.19325587153434753, 1.3116731643676758, -0.22695055603981018, 1.9336549043655396, 0.15664470195770264, 0.4797549247741699, 1.5007011890411377, 1.481972575187683, 0.28039419651031494, -0.01495055016130209, -1.0815504789352417, 0.6257674098014832, -0.8961694836616516, -0.5127136707305908, -0.41408228874206543, -0.9506886005401611, -0.5111148953437805, -0.6077486276626587, -1.3879364728927612, -0.06890565156936646, 0.951240062713623, 0.7505344152450562, 0.2730293273925781, -1.094538688659668, 0.4102373719215393, 1.2254077196121216, -0.7547697424888611, -1.6737958192825317, 0.9210440516471863, 0.06315922737121582, -0.3748076260089874, 0.121083565056324, 0.47615453600883484], [-1.7188212871551514, 1.6744741201400757, 2.323800802230835, -0.4954116940498352, 1.248289704322815, -1.184939980506897, 1.0415117740631104, -0.7122459411621094, 0.2785547375679016, 0.4243498146533966, -0.006544237956404686, 1.0281352996826172, -0.10088466852903366, -0.6991159319877625, -0.07655075937509537, -0.4846924841403961, -0.049412574619054794, 0.005053648725152016, 1.8378692865371704, -0.31989023089408875, 0.3048604130744934, -1.4620500802993774, -0.0009382679709233344, 1.0921196937561035, -0.24964940547943115, -0.374080091714859, 1.0459359884262085, 0.4054226279258728, -0.6048144102096558, -1.5244131088256836, -1.254719853401184, 0.16801439225673676, -1.024373173713684, -0.39171338081359863, 1.713376760482788, 0.5790268182754517, -0.5018578171730042, -1.6791701316833496, -0.5934937000274658, 1.4671419858932495, 0.2511242628097534, 0.7680475115776062, 0.30045458674430847, 0.7046002149581909, 0.3652401566505432, -0.06473975628614426, 0.2799900472164154, -0.3683483302593231, 1.7845715284347534, -0.79276043176651], [-0.7276870012283325, -1.0064563751220703, 0.18237408995628357, 0.54465651512146, 0.4734685719013214, 2.115011215209961, -0.44942185282707214, -1.3376983404159546, -0.536298930644989, 2.237173080444336, 1.8990368843078613, -0.1558050960302353, -0.7272533774375916, -1.3987185955047607, 0.6181862354278564, 0.4383041560649872, 0.8179160356521606, -1.9468814134597778, -0.9865996837615967, -0.6002983450889587, -2.2450082302093506, 1.7553178071975708, -0.18177592754364014, -0.6535513401031494, 1.2199398279190063, -0.028391242027282715, -1.1914541721343994, 0.026622392237186432, 0.4829655885696411, 0.34873995184898376, -0.9678924679756165, -0.16791105270385742, -1.077965497970581, -1.7630114555358887, -0.05041191726922989, -0.39024555683135986, -0.7101732492446899, 1.283531665802002, -2.028926372528076, -0.06820235401391983, -0.32234451174736023, -0.3125395178794861, 1.1549547910690308, -0.002427265513688326, 0.2371779829263687, 0.6771827936172485, 1.4706891775131226, 0.5500369668006897, -0.5632601380348206, 0.11911562085151672], [0.9643228650093079, -1.0817177295684814, 0.47396478056907654, 0.6512845754623413, 0.13647408783435822, 0.5902683734893799, -0.5827425718307495, -0.6044557690620422, 0.47443097829818726, -1.3575916290283203, 0.5437706112861633, 0.02406834252178669, -0.5085269808769226, 0.3248196244239807, 0.05387173965573311, -0.6209126114845276, 0.7112072110176086, 2.1255853176116943, 0.508644700050354, 0.5494433045387268, 2.089878797531128, -0.16968557238578796, 1.5783193111419678, 0.8089407086372375, -2.3827576637268066, -1.6325041055679321, 0.49130409955978394, -0.22420848906040192, 0.3343893885612488, 0.8049147725105286, 0.29963111877441406, -1.9578732252120972, 1.036853551864624, -0.11535808444023132, -0.395702987909317, 1.951053261756897, 1.5429506301879883, -0.0192802045494318, 0.4420944154262543, -0.25477659702301025, 0.27905789017677307, -0.007480323314666748, 1.9047911167144775, -0.1662842482328415, 0.5496626496315002, -0.6398170590400696, -1.1113779544830322, 0.6828155517578125, 0.5781475305557251, -0.4114522635936737], [0.9174280166625977, 1.2555533647537231, -0.703578770160675, -0.4527644217014313, -0.2369402050971985, 1.939996600151062, -0.3239767551422119, 0.5831188559532166, -0.25447699427604675, 0.32771819829940796, 0.8026168346405029, -0.6989659667015076, -0.5770648717880249, -0.8237189650535583, -0.3494250476360321, 0.278340607881546, -0.12132928520441055, 0.12371236830949783, -0.7955429553985596, 0.6663692593574524, 2.6793875694274902, 0.5086770057678223, 0.5669189095497131, 1.3907485008239746, -0.3318536877632141, -1.394901990890503, 0.0638066902756691, 0.9565854668617249, -0.21442151069641113, 1.7322819232940674, 0.07955090701580048, 1.9663554430007935, -0.28407061100006104, 0.5249349474906921, 0.4613533914089203, 0.5636827349662781, -1.4193387031555176, -1.7943674325942993, -0.6889810562133789, -1.5092968940734863, 1.5307276248931885, -1.843274712562561, 1.2389084100723267, -0.5152473449707031, -1.6767219305038452, -1.0193511247634888, -1.5053764581680298, -0.7157146334648132, 0.42025014758110046, -0.001392669277265668]]"
"[[1.0264116525650024, 0.20642653107643127, -0.014741919003427029, -0.024020131677389145, -1.510141372680664, 1.4322073459625244, -0.3884506821632385, -0.22067475318908691, -0.003342866897583008, -1.84882390499115, -0.18516916036605835, 1.2698390483856201, 1.0282745361328125, -0.4564184844493866, 1.124988317489624, -1.465158224105835, 0.3302989602088928, -0.22153186798095703, 1.2886801958084106, -0.24983954429626465, 1.9023104906082153, 0.12668897211551666, 0.45915231108665466, 1.480151891708374, 1.4650715589523315, 0.3037812113761902, 0.008436274714767933, -1.0984498262405396, 0.6453121304512024, -0.9140769839286804, -0.5454950928688049, -0.4426037073135376, -0.9792065620422363, -0.5438904762268066, -0.6348474025726318, -1.4137229919433594, -0.044803474098443985, 0.9753428101539612, 0.7247370481491089, 0.29729437828063965, -1.1229040622711182, 0.38271039724349976, 1.1978795528411865, -0.7709218859672546, -1.7022072076797485, 0.8926160335540771, 0.04194854572415352, -0.39774030447006226, 0.09814909100532532, 0.4975646138191223], [-1.727417230606079, 1.6658743619918823, 2.3368749618530273, -0.5036623477935791, 1.2447025775909424, -1.1885266304016113, 1.0332603454589844, -0.714945375919342, 0.3157860040664673, 0.4188931882381439, -0.016367629170417786, 1.0193884372711182, -0.10963091254234314, -0.7089279294013977, -0.08613011240959167, -0.49511367082595825, -0.06002845615148544, -0.00556227657943964, 1.8274476528167725, -0.33030426502227783, 0.29645630717277527, -1.4709876775741577, -0.010349642485380173, 1.0827101469039917, -0.2579026222229004, -0.3593001365661621, 1.0607160329818726, 0.39716899394989014, -0.5899953246116638, -1.5329891443252563, -1.2644004821777344, 0.1591198444366455, -1.033266544342041, -0.4013890326023102, 1.7055202722549438, 0.5798790454864502, -0.48125022649765015, -1.6585649251937866, -0.5926415920257568, 1.4898743629455566, 0.24229080975055695, 0.7622002959251404, 0.2946074306964874, 0.7057960629463196, 0.3556116223335266, -0.07436803728342056, 0.27268487215042114, -0.3696780502796173, 1.783241629600525, -0.7877693176269531], [-0.686690092086792, -0.9654616713523865, 0.2235220968723297, 0.5509960055351257, 0.47180408239364624, 2.1133460998535156, -0.44308289885520935, -1.353873610496521, -0.5677061676979065, 2.1970653533935547, 1.9407519102096558, -0.11392869800329208, -0.685379683971405, -1.3570148944854736, 0.6599916219711304, 0.4799569547176361, 0.8597305417060852, -1.9050860404968262, -0.9449529051780701, -0.5585992932319641, -2.202871322631836, 1.7973276376724243, -0.13986994326114655, -0.6114014983177185, 1.2439910173416138, 0.010843311436474323, -1.152223825454712, 0.050672851502895355, 0.5091421604156494, 0.37303993105888367, -0.926982581615448, -0.12620306015014648, -1.0362625122070312, -1.7221097946166992, -0.008597899228334427, -0.3484403192996979, -0.6830171942710876, 1.310689091682434, -1.9871381521224976, -0.0411052331328392, -0.28102073073387146, -0.2708890736103058, 1.1966079473495483, 0.03561001271009445, 0.2782706022262573, 0.7182761430740356, 1.4909919500350952, 0.5842474699020386, -0.5290515422821045, 0.14162017405033112], [0.990492045879364, -1.0555509328842163, 0.5009312033653259, 0.6774187684059143, 0.16336023807525635, 0.6171547770500183, -0.5566093921661377, -0.5775524377822876, 0.511857807636261, -1.330808401107788, 0.5712662935256958, 0.05167403817176819, -0.48092183470726013, 0.3523191511631012, 0.07888549566268921, -0.5969762206077576, 0.6769171357154846, 2.0912954807281494, 0.53258216381073, 0.5151707530021667, 2.115910530090332, -0.14364875853061676, 1.5917900800704956, 0.8222416043281555, -2.3567256927490234, -1.606668472290039, 0.5171425342559814, -0.19816793501377106, 0.36016079783439636, 0.8308725357055664, 0.3217959702014923, -1.9299267530441284, 1.0648059844970703, -0.09319183230400085, -0.3682754635810852, 1.967126488685608, 1.5649787187576294, 0.002747343620285392, 0.4581677317619324, -0.23346170783042908, 0.3051905333995819, 0.019696727395057678, 1.9319689273834229, -0.1390334516763687, 0.5757665038108826, -0.6137144565582275, -1.0851690769195557, 0.7071427702903748, 0.6024747490882874, -0.3886968791484833], [0.9291257262229919, 1.2672510147094727, -0.6909152269363403, -0.4411712884902954, -0.22708487510681152, 1.9498523473739624, -0.31238338351249695, 0.5929666757583618, -0.22150157392024994, 0.34011462330818176, 0.8142260909080505, -0.6873490214347839, -0.5654478669166565, -0.8121027946472168, -0.3375505208969116, 0.289364218711853, -0.10984490811824799, 0.13519689440727234, -0.7845203280448914, 0.6772652864456177, 2.650472402572632, 0.5206236839294434, 0.5711971521377563, 1.394654393196106, -0.3377078175544739, -1.3993759155273438, 0.0593317486345768, 0.9507312178611755, -0.2219768762588501, 1.726426362991333, 0.09091030061244965, 1.9777543544769287, -0.27267199754714966, 0.5362975597381592, 0.47329339385032654, 0.5750942230224609, -1.4076074361801147, -1.782637357711792, -0.6775705218315125, -1.4977679252624512, 1.542360544204712, -1.831552267074585, 1.2506345510482788, -0.5022403597831726, -1.66510009765625, -1.0077282190322876, -1.4929978847503662, -0.7038909196853638, 0.4320748448371887, 0.018104221671819687]]"
"[[0.9788044691085815, 0.1588217318058014, -0.06133661046624184, -0.07190186530351639, -1.558536410331726, 1.383789300918579, -0.4363301992416382, -0.2690756618976593, 0.03950114920735359, -1.8953348398208618, -0.23325157165527344, 1.2218255996704102, 0.9802612662315369, -0.5044261813163757, 1.0792768001556396, -1.5023010969161987, 0.2821139097213745, -0.26971423625946045, 1.2515277862548828, -0.2872358560562134, 1.852447271347046, 0.07918420433998108, 0.4689805507659912, 1.4899545907974243, 1.4241211414337158, 0.3245711028575897, 0.029226096346974373, -1.1393951177597046, 0.6575976014137268, -0.9548842310905457, -0.5927367210388184, -0.4904966354370117, -1.0270940065383911, -0.5910756587982178, -0.680479109287262, -1.460687279701233, 0.0003948151133954525, 1.0205419063568115, 0.6777544617652893, 0.34202900528907776, -1.170849084854126, 0.3347817361354828, 1.1499489545822144, -0.8159459829330444, -1.7500518560409546, 0.8447455167770386, -0.006890110205858946, -0.42842212319374084, 0.06746503710746765, 0.5315898060798645], [-1.754051685333252, 1.6392288208007812, 2.3521084785461426, -0.5384970903396606, 1.2107316255569458, -1.2224889993667603, 0.998422384262085, -0.7493710517883301, 0.3579416275024414, 0.396300733089447, -0.052037663757801056, 0.985322117805481, -0.14369526505470276, -0.7445662617683411, -0.12071443349123001, -0.5096756219863892, -0.09640662372112274, -0.041940610855817795, 1.8128856420516968, -0.34483593702316284, 0.26279371976852417, -1.5051240921020508, -0.041807085275650024, 1.0512852668762207, -0.2915266454219818, -0.3565601706504822, 1.0634559392929077, 0.36354342103004456, -0.5871629118919373, -1.566781759262085, -1.2986137866973877, 0.12465295940637589, -1.0677284002304077, -0.4355626106262207, 1.6727010011672974, 0.5407659411430359, -0.4564191699028015, -1.6337374448776245, -0.6317519545555115, 1.5053558349609375, 0.20802746713161469, 0.7281344532966614, 0.2605421543121338, 0.6729389429092407, 0.3212805688381195, -0.10869811475276947, 0.2337559461593628, -0.34400391578674316, 1.8089163303375244, -0.7595668435096741], [-0.6199373602867126, -0.8987117409706116, 0.28880876302719116, 0.5959909558296204, 0.43293386697769165, 2.074475049972534, -0.3980908989906311, -1.4027862548828125, -0.6081938147544861, 2.1541097164154053, 2.0051021575927734, -0.04809722676873207, -0.6195515990257263, -1.2926673889160156, 0.7262650728225708, 0.5446468591690063, 0.9254616498947144, -1.8393800258636475, -0.8802706599235535, -0.4941886365413666, -2.136713743209839, 1.8634840250015259, -0.0737214982509613, -0.5451079607009888, 1.2765626907348633, 0.06658423691987991, -1.0964882373809814, 0.08324375003576279, 0.5407286286354065, 0.406103253364563, -0.8609926700592041, -0.06023918092250824, -0.9703052043914795, -1.656115174293518, 0.05745575204491615, -0.282695472240448, -0.6393134593963623, 1.3543940782546997, -1.921416163444519, 0.002469009952619672, -0.21705524623394012, -0.2053936868906021, 1.2621067762374878, 0.0929332971572876, 0.34152287244796753, 0.781529426574707, 1.4760936498641968, 0.6450056433677673, -0.46829700469970703, 0.17562447488307953], [1.0273913145065308, -1.0186551809310913, 0.5383785963058472, 0.7142140865325928, 0.2006852775812149, 0.6544801592826843, -0.5198158025741577, -0.5402158498764038, 0.5533210039138794, -1.293331503868103, 0.606347918510437, 0.08703817427158356, -0.4455585777759552, 0.38741618394851685, 0.11505775898694992, -0.5622653961181641, 0.6388287544250488, 2.053206443786621, 0.5672946572303772, 0.47708946466445923, 2.152900218963623, -0.10653245449066162, 1.63960862159729, 0.8700488805770874, -2.3202223777770996, -1.572900652885437, 0.5509143471717834, -0.16165295243263245, 0.39372652769088745, 0.8676414489746094, 0.35782718658447266, -1.8924546241760254, 1.1022876501083374, -0.05714602768421173, -0.3306047320365906, 1.9623445272445679, 1.5986241102218628, 0.03639234974980354, 0.4533858895301819, -0.2212345004081726, 0.34196582436561584, 0.05685688555240631, 1.9691301584243774, -0.1023794487118721, 0.6125465035438538, -0.5769361257553101, -1.049005150794983, 0.7440847158432007, 0.6394166946411133, -0.35573023557662964], [0.9449805617332458, 1.283105731010437, -0.674355685710907, -0.42589685320854187, -0.23997816443443298, 1.9369579553604126, -0.29710882902145386, 0.5798215270042419, -0.18529406189918518, 0.35648399591445923, 0.8299214839935303, -0.6716064810752869, -0.5497050881385803, -0.7963794469833374, -0.3209454417228699, 0.30438685417175293, -0.0944468230009079, 0.15059515833854675, -0.7694990038871765, 0.6919684410095215, 2.64774227142334, 0.5365846753120422, 0.5970529913902283, 1.4214353561401367, -0.351548969745636, -1.386871576309204, 0.07183893024921417, 0.9368898868560791, -0.23586653172969818, 1.712602972984314, 0.10598212480545044, 1.9928407669067383, -0.2575870156288147, 0.5514020323753357, 0.48992395401000977, 0.5900312066078186, -1.3916629552841187, -1.7666945457458496, -0.6626344919204712, -1.4825998544692993, 1.5580776929855347, -1.8158174753189087, 1.2663747072219849, -0.4859996736049652, -1.6493734121322632, -0.9919990301132202, -1.477544903755188, -0.6863183975219727, 0.4496486485004425, 0.045964110642671585]]"
"[[0.952445924282074, 0.1324642449617386, -0.086496502161026, -0.09844693541526794, -1.5842622518539429, 1.3580520153045654, -0.4628741443157196, -0.29478591680526733, 0.07352346181869507, -1.9211397171020508, -0.26127198338508606, 1.1936454772949219, 0.9520816206932068, -0.5324319005012512, 1.0538694858551025, -1.5162419080734253, 0.2538768947124481, -0.297949880361557, 1.2375836372375488, -0.30251801013946533, 1.8256250619888306, 0.048762641847133636, 0.4645560085773468, 1.4844332933425903, 1.3768272399902344, 0.3493025302886963, 0.053957413882017136, -1.1866836547851562, 0.6662683486938477, -1.002888798713684, -0.6170951724052429, -0.5171371698379517, -1.0537320375442505, -0.6154276728630066, -0.7067540287971497, -1.4878718852996826, 0.013531054370105267, 1.0336785316467285, 0.6505600810050964, 0.3548617959022522, -1.1972779035568237, 0.3090439438819885, 1.1242104768753052, -0.8265463709831238, -1.7754006385803223, 0.8193840384483337, -0.02826497331261635, -0.4469270408153534, 0.0489589162170887, 0.5676807761192322], [-1.782975673675537, 1.6102920770645142, 2.3511669635772705, -0.5613845586776733, 1.1888453960418701, -1.2443697452545166, 0.9755324721336365, -0.771611213684082, 0.3882916271686554, 0.3695473372936249, -0.07421042770147324, 0.962416410446167, -0.16659985482692719, -0.7667316198348999, -0.14229954779148102, -0.5061284303665161, -0.11888185143470764, -0.06441593170166016, 1.8164328336715698, -0.34127795696258545, 0.24077178537845612, -1.5275472402572632, -0.06334959715604782, 1.0297253131866455, -0.31353166699409485, -0.35185757279396057, 1.068158745765686, 0.3415374159812927, -0.5824478268623352, -1.5887905359268188, -1.3208390474319458, 0.10202481597661972, -1.0903528928756714, -0.45778313279151917, 1.650492548942566, 0.5128160119056702, -0.45442911982536316, -1.6317474842071533, -0.659699559211731, 1.500548243522644, 0.18572141230106354, 0.7132717370986938, 0.24567976593971252, 0.6664206385612488, 0.2985308766365051, -0.13144716620445251, 0.2107354998588562, -0.33664318919181824, 1.8162771463394165, -0.7454334497451782], [-0.6001810431480408, -0.878956139087677, 0.3088812530040741, 0.6118984818458557, 0.4202613830566406, 2.0618019104003906, -0.3821842670440674, -1.4173921346664429, -0.6231098771095276, 2.1350290775299072, 2.022869348526001, -0.030392229557037354, -0.6018474102020264, -1.2748970985412598, 0.7464096546173096, 0.5647820830345154, 0.9429669380187988, -1.8218804597854614, -0.8601375818252563, -0.4763203561306, -2.1173510551452637, 1.8741596937179565, -0.05404342710971832, -0.5344571471214294, 1.2607365846633911, 0.08732638508081436, -1.0757476091384888, 0.06741802394390106, 0.5326404571533203, 0.3842260241508484, -0.8410088419914246, -0.04050784185528755, -0.9505756497383118, -1.636132001876831, 0.07737404853105545, -0.26302045583724976, -0.6256304383277893, 1.3680776357650757, -1.9017469882965088, 0.016104774549603462, -0.19678300619125366, -0.18477004766464233, 1.2827316522598267, 0.11608706414699554, 0.40080276131629944, 0.8408098816871643, 1.4921550750732422, 0.665148913860321, -0.4481547176837921, 0.20073355734348297], [1.0542640686035156, -0.9917848110198975, 0.5655986666679382, 0.7410263419151306, 0.22782912850379944, 0.6816244125366211, -0.4930046498775482, -0.5130661725997925, 0.5827425718307495, -1.2663086652755737, 0.6236858367919922, 0.10454069823026657, -0.42805659770965576, 0.40475910902023315, 0.14160187542438507, -0.5356559753417969, 0.6141473054885864, 2.028524160385132, 0.5939054489135742, 0.45248469710350037, 2.179769277572632, -0.07976237684488297, 1.6647783517837524, 0.8950659036636353, -2.2938454151153564, -1.5478060245513916, 0.576012372970581, -0.13526667654514313, 0.41847333312034607, 0.8940035104751587, 0.3864809274673462, -1.8645362854003906, 1.1302130222320557, -0.02849077805876732, -0.3036789298057556, 1.9595686197280884, 1.6136890649795532, 0.05145730823278427, 0.4506101906299591, -0.21810761094093323, 0.3687996566295624, 0.08599887788295746, 1.9982733726501465, -0.07284247130155563, 0.6394177079200745, -0.550066351890564, -1.0221892595291138, 0.7714505791664124, 0.666782557964325, -0.32847243547439575], [0.9733783006668091, 1.311503291130066, -0.6457282900810242, -0.39775511622428894, -0.22640669345855713, 1.9505304098129272, -0.2689667046070099, 0.5932496190071106, -0.15509964525699615, 0.384827196598053, 0.8582648038864136, -0.643271803855896, -0.5213701725006104, -0.7680312395095825, -0.2920965254306793, 0.33359500765800476, -0.06645113229751587, 0.1785912960767746, -0.740293562412262, 0.720829963684082, 2.661592483520508, 0.48733872175216675, 0.6266875863075256, 1.373935341835022, -0.36826106905937195, -1.3466030359268188, 0.11211632937192917, 0.920177698135376, -0.25100263953208923, 1.684390664100647, 0.13415749371051788, 2.021014451980591, -0.22941556572914124, 0.5795866250991821, 0.5186158418655396, 0.6180254817008972, -1.3633683919906616, -1.7384034395217896, -0.6346425414085388, -1.4546523094177246, 1.5864312648773193, -1.7874473333358765, 1.2947556972503662, -0.45664024353027344, -1.6210260391235352, -0.9636470079421997, -1.4491156339645386, -0.6580466032028198, 0.477922648191452, 0.07511948049068451]]"
"[[0.9542894959449768, 0.13430781662464142, -0.08256319165229797, -0.09683530777692795, -1.5815478563308716, 1.3607673645019531, -0.46126264333724976, -0.2920229732990265, 0.09587228298187256, -1.9182851314544678, -0.2581310272216797, 1.1970254182815552, 0.9554613828659058, -0.5292145013809204, 1.05881929397583, -1.508711338043213, 0.25679007172584534, -0.29503682255744934, 1.2451165914535522, -0.2941325902938843, 1.8267502784729004, 0.0438358373939991, 0.40149980783462524, 1.4213918447494507, 1.3490573167800903, 0.40180400013923645, 0.10645875334739685, -1.214450478553772, 0.7073487639427185, -1.0323201417922974, -0.6255509853363037, -0.5156872868537903, -1.0522823333740234, -0.6238621473312378, -0.7047356367111206, -1.4873510599136353, -0.0011143902083858848, 1.0190327167510986, 0.6510806083679199, 0.3401014804840088, -1.1955962181091309, 0.3113364577293396, 1.1265032291412354, -0.8185874223709106, -1.7737746238708496, 0.8210108280181885, -0.018005261197686195, -0.43443459272384644, 0.06145226210355759, 0.5939971804618835], [-1.7935453653335571, 1.5997178554534912, 2.3530077934265137, -0.5829501152038574, 1.1632055044174194, -1.2700035572052002, 0.9539647102355957, -0.7921090126037598, 0.4066682755947113, 0.3596356511116028, -0.10192321240901947, 0.9363108277320862, -0.19270381331443787, -0.7944148778915405, -0.16695068776607513, -0.49920469522476196, -0.14505885541439056, -0.09059302508831024, 1.8233565092086792, -0.3343334197998047, 0.2148917317390442, -1.5540064573287964, -0.09341787546873093, 0.9996251463890076, -0.33937180042266846, -0.335181325674057, 1.0848355293273926, 0.3156961500644684, -0.5657163858413696, -1.615052580833435, -1.3494716882705688, 0.07545345276594162, -1.1169205904006958, -0.4864114820957184, 1.6236968040466309, 0.4874241352081299, -0.4765867590904236, -1.65390145778656, -0.6850892901420593, 1.477357268333435, 0.1593247354030609, 0.6879910230636597, 0.22039970755577087, 0.6409075856208801, 0.2712946832180023, -0.1586824357509613, 0.18660549819469452, -0.3268393576145172, 1.8260806798934937, -0.7325990796089172], [-0.5854624509811401, -0.8642381429672241, 0.32362058758735657, 0.6562250852584839, 0.41220346093177795, 2.053744077682495, -0.337859570980072, -1.4069932699203491, -0.6441739201545715, 2.121126651763916, 2.0298538208007812, -0.01330231036990881, -0.5847582817077637, -1.2678821086883545, 0.7623456120491028, 0.5696250796318054, 0.9598447680473328, -1.805009126663208, -0.8552948832511902, -0.4692753553390503, -2.102830648422241, 1.887704849243164, -0.039493378251791, -0.5211554169654846, 1.2435373067855835, 0.10838556289672852, -1.0546905994415283, 0.05021946504712105, 0.5260872840881348, 0.36715224385261536, -0.8274149298667908, -0.025732766836881638, -0.9358020424842834, -1.6225324869155884, 0.09211725741624832, -0.24859698116779327, -0.6237204074859619, 1.3699878454208374, -1.8873282670974731, 0.017959872260689735, -0.1811274290084839, -0.17005430161952972, 1.297447919845581, 0.13105064630508423, 0.4047314524650574, 0.844738781452179, 1.5170942544937134, 0.6801504492759705, -0.43315407633781433, 0.217239648103714], [1.077568531036377, -0.9684826731681824, 0.5888635516166687, 0.7643322944641113, 0.2510966658592224, 0.7048923373222351, -0.46970003843307495, -0.4897988438606262, 0.6012192964553833, -1.2432600259780884, 0.6542617678642273, 0.13509763777256012, -0.397500604391098, 0.43535032868385315, 0.16575554013252258, -0.5114314556121826, 0.599711537361145, 2.0140888690948486, 0.6181310415267944, 0.43809977173805237, 2.202393054962158, -0.057496536523103714, 1.6323094367980957, 0.8622593283653259, -2.270940065383911, -1.5232104063034058, 0.6006116271018982, -0.11235351115465164, 0.44275805354118347, 0.9160623550415039, 0.4025372564792633, -1.8409465551376343, 1.1538090705871582, -0.012429093942046165, -0.28055161237716675, 1.961112380027771, 1.6155359745025635, 0.053304269909858704, 0.4521537721157074, -0.22024430334568024, 0.3921126425266266, 0.11003846675157547, 2.0223138332366943, -0.049250565469264984, 0.6627161502838135, -0.5267689824104309, -0.9984875917434692, 0.7943914532661438, 0.6897234320640564, -0.30870217084884644], [0.9879819750785828, 1.326107144355774, -0.631024181842804, -0.3833172023296356, -0.22514410316944122, 1.9517935514450073, -0.25452861189842224, 0.5944117903709412, -0.13840773701667786, 0.3992560803890228, 0.8728165626525879, -0.6286461353302002, -0.506744384765625, -0.7534505128860474, -0.2762012779712677, 0.3490404486656189, -0.05223191902041435, 0.19281074404716492, -0.7248495817184448, 0.7358973622322083, 2.6752331256866455, 0.49106869101524353, 0.6111865043640137, 1.3586719036102295, -0.381707102060318, -1.326476812362671, 0.13224756717681885, 0.9067314267158508, -0.26350608468055725, 1.6708179712295532, 0.14795725047588348, 2.034884214401245, -0.21554704010486603, 0.5933997631072998, 0.5335291624069214, 0.6317948698997498, -1.348932147026062, -1.7239691019058228, -0.6208742260932922, -1.4410431385040283, 1.6010432243347168, -1.7728017568588257, 1.3094066381454468, -0.44222864508628845, -1.6064106225967407, -0.9490293264389038, -1.433573603630066, -0.6430558562278748, 0.4929147958755493, 0.0927007868885994]]"
"[[0.9034683108329773, 0.0834888145327568, -0.13254773616790771, -0.14762116968631744, -1.6314016580581665, 1.3108919858932495, -0.5120463967323303, -0.34187051653862, 0.14436514675617218, -1.968329668045044, -0.3085860311985016, 1.147053599357605, 0.9054900407791138, -0.5796638131141663, 1.0079952478408813, -1.5622771978378296, 0.20526815950870514, -0.34655603766441345, 1.1915371417999268, -0.34815192222595215, 1.7745906114578247, -0.00679098442196846, 0.3851085901260376, 1.4053826332092285, 1.366086721420288, 0.411796510219574, 0.11645124852657318, -1.1974221467971802, 0.7344853281974792, -1.0159683227539062, -0.6765483021736145, -0.5664970874786377, -1.1030867099761963, -0.674863874912262, -0.756378710269928, -1.5429233312606812, 0.013999749906361103, 1.034146785736084, 0.5954897403717041, 0.35335761308670044, -1.246387243270874, 0.2609744966030121, 1.0761394500732422, -0.8660497665405273, -1.8248133659362793, 0.7699475884437561, -0.06277431547641754, -0.4755903482437134, 0.020293885841965675, 0.653800904750824], [-1.7514058351516724, 1.6418732404708862, 2.3990979194641113, -0.5816785097122192, 1.1648672819137573, -1.2683420181274414, 0.955236554145813, -0.7859359383583069, 0.46001142263412476, 0.40515828132629395, -0.11113383620977402, 0.9331830143928528, -0.19583146274089813, -0.8036144375801086, -0.1723703145980835, -0.5370938181877136, -0.15303516387939453, -0.09856929630041122, 1.7854667901992798, -0.372281551361084, 0.2122059464454651, -1.5568957328796387, -0.096610888838768, 0.9964333176612854, -0.3417530953884125, -0.32783058285713196, 1.0921869277954102, 0.3133147358894348, -0.5582101345062256, -1.6175141334533691, -1.3381319046020508, 0.0719132348895073, -1.1204602718353271, -0.475050151348114, 1.6208575963974, 0.43318334221839905, -0.4622812569141388, -1.6395984888076782, -0.7393266558647156, 1.4576669931411743, 0.15646186470985413, 0.687081515789032, 0.21949036419391632, 0.6419041752815247, 0.2691833972930908, -0.16079364717006683, 0.18541651964187622, -0.3126676082611084, 1.8402531147003174, -0.7092011570930481], [-0.5739858746528625, -0.8527621626853943, 0.3360637426376343, 0.6569648385047913, 0.4063326418399811, 2.04787278175354, -0.3371198773384094, -1.4168180227279663, -0.6470956206321716, 2.1057705879211426, 2.021080732345581, -0.0009044978651218116, -0.5723611116409302, -1.2766368389129639, 0.7743311524391174, 0.5625833868980408, 0.9707792401313782, -1.7940785884857178, -0.862335741519928, -0.4808102250099182, -2.0902864933013916, 1.8998113870620728, -0.02754436805844307, -0.5090622305870056, 1.2744369506835938, 0.12088504433631897, -1.0421922206878662, 0.08111836761236191, 0.5563825964927673, 0.397396981716156, -0.8152045607566833, -0.01374608464539051, -0.9238166213035583, -1.6103163957595825, 0.10437434166669846, -0.23681770265102386, -0.6106849312782288, 1.3830235004425049, -1.8755531311035156, 0.030933674424886703, -0.16938945651054382, -0.1580221801996231, 1.3094805479049683, 0.14397650957107544, 0.40595391392707825, 0.8459612727165222, 1.516810417175293, 0.6939790844917297, -0.4193263351917267, 0.25187060236930847], [1.1337491273880005, -0.9123071432113647, 0.644931435585022, 0.8205615878105164, 0.30721578001976013, 0.7610118389129639, -0.41347336769104004, -0.4336860477924347, 0.645737886428833, -1.1871274709701538, 0.7113545536994934, 0.19233596324920654, -0.3402637839317322, 0.4924403429031372, 0.22164808213710785, -0.4560738801956177, 0.5573773980140686, 1.9717540740966797, 0.6734914779663086, 0.3956660032272339, 2.2585809230804443, -0.001222622930072248, 1.6700048446655273, 0.8996986746788025, -2.2144999504089355, -1.474514126777649, 0.6493143439292908, -0.055893972516059875, 0.49175137281417847, 0.9725760817527771, 0.4571700096130371, -1.7850295305252075, 1.209740161895752, 0.04220310226082802, -0.22528758645057678, 1.9330378770828247, 1.6408870220184326, 0.07865484058856964, 0.42407917976379395, -0.23776479065418243, 0.44833749532699585, 0.16642645001411438, 2.0787034034729004, 0.006361415144056082, 0.7189059257507324, -0.4705820381641388, -0.9424524903297424, 0.8476302027702332, 0.7429620027542114, -0.26231932640075684], [0.9740330576896667, 1.3121583461761475, -0.6434783339500427, -0.3975459933280945, -0.24554196000099182, 1.9313942193984985, -0.2687576115131378, 0.5739932656288147, -0.10865859687328339, 0.38650086522102356, 0.8585004806518555, -0.6427550315856934, -0.5208534598350525, -0.7677497267723083, -0.289834201335907, 0.33205077052116394, -0.06854763627052307, 0.17649468779563904, -0.7418375015258789, 0.7166993021965027, 2.6644465923309326, 0.4813564419746399, 0.5936915278434753, 1.346967339515686, -0.3675369322299957, -1.3362979888916016, 0.12242402881383896, 0.9209020137786865, -0.24917392432689667, 1.684098482131958, 0.1328968107700348, 2.0191097259521484, -0.2313198447227478, 0.5783515572547913, 0.5198200345039368, 0.6155192255973816, -1.3628787994384766, -1.7379140853881836, -0.6371482014656067, -1.4564292430877686, 1.5869741439819336, -1.7867268323898315, 1.2954758405685425, -0.4540763795375824, -1.6204614639282227, -0.9630826711654663, -1.446172833442688, -0.6543692946434021, 0.4816003441810608, 0.12292961031198502]]"
"[[0.8944441080093384, 0.07446499913930893, -0.13986189663410187, -0.15714991092681885, -1.6393558979034424, 1.3029347658157349, -0.521574854850769, -0.34979891777038574, 0.177930548787117, -1.9757802486419678, -0.31651684641838074, 1.1394436359405518, 0.8978803157806396, -0.5875490307807922, 0.9996235966682434, -1.558425784111023, 0.19586072862148285, -0.35596296191215515, 1.1953895092010498, -0.3444245159626007, 1.7636451721191406, -0.017390068620443344, 0.3730141222476959, 1.3933027982711792, 1.374149203300476, 0.41088932752609253, 0.11554405093193054, -1.1893600225448608, 0.7397184371948242, -1.0082522630691528, -0.684781551361084, -0.5757809281349182, -1.1123698949813843, -0.6830564737319946, -0.7669550776481628, -1.5558655261993408, -0.046250078827142715, 0.9738959074020386, 0.5825434923171997, 0.29310694336891174, -1.2558958530426025, 0.251808762550354, 1.066973328590393, -0.8711064457893372, -1.8340080976486206, 0.7607483267784119, -0.06617534905672073, -0.47003236413002014, 0.025852221995592117, 0.6939422488212585], [-1.780620813369751, 1.6126476526260376, 2.3827404975891113, -0.6080406308174133, 1.1411328315734863, -1.2920711040496826, 0.9288720488548279, -0.8097973465919495, 0.4858780801296234, 0.37732475996017456, -0.13832250237464905, 0.9084296226501465, -0.2205837368965149, -0.8307849764823914, -0.19769959151744843, -0.5240837335586548, -0.1791076958179474, -0.12464196234941483, 1.798477053642273, -0.3593224287033081, 0.18602485954761505, -1.5830254554748535, -0.1228642538189888, 0.9701730608940125, -0.36774742603302, -0.3424694538116455, 1.0775471925735474, 0.28731924295425415, -0.5726523399353027, -1.6434886455535889, -1.36397123336792, 0.04555787891149521, -1.1468122005462646, -0.5008652210235596, 1.594360589981079, 0.40052562952041626, -0.5023484230041504, -1.679659128189087, -0.7719822525978088, 1.4122753143310547, 0.13031049072742462, 0.6597598791122437, 0.19216927886009216, 0.6141518354415894, 0.24323122203350067, -0.18674509227275848, 0.15995925664901733, -0.2905009388923645, 1.862419843673706, -0.6838024854660034], [-0.5433562397956848, -0.8221339583396912, 0.366730272769928, 0.6292240023612976, 0.41209864616394043, 2.0536391735076904, -0.36485978960990906, -1.441024661064148, -0.6684454679489136, 2.076327085494995, 2.037414312362671, 0.03336847946047783, -0.5380900502204895, -1.2602851390838623, 0.8057332038879395, 0.5766327977180481, 1.0036835670471191, -1.7611874341964722, -0.8482880592346191, -0.4653407335281372, -2.0588958263397217, 1.927402138710022, 0.003668853547424078, -0.4816119968891144, 1.2982770204544067, 0.145548015832901, -1.0175316333770752, 0.10495832562446594, 0.5787369608879089, 0.4197007417678833, -0.784048855304718, 0.017661236226558685, -0.8924126625061035, -1.579148769378662, 0.13529148697853088, -0.20660614967346191, -0.6155959963798523, 1.3781123161315918, -1.8453530073165894, 0.025853144004940987, -0.1378999948501587, -0.1265484243631363, 1.3409570455551147, 0.17307856678962708, 0.44056859612464905, 0.8805763125419617, 1.5343579053878784, 0.7251827120780945, -0.38812458515167236, 0.2771115005016327], [1.1623181104660034, -0.8837405443191528, 0.6734540462493896, 0.8490181565284729, 0.3357197940349579, 0.7895161509513855, -0.38501831889152527, -0.4051901400089264, 0.6708815693855286, -1.1585400104522705, 0.7426773309707642, 0.22370633482933044, -0.30889421701431274, 0.5237718224525452, 0.2498951554298401, -0.42712149024009705, 0.5344254970550537, 1.9488028287887573, 0.7024451494216919, 0.37281742691993713, 2.286930799484253, 0.027127178385853767, 1.6848114728927612, 0.9143272638320923, -2.186037540435791, -1.4503288269042969, 0.6735033988952637, -0.027421722188591957, 0.516014814376831, 1.0009747743606567, 0.48939481377601624, -1.7537612915039062, 1.241015911102295, 0.07443787902593613, -0.19702903926372528, 1.929966688156128, 1.638704538345337, 0.07647230476140976, 0.4210081994533539, -0.24729929864406586, 0.476791650056839, 0.1944536417722702, 2.1067306995391846, 0.03397781774401665, 0.7473785281181335, -0.44211089611053467, -0.9139496088027954, 0.8756458759307861, 0.7709776759147644, -0.23680879175662994], [0.9709804654121399, 1.3091055154800415, -0.6458464860916138, -0.40095824003219604, -0.2541128098964691, 1.9228229522705078, -0.27216994762420654, 0.5653439164161682, -0.08883890509605408, 0.3838719129562378, 0.8551163077354431, -0.6459934115409851, -0.524091899394989, -0.7711064219474792, -0.2924783229827881, 0.330379456281662, -0.07400621473789215, 0.17103594541549683, -0.7435085773468018, 0.7128608226776123, 2.6581871509552, 0.4675905108451843, 0.5849018096923828, 1.3299225568771362, -0.36233705282211304, -1.3382670879364014, 0.12045449763536453, 0.9261018633842468, -0.24408261477947235, 1.6870421171188354, 0.13270820677280426, 2.018850564956665, -0.23157982528209686, 0.5781922936439514, 0.5172540545463562, 0.6150832176208496, -1.3662467002868652, -1.7412817478179932, -0.63758385181427, -1.456955909729004, 1.5837255716323853, -1.7899090051651, 1.292292594909668, -0.456536203622818, -1.623687505722046, -0.9663089513778687, -1.4485023021697998, -0.6556915044784546, 0.48027822375297546, 0.1431160867214203]]"
"[[0.9101051688194275, 0.0901254191994667, -0.12217245995998383, -0.14168865978717804, -1.6246788501739502, 1.3176170587539673, -0.5061140656471252, -0.33509957790374756, 0.19777441024780273, -1.9582231044769287, -0.30183374881744385, 1.1544066667556763, 0.9128427505493164, -0.5727059245109558, 1.0186569690704346, -1.5539988279342651, 0.21096140146255493, -0.34086284041404724, 1.1998181343078613, -0.3400762975215912, 1.7771235704421997, -0.008695519529283047, 0.33516642451286316, 1.3546441793441772, 1.4150458574295044, 0.3724329173564911, 0.07708786427974701, -1.1484655141830444, 0.7306092381477356, -0.9692257046699524, -0.6697696447372437, -0.5602895021438599, -1.0968799591064453, -0.6679043769836426, -0.7490825653076172, -1.5444889068603516, -0.07475098967552185, 0.9453944563865662, 0.5939235091209412, 0.26462727785110474, -1.2403916120529175, 0.267515629529953, 1.0826807022094727, -0.8539230823516846, -1.8184047937393188, 0.7763583660125732, -0.044766753911972046, -0.4545137286186218, 0.041371751576662064, 0.7119500041007996], [-1.7574400901794434, 1.6358367204666138, 2.4093475341796875, -0.5875239968299866, 1.1806749105453491, -1.2525373697280884, 0.949390709400177, -0.7697895765304565, 0.5021405816078186, 0.4012298285961151, -0.11875846982002258, 0.928868293762207, -0.20014621317386627, -0.8111155033111572, -0.17502135038375854, -0.5345402956008911, -0.15907235443592072, -0.10460653156042099, 1.788020133972168, -0.36976316571235657, 0.20609469711780548, -1.5628403425216675, -0.10686177760362625, 0.9860525131225586, -0.3475545048713684, -0.3454039394855499, 1.0746121406555176, 0.30751317739486694, -0.5755813121795654, -1.6233021020889282, -1.3437427282333374, 0.06591678410768509, -1.1264559030532837, -0.48051831126213074, 1.6173155307769775, 0.40407687425613403, -0.5072289109230042, -1.6845390796661377, -0.7684311866760254, 1.401181936264038, 0.15061460435390472, 0.6720560193061829, 0.20446516573429108, 0.6257737278938293, 0.2634338438510895, -0.16654306650161743, 0.18247537314891815, -0.3108629584312439, 1.8420580625534058, -0.6985333561897278], [-0.5235804319381714, -0.8023590445518494, 0.38557806611061096, 0.6375519037246704, 0.374328076839447, 2.0158681869506836, -0.35653209686279297, -1.4681411981582642, -0.6812686920166016, 2.065424919128418, 2.0533816814422607, 0.050469379872083664, -0.5209900140762329, -1.2442353963851929, 0.8274585604667664, 0.594741702079773, 1.0215413570404053, -1.7433370351791382, -0.8301813006401062, -0.4491049647331238, -2.0390450954437256, 1.9077296257019043, 0.022275200113654137, -0.5020424723625183, 1.3317104578018188, 0.1557108610868454, -1.0073696374893188, 0.1383906453847885, 0.6075156927108765, 0.43660974502563477, -0.7646675705909729, 0.03740119934082031, -0.8726748824119568, -1.5596864223480225, 0.15641926229000092, -0.18763943016529083, -0.6213056445121765, 1.3724021911621094, -1.8263938426971436, 0.020033370703458786, -0.11739443987607956, -0.10680937767028809, 1.360697627067566, 0.19102545082569122, 0.4536582827568054, 0.8936659693717957, 1.5574005842208862, 0.7414813041687012, -0.3718271851539612, 0.28788837790489197], [1.1635743379592896, -0.8824843168258667, 0.675050675868988, 0.8502511978149414, 0.33720284700393677, 0.7909994125366211, -0.3837851881980896, -0.40369713306427, 0.6799724102020264, -1.156922698020935, 0.7434598803520203, 0.22447259724140167, -0.30812790989875793, 0.5246027112007141, 0.25305020809173584, -0.42476028203964233, 0.5412815809249878, 1.955659031867981, 0.7048065066337585, 0.379607230424881, 2.287581205368042, 0.027259446680545807, 1.6549588441848755, 0.8840900659561157, -2.184223175048828, -1.452721357345581, 0.6711106896400452, -0.025606950744986534, 0.5141638517379761, 1.0018759965896606, 0.4906865656375885, -1.7526507377624512, 1.2421268224716187, 0.07577462494373322, -0.19531789422035217, 1.9235002994537354, 1.6294347047805786, 0.06720197200775146, 0.4145418107509613, -0.2580466866493225, 0.47799912095069885, 0.1937102973461151, 2.105987310409546, 0.03315496817231178, 0.7485764622688293, -0.44091305136680603, -0.9123950600624084, 0.8738769292831421, 0.7692087292671204, -0.2332857996225357], [0.9819983243942261, 1.3201231956481934, -0.6350228190422058, -0.390595942735672, -0.28494730591773987, 1.8919867277145386, -0.26180747151374817, 0.5342227220535278, -0.0759022906422615, 0.3945814073085785, 0.866192638874054, -0.6348419785499573, -0.5129403471946716, -0.7599446773529053, -0.27933570742607117, 0.3402787744998932, -0.0621568001806736, 0.1828855723142624, -0.7336101531982422, 0.7235261797904968, 2.6555497646331787, 0.3895634412765503, 0.5709670782089233, 1.2471120357513428, -0.34188899397850037, -1.3292182683944702, 0.12950542569160461, 0.9465499520301819, -0.22470861673355103, 1.686858057975769, 0.1438443511724472, 2.0299808979034424, -0.2204507291316986, 0.5894201993942261, 0.5304274559020996, 0.6259695887565613, -1.3553340435028076, -1.7303705215454102, -0.6266984343528748, -1.4462097883224487, 1.59481942653656, -1.7788010835647583, 1.3034048080444336, -0.4459304213523865, -1.6125954389572144, -0.9552149176597595, -1.4367595911026, -0.6451241970062256, 0.49084654450416565, 0.15452690422534943]]"
"[[0.9025912284851074, 0.08261193335056305, -0.128279909491539, -0.14940237998962402, -1.629948377609253, 1.3123456239700317, -0.5138275027275085, -0.34034326672554016, 0.22487810254096985, -1.9646074771881104, -0.3106081187725067, 1.1456027030944824, 0.9040391445159912, -0.5814417004585266, 1.0120512247085571, -1.559082269668579, 0.20160746574401855, -0.3502162992954254, 1.1947335004806519, -0.34631451964378357, 1.7671623229980469, -0.018762104213237762, 0.3142562210559845, 1.3337682485580444, 1.4363003969192505, 0.36679577827453613, 0.07145068794488907, -1.1272122859954834, 0.7400876879692078, -0.9486855268478394, -0.6817927956581116, -0.5682173371315002, -1.104806661605835, -0.6799048781394958, -0.7570900321006775, -1.5619518756866455, -0.09501007199287415, 0.9251349568367004, 0.5764551758766174, 0.24182404577732086, -1.2480206489562988, 0.2601677477359772, 1.0753324031829834, -0.8502044677734375, -1.8260427713394165, 0.7687171101570129, -0.04928593710064888, -0.4519270062446594, 0.04395865276455879, 0.7326561212539673], [-1.774592399597168, 1.6186784505844116, 2.4004321098327637, -0.5995182991027832, 1.176782250404358, -1.256429672241211, 0.9373953342437744, -0.7739652991294861, 0.5234447717666626, 0.38507306575775146, -0.13058343529701233, 0.91691654920578, -0.21209733188152313, -0.8229185938835144, -0.18628288805484772, -0.5358673334121704, -0.17117002606391907, -0.11670421063899994, 1.7866932153701782, -0.3711060583591461, 0.19444717466831207, -1.5744718313217163, -0.12043450027704239, 0.9724359512329102, -0.3590293228626251, -0.3538726270198822, 1.0661431550979614, 0.29603785276412964, -0.5839183330535889, -1.6348094940185547, -1.3569976091384888, 0.05344729498028755, -1.1389237642288208, -0.4937562942504883, 1.605101466178894, 0.35478296875953674, -0.5245974659919739, -1.7019051313400269, -0.8177225589752197, 1.3554784059524536, 0.1390841156244278, 0.6631774306297302, 0.19558681547641754, 0.620226263999939, 0.25277042388916016, -0.1772061288356781, 0.17264840006828308, -0.2873181700706482, 1.865602970123291, -0.674655020236969], [-0.5182477235794067, -0.7970264554023743, 0.39152029156684875, 0.6204275488853455, 0.38800936937332153, 2.0295491218566895, -0.3736559748649597, -1.472307562828064, -0.686480700969696, 2.0535802841186523, 2.0565147399902344, 0.053753871470689774, -0.5177056193351746, -1.2410802841186523, 0.834361732006073, 0.600807785987854, 1.0240814685821533, -1.7407978773117065, -0.8241158723831177, -0.44666069746017456, -2.0324113368988037, 1.9026821851730347, 0.02810232900083065, -0.5074087381362915, 1.3500748872756958, 0.16044245660305023, -1.002638339996338, 0.15675446391105652, 0.6246795654296875, 0.4502978026866913, -0.7593510746955872, 0.043635763227939606, -0.8664411306381226, -1.5543550252914429, 0.16275568306446075, -0.18250523507595062, -0.6273535490036011, 1.3663538694381714, -1.8212616443634033, 0.013693648390471935, -0.11075994372367859, -0.1002504751086235, 1.3672572374343872, 0.20057912170886993, 0.4592941105365753, 0.8993017077445984, 1.5673218965530396, 0.7500916719436646, -0.3632175326347351, 0.29877087473869324], [1.187545657157898, -0.8585149645805359, 0.6989994645118713, 0.8742024898529053, 0.3611844778060913, 0.8149814009666443, -0.35983505845069885, -0.3797248601913452, 0.700007438659668, -1.132973551750183, 0.7662864923477173, 0.2473154366016388, -0.2852857708930969, 0.5474392175674438, 0.27819308638572693, -0.3991338014602661, 0.5348898768424988, 1.9492672681808472, 0.730434238910675, 0.37320929765701294, 2.3111565113067627, 0.05075525864958763, 1.655514121055603, 0.8843944668769836, -2.1601498126983643, -1.4328436851501465, 0.6909914612770081, -0.001524671446532011, 0.534214437007904, 1.0256017446517944, 0.5104005336761475, -1.7293959856033325, 1.2653875350952148, 0.0954960510134697, -0.17270126938819885, 1.8912060260772705, 1.6299030780792236, 0.06767039000988007, 0.3822478652000427, -0.2886965870857239, 0.5019703507423401, 0.21858757734298706, 2.1308653354644775, 0.058144643902778625, 0.7725459933280945, -0.4169446527957916, -0.888424277305603, 0.8989048004150391, 0.7942366003990173, -0.21518972516059875], [0.9796578288078308, 1.317782998085022, -0.6366255283355713, -0.39291712641716003, -0.27521243691444397, 1.9017220735549927, -0.264128714799881, 0.5439921021461487, -0.0600324310362339, 0.3927359879016876, 0.8636662364006042, -0.6373550295829773, -0.5154533386230469, -0.7624475955963135, -0.28114935755729675, 0.3378978967666626, -0.0656781867146492, 0.17936410009860992, -0.7359909415245056, 0.7201550006866455, 2.6314280033111572, 0.36926746368408203, 0.5570545792579651, 1.224092721939087, -0.3309008777141571, -1.345702886581421, 0.11301671713590622, 0.9575381278991699, -0.21560703217983246, 1.6920922994613647, 0.1413143128156662, 2.0274977684020996, -0.22293391823768616, 0.5869076251983643, 0.5283305048942566, 0.6223000884056091, -1.3579989671707153, -1.7330348491668701, -0.6303677558898926, -1.4500294923782349, 1.592329502105713, -1.781258225440979, 1.3009462356567383, -0.44680649042129517, -1.6150858402252197, -0.9577056169509888, -1.4387001991271973, -0.6463170051574707, 0.48965367674827576, 0.16417409479618073]]"
"[[0.9025119543075562, 0.08253265917301178, -0.1270475834608078, -0.14985449612140656, -1.6302402019500732, 1.3120537996292114, -0.5142794847488403, -0.34061259031295776, 0.24637193977832794, -1.9641786813735962, -0.3000282049179077, 1.1562011241912842, 0.91463702917099, -0.5707237720489502, 1.0160951614379883, -1.5603224039077759, 0.21078194677829742, -0.34104225039482117, 1.193493366241455, -0.34081074595451355, 1.7620038986206055, -0.026614544913172722, 0.2669110596179962, 1.286128282546997, 1.4325803518295288, 0.38570693135261536, 0.09036175906658173, -1.1309316158294678, 0.7529555559158325, -0.9539268016815186, -0.6891027092933655, -0.5687384605407715, -1.1053276062011719, -0.6870903968811035, -0.7533930540084839, -1.5580116510391235, -0.10316938161849976, 0.9169755578041077, 0.5803964138031006, 0.23513485491275787, -1.2482810020446777, 0.2601023018360138, 1.075266718864441, -0.8294171094894409, -1.827871322631836, 0.7668876647949219, -0.045155614614486694, -0.44827142357826233, 0.047614336013793945, 0.7694143652915955], [-1.7769919633865356, 1.6162782907485962, 2.398726224899292, -0.5841444134712219, 1.1886368989944458, -1.2445776462554932, 0.9527708292007446, -0.752884030342102, 0.5394339561462402, 0.38141369819641113, -0.1244993582367897, 0.9230969548225403, -0.205917090177536, -0.8167476654052734, -0.1772163212299347, -0.5372292399406433, -0.16560378670692444, -0.11113797873258591, 1.7853314876556396, -0.3725164532661438, 0.20062533020973206, -1.5685278177261353, -0.12342795729637146, 0.9693154096603394, -0.35274505615234375, -0.34244903922080994, 1.0775669813156128, 0.30232247710227966, -0.5725241303443909, -1.6287367343902588, -1.3568181991577148, 0.059906005859375, -1.1324657201766968, -0.4934754967689514, 1.6149978637695312, 0.3735036551952362, -0.5245650410652161, -1.701872706413269, -0.7990028262138367, 1.3658504486083984, 0.14525289833545685, 0.6668435335159302, 0.1992528736591339, 0.6298804879188538, 0.25783291459083557, -0.17214374244213104, 0.17907783389091492, -0.30030789971351624, 1.8526129722595215, -0.6804641485214233], [-0.4708644151687622, -0.7496451735496521, 0.438497930765152, 0.6264455914497375, 0.3776962161064148, 2.019235610961914, -0.3676382601261139, -1.4878735542297363, -0.7167958617210388, 2.0253005027770996, 2.1224405765533447, 0.12533248960971832, -0.44613051414489746, -1.1751315593719482, 0.8838286399841309, 0.6468256115913391, 1.0951954126358032, -1.6697094440460205, -0.7781040668487549, -0.38129135966300964, -1.9852402210235596, 1.932404637336731, 0.07438642531633377, -0.4788680672645569, 1.3672844171524048, 0.2014385312795639, -0.9616468548774719, 0.17396344244480133, 0.6425933241844177, 0.4608507454395294, -0.7137158513069153, 0.09104220569133759, -0.8190400004386902, -1.5086729526519775, 0.21162015199661255, -0.13542723655700684, -0.6126382946968079, 1.381069302558899, -1.77420175075531, 0.02834150940179825, -0.06444814801216125, -0.05413515493273735, 1.4133756160736084, 0.24890051782131195, 0.4105146825313568, 0.850521981716156, 1.549626111984253, 0.7922730445861816, -0.32103919982910156, 0.3234895169734955], [1.1962037086486816, -0.8498574495315552, 0.7078564763069153, 0.8827605247497559, 0.36994802951812744, 0.82374507188797, -0.35127729177474976, -0.37095731496810913, 0.7130354642868042, -1.1243579387664795, 0.7917078137397766, 0.27257007360458374, -0.2600320279598236, 0.5729004740715027, 0.2877883315086365, -0.3911362290382385, 0.5260218381881714, 1.9403992891311646, 0.7384321093559265, 0.3643442392349243, 2.318657875061035, 0.05785097926855087, 1.6170142889022827, 0.8456569314002991, -2.151700258255005, -1.4245615005493164, 0.6992747187614441, 0.006927962880581617, 0.542402446269989, 1.0329318046569824, 0.5139937996864319, -1.7197450399398804, 1.275040864944458, 0.09913259744644165, -0.16203580796718597, 1.9061710834503174, 1.6289315223693848, 0.06669895350933075, 0.3972124457359314, -0.27861544489860535, 0.510536253452301, 0.22658924758434296, 2.138867139816284, 0.0669889971613884, 0.7809860706329346, -0.40850499272346497, -0.8797455430030823, 0.9058635830879211, 0.8011953234672546, -0.2025916427373886], [0.9990522861480713, 1.3371773958206177, -0.617291271686554, -0.37403932213783264, -0.28737980127334595, 1.8895537853240967, -0.2452506422996521, 0.5316213369369507, -0.041976600885391235, 0.4113748073577881, 0.8829405903816223, -0.6179677248001099, -0.4960659146308899, -0.7431000471115112, -0.2594398856163025, 0.35670706629753113, -0.04804020747542381, 0.19700241088867188, -0.7171836495399475, 0.7372981905937195, 2.619051218032837, 0.35039573907852173, 0.5415512919425964, 1.1919245719909668, -0.33243629336357117, -1.3398329019546509, 0.11888865381479263, 0.9560025334358215, -0.21889281272888184, 1.683153748512268, 0.15967364609241486, 2.046511650085449, -0.2039223611354828, 0.6053540706634521, 0.5504029393196106, 0.6417155265808105, -1.3388662338256836, -1.7139042615890503, -0.6109541654586792, -1.4312835931777954, 1.6116502285003662, -1.761925458908081, 1.3202873468399048, -0.42558833956718445, -1.5958137512207031, -0.9384300112724304, -1.4188207387924194, -0.627131462097168, 0.5088411569595337, 0.1874009519815445]]"
"[[0.9183724522590637, 0.09839233011007309, -0.11031568795442581, -0.134564608335495, -1.628890037536621, 1.3134039640426636, -0.4989902675151825, -0.33959659934043884, 0.25178441405296326, -1.9483379125595093, -0.28288018703460693, 1.173292875289917, 0.9317290782928467, -0.5534204840660095, 1.041190505027771, -1.5433036088943481, 0.22689424455165863, -0.32493069767951965, 1.2105168104171753, -0.3233674168586731, 1.7735117673873901, -0.022704070433974266, 0.21962566673755646, 1.2382231950759888, 1.4477558135986328, 0.3905986249446869, 0.09525340795516968, -1.1157573461532593, 0.7638808488845825, -0.941255509853363, -0.6882087588310242, -0.5533204078674316, -1.0899113416671753, -0.6861597299575806, -0.7306714057922363, -1.5429809093475342, -0.1243356466293335, 0.8958086967468262, 0.595431923866272, 0.21478460729122162, -1.2324331998825073, 0.2765839695930481, 1.0917489528656006, -0.8027395009994507, -1.811073660850525, 0.7836933732032776, -0.017648784443736076, -0.4274255931377411, 0.06846127659082413, 0.7968829870223999], [-1.7912108898162842, 1.6020538806915283, 2.3933792114257812, -0.6010811924934387, 1.177506446838379, -1.255705714225769, 0.9358322024345398, -0.7778983116149902, 0.5433200001716614, 0.36440378427505493, -0.12633973360061646, 0.9203874468803406, -0.2086266130208969, -0.8184846043586731, -0.17298752069473267, -0.5258224010467529, -0.1675783395767212, -0.11311253905296326, 1.7967381477355957, -0.36113277077674866, 0.19784028828144073, -1.5715776681900024, -0.1401420533657074, 0.9523124694824219, -0.35527220368385315, -0.3431188464164734, 1.0768970251083374, 0.29979512095451355, -0.5731467604637146, -1.631552815437317, -1.3691740036010742, 0.057333797216415405, -1.1350375413894653, -0.5058069825172424, 1.618432641029358, 0.38066813349723816, -0.5424450039863586, -1.7197495698928833, -0.7918387651443481, 1.3578191995620728, 0.14256396889686584, 0.6676884889602661, 0.20009790360927582, 0.6327313780784607, 0.2552601099014282, -0.1747165024280548, 0.18127940595149994, -0.3035223186016083, 1.8493986129760742, -0.6797996759414673], [-0.4208140969276428, -0.6995970010757446, 0.486614853143692, 0.5671301484107971, 0.33067476749420166, 1.9722131490707397, -0.42695221304893494, -1.5630477666854858, -0.7259233593940735, 1.9988442659378052, 2.167681932449341, 0.17102478444576263, -0.4004403054714203, -1.129846215248108, 0.9378339648246765, 0.6962948441505432, 1.140535831451416, -1.6243839263916016, -0.7286410331726074, -0.3360280990600586, -1.9355254173278809, 1.9267045259475708, 0.12237203866243362, -0.48630064725875854, 1.3959686756134033, 0.24346990883350372, -0.919620156288147, 0.2026471346616745, 0.6701776385307312, 0.459949254989624, -0.6665287017822266, 0.14129318296909332, -0.7687942385673523, -1.4614934921264648, 0.26440221071243286, -0.08593323081731796, -0.6051777005195618, 1.3885300159454346, -1.7247265577316284, 0.03562034294009209, -0.01320977509021759, -0.002897434402257204, 1.4646166563034058, 0.29869821667671204, 0.45981425046920776, 0.8998219966888428, 1.612790584564209, 0.8399228453636169, -0.27339255809783936, 0.34463953971862793], [1.2085423469543457, -0.8375199437141418, 0.719907820224762, 0.8949899673461914, 0.3815721273422241, 0.8353694677352905, -0.3390485346317291, -0.35944244265556335, 0.7172741889953613, -1.1125311851501465, 0.8065608739852905, 0.2873426675796509, -0.24525977671146393, 0.5878049731254578, 0.303414523601532, -0.3779245615005493, 0.5213743448257446, 1.9357517957687378, 0.7516446709632874, 0.3597426414489746, 2.3296725749969482, 0.06771503388881683, 1.5729577541351318, 0.8011974096298218, -2.139314889907837, -1.4147183895111084, 0.7091192603111267, 0.019317828118801117, 0.5523081421852112, 1.0432535409927368, 0.5128560066223145, -1.7066032886505127, 1.2881864309310913, 0.09800687432289124, -0.14698673784732819, 1.9163535833358765, 1.6191599369049072, 0.056927505880594254, 0.4073946177959442, -0.2776496708393097, 0.522903561592102, 0.24110521376132965, 2.15338397026062, 0.08162486553192139, 0.7934180498123169, -0.3960735499858856, -0.8665940165519714, 0.919349730014801, 0.8146814703941345, -0.18962983787059784], [1.042628288269043, 1.380753517150879, -0.5754604935646057, -0.33314815163612366, -0.3369896113872528, 1.839942216873169, -0.20435892045497894, 0.48164013028144836, -0.027623435482382774, 0.4521065652370453, 0.9268696308135986, -0.5740300416946411, -0.4521273374557495, -0.6990935802459717, -0.210891991853714, 0.40104517340660095, -0.005424978211522102, 0.2396184206008911, -0.6728501319885254, 0.7803437113761902, 2.6175379753112793, 0.311686247587204, 0.5294368267059326, 1.1358124017715454, -0.3259342908859253, -1.3023563623428345, 0.15637464821338654, 0.9625043869018555, -0.21403248608112335, 1.669114351272583, 0.20193786919116974, 2.0896215438842773, -0.1608167439699173, 0.6476376056671143, 0.5986253619194031, 0.6846392750740051, -1.2953702211380005, -1.6704139709472656, -0.5680347084999084, -1.389407753944397, 1.6551976203918457, -1.7179930210113525, 1.3642390966415405, -0.3823164105415344, -1.5518603324890137, -0.8944682478904724, -1.3741638660430908, -0.5840392112731934, 0.5519375205039978, 0.21279364824295044]]"
"[[0.9122501611709595, 0.09227029979228973, -0.11424194276332855, -0.14117974042892456, -1.639830231666565, 1.302458643913269, -0.5056052207946777, -0.35073840618133545, 0.289182186126709, -1.9520014524459839, -0.2939019203186035, 1.1627793312072754, 0.9212153553962708, -0.5643657445907593, 1.0382990837097168, -1.5759204626083374, 0.21613191068172455, -0.335692435503006, 1.1778918504714966, -0.35830453038215637, 1.7636313438415527, -0.03572104126214981, 0.2185618132352829, 1.2363641262054443, 1.466485857963562, 0.3838326036930084, 0.08848743885755539, -1.097028374671936, 0.7715438008308411, -0.9242289066314697, -0.6960181593894958, -0.5594794750213623, -1.096069574356079, -0.6939159035682678, -0.7344351410865784, -1.5469261407852173, -0.13772736489772797, 0.882416844367981, 0.5914857387542725, 0.20237156748771667, -1.2387174367904663, 0.2699958384037018, 1.085160493850708, -0.8008962869644165, -1.8172768354415894, 0.7774872183799744, -0.02179943397641182, -0.4380648732185364, 0.057821404188871384, 0.8018575310707092], [-1.780613660812378, 1.6126559972763062, 2.42571759223938, -0.5695367455482483, 1.2108774185180664, -1.2223420143127441, 0.9673795104026794, -0.7472025156021118, 0.5821688175201416, 0.3770328462123871, -0.09534643590450287, 0.9544359445571899, -0.17457999289035797, -0.7874307632446289, -0.13825510442256927, -0.5712611079216003, -0.13694587349891663, -0.08247993886470795, 1.7512989044189453, -0.406582772731781, 0.23184746503829956, -1.537835717201233, -0.10850228369235992, 0.9837391376495361, -0.3213037848472595, -0.3231579065322876, 1.0968587398529053, 0.33376508951187134, -0.5533201694488525, -1.5978100299835205, -1.336046576499939, 0.09171082824468613, -1.1006653308868408, -0.47262105345726013, 1.6554877758026123, 0.4076262414455414, -0.5294696092605591, -1.7067760229110718, -0.7648821473121643, 1.374279260635376, 0.17658551037311554, 0.6985648274421692, 0.23097361624240875, 0.6671032905578613, 0.2905826270580292, -0.13939504325389862, 0.21869461238384247, -0.3125104010105133, 1.8404107093811035, -0.6868562698364258], [-0.3989016115665436, -0.6776856780052185, 0.5082957148551941, 0.5262271761894226, 0.31676486134529114, 1.9583030939102173, -0.467854380607605, -1.5959527492523193, -0.7039874196052551, 1.997361660003662, 2.161228656768799, 0.16938969492912292, -0.40207523107528687, -1.1362534761428833, 0.9599922895431519, 0.708604097366333, 1.1387081146240234, -1.626211404800415, -0.7163334488868713, -0.3447859585285187, -1.915008783340454, 1.8965755701065063, 0.14229647815227509, -0.516642689704895, 1.4160429239273071, 0.260150671005249, -0.9029414057731628, 0.2227209508419037, 0.6890563368797302, 0.45057690143585205, -0.6459848284721375, 0.16225296258926392, -0.7478368282318115, -1.4409263134002686, 0.2862603962421417, -0.06533648818731308, -0.6035778522491455, 1.3901302814483643, -1.704138159751892, 0.03722342848777771, 0.008251187391579151, 0.017981261014938354, 1.4854968786239624, 0.32071223855018616, 0.4706633985042572, 0.9106712341308594, 1.6290132999420166, 0.8580909967422485, -0.2552257478237152, 0.35116755962371826], [1.2052431106567383, -0.8408186435699463, 0.717561662197113, 0.8914786577224731, 0.3788359463214874, 0.8326330780982971, -0.3425597846508026, -0.3622656464576721, 0.7365431785583496, -1.1148359775543213, 0.7976436614990234, 0.27849462628364563, -0.25410768389701843, 0.5789153575897217, 0.3010416328907013, -0.38412752747535706, 0.5207525491714478, 1.9351301193237305, 0.7454410195350647, 0.35888633131980896, 2.3260109424591064, 0.06347183883190155, 1.571219563484192, 0.7991214990615845, -2.1423964500427246, -1.418262004852295, 0.7055755257606506, 0.016235316172242165, 0.5490489602088928, 1.0393612384796143, 0.5097780227661133, -1.7086726427078247, 1.2861167192459106, 0.09494947642087936, -0.14910002052783966, 1.9243966341018677, 1.6127511262893677, 0.050518542528152466, 0.4154372215270996, -0.2735573649406433, 0.519472062587738, 0.23538725078105927, 2.1476659774780273, 0.0764107033610344, 0.7899901866912842, -0.39950132369995117, -0.8697625398635864, 0.9130600690841675, 0.808391809463501, -0.19157591462135315], [1.0720710754394531, 1.4101970195770264, -0.5458841919898987, -0.30491188168525696, -0.34573301672935486, 1.8311984539031982, -0.17612224817276, 0.4725790023803711, 0.0037435998674482107, 0.4814493954181671, 0.956139862537384, -0.5446493029594421, -0.42274612188339233, -0.6697962284088135, -0.18006129562854767, 0.4239841401576996, 0.02366834506392479, 0.26871222257614136, -0.6499133110046387, 0.8030713200569153, 2.5827419757843018, 0.27563121914863586, 0.5509690046310425, 1.1021779775619507, -0.32259654998779297, -1.2836549282073975, 0.17508096992969513, 0.9658421874046326, -0.21268409490585327, 1.6534254550933838, 0.23709814250469208, 2.124673843383789, -0.125767782330513, 0.6828271150588989, 0.6294029951095581, 0.7197404503822327, -1.265987753868103, -1.641036033630371, -0.532936692237854, -1.3543109893798828, 1.6846058368682861, -1.6886115074157715, 1.3936330080032349, -0.3528248071670532, -1.5224740505218506, -0.8650771379470825, -1.3447269201278687, -0.5556572675704956, 0.5803220868110657, 0.22497671842575073]]"
"[[0.9459241628646851, 0.12594282627105713, -0.07720796763896942, -0.10819205641746521, -1.6048945188522339, 1.3374090194702148, -0.4726189374923706, -0.31581562757492065, 0.32280129194259644, -1.9144285917282104, -0.2615181505680084, 1.1956583261489868, 0.9540940523147583, -0.5319541692733765, 1.0722004175186157, -1.5636385679244995, 0.24769164621829987, -0.304134339094162, 1.1901763677597046, -0.3465478718280792, 1.7907629013061523, -0.0063215140253305435, 0.21508856117725372, 1.23237943649292, 1.4075682163238525, 0.38631847500801086, 0.0909733921289444, -1.1559438705444336, 0.724798321723938, -0.9830840229988098, -0.6629332900047302, -0.5263976454734802, -1.0629913806915283, -0.6607980728149414, -0.6997520327568054, -1.514082908630371, -0.12041936069726944, 0.899725079536438, 0.6243388652801514, 0.22035008668899536, -1.2056022882461548, 0.3031846880912781, 1.1183505058288574, -0.7613347768783569, -1.7841932773590088, 0.8105870485305786, 0.015118428505957127, -0.3998419940471649, 0.0960463359951973, 0.8148822784423828], [-1.7957767248153687, 1.5974878072738647, 2.4341604709625244, -0.5749727487564087, 1.2069685459136963, -1.2262499332427979, 0.9619429707527161, -0.751825749874115, 0.6078277230262756, 0.36609235405921936, -0.1016487181186676, 0.9500126838684082, -0.17900283634662628, -0.7937220335006714, -0.14343950152397156, -0.584087610244751, -0.1430220603942871, -0.08855614811182022, 1.73847234249115, -0.41940850019454956, 0.22712275385856628, -1.5425279140472412, -0.11610103398561478, 0.9761216044425964, -0.3263256251811981, -0.3270157277584076, 1.0930010080337524, 0.3287429213523865, -0.5573898553848267, -1.6028399467468262, -1.3402462005615234, 0.08734828978776932, -1.105027198791504, -0.47680944204330444, 1.6517456769943237, 0.41811466217041016, -0.5252071022987366, -1.7025139331817627, -0.7543944716453552, 1.3878157138824463, 0.17192132771015167, 0.6908618211746216, 0.22327084839344025, 0.6601210236549377, 0.2862386107444763, -0.14373888075351715, 0.21528351306915283, -0.30406653881073, 1.848854422569275, -0.6781326532363892], [-0.401576429605484, -0.6803603172302246, 0.5058856010437012, 0.5031906962394714, 0.31363150477409363, 1.9551695585250854, -0.4908904731273651, -1.6087720394134521, -0.6671102046966553, 2.0152337551116943, 2.1454527378082275, 0.16595861315727234, -0.4055061936378479, -1.1520075798034668, 0.9560149312019348, 0.6889937520027161, 1.1347826719284058, -1.6301355361938477, -0.7359410524368286, -0.3618033528327942, -1.9209518432617188, 1.8945974111557007, 0.13734377920627594, -0.5188275575637817, 1.3691723346710205, 0.2546565532684326, -0.9084347486495972, 0.1758514791727066, 0.6433852314949036, 0.4089270234107971, -0.6504166126251221, 0.1577180027961731, -0.7523712515830994, -1.4453445672988892, 0.2824845612049103, -0.0694098249077797, -0.5996424555778503, 1.3940658569335938, -1.7082098722457886, 0.0412939190864563, 0.004207095596939325, 0.013274215161800385, 1.4807896614074707, 0.31780877709388733, 0.4688752591609955, 0.9088830351829529, 1.6374118328094482, 0.8551455140113831, -0.25817111134529114, 0.35418835282325745], [1.20294189453125, -0.8431199193000793, 0.7158954739570618, 0.8889634013175964, 0.37699857354164124, 0.8307958245277405, -0.3450748920440674, -0.3641357123851776, 0.7505494952201843, -1.116163969039917, 0.7947695255279541, 0.27563878893852234, -0.25696349143981934, 0.5760490298271179, 0.29835307598114014, -0.3881661295890808, 0.516666829586029, 1.9310439825057983, 0.741402268409729, 0.3547251224517822, 2.3230669498443604, 0.06068507954478264, 1.561191201210022, 0.7891182899475098, -2.1461453437805176, -1.4209620952606201, 0.7028748989105225, 0.012484748847782612, 0.5452473163604736, 1.035398244857788, 0.5100088715553284, -1.7084583044052124, 1.286331057548523, 0.09518630802631378, -0.15053711831569672, 1.9368690252304077, 1.6165821552276611, 0.05434942990541458, 0.4279094636440277, -0.2607177495956421, 0.516978919506073, 0.23032893240451813, 2.1426074504852295, 0.0716300681233406, 0.7875078916549683, -0.4019835293292999, -0.8720256686210632, 0.909258246421814, 0.8045899868011475, -0.1914663165807724], [1.0939182043075562, 1.432044506072998, -0.5236520767211914, -0.2834662199020386, -0.3402193784713745, 1.8367122411727905, -0.15467630326747894, 0.47789379954338074, 0.026485776528716087, 0.504357099533081, 0.9777454733848572, -0.5229172706604004, -0.40101370215415955, -0.6481896638870239, -0.1582196056842804, 0.44287821650505066, 0.044534604996442795, 0.2895788848400116, -0.6310212016105652, 0.8211525678634644, 2.5711324214935303, 0.28253793716430664, 0.5617491006851196, 1.1062328815460205, -0.3468925654888153, -1.2692418098449707, 0.1894979327917099, 0.9415459632873535, -0.23727452754974365, 1.6328964233398438, 0.2721298038959503, 2.1594936847686768, -0.09095150232315063, 0.7178634405136108, 0.6513797044754028, 0.7547786831855774, -1.2439775466918945, -1.6190283298492432, -0.4979020953178406, -1.3190234899520874, 1.70635187625885, -1.666890025138855, 1.4153639078140259, -0.3311998248100281, -1.5007511377334595, -0.8433499932289124, -1.3228708505630493, -0.5339321494102478, 0.6020492911338806, 0.2363947331905365]]"
"[[0.9770863056182861, 0.15710362792015076, -0.04423289746046066, -0.07731897383928299, -1.5779826641082764, 1.3643313646316528, -0.4417472183704376, -0.28897422552108765, 0.3398432731628418, -1.8814783096313477, -0.22663529217243195, 1.2304884195327759, 0.9889236688613892, -0.4970182776451111, 1.1069345474243164, -1.5275989770889282, 0.28085389733314514, -0.27097374200820923, 1.2262237071990967, -0.30952638387680054, 1.811245083808899, 0.015297846868634224, 0.1938377171754837, 1.2100865840911865, 1.375931739807129, 0.3965548574924469, 0.10120969265699387, -1.1875793933868408, 0.698810338973999, -1.0155003070831299, -0.6356078386306763, -0.49538302421569824, -1.0319799184799194, -0.6333780884742737, -0.6649446487426758, -1.4838353395462036, -0.1160828024148941, 0.9040619134902954, 0.6545957326889038, 0.22582904994487762, -1.1745021343231201, 0.33429622650146484, 1.1494630575180054, -0.7205560803413391, -1.7553201913833618, 0.8394739627838135, 0.05187198892235756, -0.36614692211151123, 0.12974314391613007, 0.8348565697669983], [-1.820818305015564, 1.572438359260559, 2.4179725646972656, -0.5933199524879456, 1.1899775266647339, -1.2432372570037842, 0.9435939788818359, -0.7663004398345947, 0.6135829091072083, 0.3429192900657654, -0.12140742689371109, 0.9292704463005066, -0.19974374771118164, -0.8134544491767883, -0.1612304449081421, -0.5603719353675842, -0.16290679574012756, -0.10844098776578903, 1.7621878385543823, -0.39573153853416443, 0.20621803402900696, -1.5636131763458252, -0.14703193306922913, 0.944970428943634, -0.3473612368106842, -0.3388521373271942, 1.0811638832092285, 0.3077062964439392, -0.5694072842597961, -1.624109148979187, -1.3532408475875854, 0.06683485954999924, -1.1255377531051636, -0.48974254727363586, 1.6337928771972656, 0.4213523268699646, -0.542392373085022, -1.7196966409683228, -0.7511571645736694, 1.391893982887268, 0.15114134550094604, 0.6677839756011963, 0.20019331574440002, 0.638414204120636, 0.2638198733329773, -0.16615702211856842, 0.1964302659034729, -0.3040515184402466, 1.8488693237304688, -0.6758875250816345], [-0.3817446529865265, -0.6605293154716492, 0.5259391665458679, 0.4910588562488556, 0.30612635612487793, 1.947664499282837, -0.5030220150947571, -1.6184239387512207, -0.6384021639823914, 2.030306339263916, 2.1702334880828857, 0.19888050854206085, -0.37258583307266235, -1.1272188425064087, 0.9740511178970337, 0.7006244659423828, 1.1666697263717651, -1.5982593297958374, -0.7243116497993469, -0.3364935517311096, -1.9067898988723755, 1.8794611692428589, 0.15166983008384705, -0.5348650813102722, 1.3417962789535522, 0.2680177390575409, -0.8950753211975098, 0.14847563207149506, 0.6165340542793274, 0.3744691014289856, -0.6354817748069763, 0.17401519417762756, -0.736075758934021, -1.4303638935089111, 0.30046725273132324, -0.05315356329083443, -0.5957717299461365, 1.3979365825653076, -1.6919599771499634, 0.04530612379312515, 0.01981358975172043, 0.026926472783088684, 1.4944425821304321, 0.33521923422813416, 0.40537524223327637, 0.8453827500343323, 1.6365946531295776, 0.869106650352478, -0.24421098828315735, 0.36456388235092163], [1.2120378017425537, -0.8340252637863159, 0.7250161170959473, 0.8980632424354553, 0.38594940304756165, 0.8397468328475952, -0.3359755873680115, -0.355185866355896, 0.7587411403656006, -1.1067805290222168, 0.8087294101715088, 0.28953316807746887, -0.24306966364383698, 0.5900266170501709, 0.3082222640514374, -0.3772438168525696, 0.505674421787262, 1.9200514554977417, 0.7523252367973328, 0.34398749470710754, 2.3305788040161133, 0.06791584938764572, 1.5358701944351196, 0.7634501457214355, -2.139105796813965, -1.4137030839920044, 0.7101349830627441, 0.019527608528733253, 0.550755500793457, 1.0409574508666992, 0.5138005018234253, -1.697389841079712, 1.29740309715271, 0.0990109071135521, -0.13916218280792236, 1.9538875818252563, 1.615637183189392, 0.053404390811920166, 0.4449279010295868, -0.24829146265983582, 0.5260775089263916, 0.23804713785648346, 2.150325059890747, 0.07972759753465652, 0.7964209914207458, -0.3930710256099701, -0.8624277114868164, 0.9170060157775879, 0.8123377561569214, -0.18365928530693054], [1.1216121912002563, 1.4597386121749878, -0.496078222990036, -0.25614842772483826, -0.3404870629310608, 1.83644437789917, -0.12735819816589355, 0.4775175452232361, 0.04253268241882324, 0.5322456955909729, 1.0054458379745483, -0.4951696991920471, -0.3732656240463257, -0.6204721927642822, -0.12893685698509216, 0.47383084893226624, 0.0700249895453453, 0.31506964564323425, -0.6000712513923645, 0.8500357270240784, 2.581228256225586, 0.271731436252594, 0.5604138970375061, 1.0884878635406494, -0.3669721186161041, -1.2561604976654053, 0.2025829255580902, 0.9214662313461304, -0.2587330937385559, 1.608415961265564, 0.30527323484420776, 2.191448211669922, -0.058999497443437576, 0.7510560750961304, 0.6810778379440308, 0.7868891954421997, -1.2163057327270508, -1.591360092163086, -0.4657946228981018, -1.2857842445373535, 1.7341059446334839, -1.6391783952713013, 1.4430866241455078, -0.3031172752380371, -1.473057508468628, -0.8156517148017883, -1.294202208518982, -0.5064678192138672, 0.6295160055160522, 0.2536431849002838]]"
"[[0.9763692021369934, 0.15638627111911774, -0.044457558542490005, -0.07856051623821259, -1.5885262489318848, 1.3537837266921997, -0.44298866391181946, -0.29991602897644043, 0.35283163189888, -1.8819938898086548, -0.2206392139196396, 1.2365155220031738, 0.9949503540992737, -0.49096086621284485, 1.1102912425994873, -1.5254629850387573, 0.28610125184059143, -0.2657264769077301, 1.2283599376678467, -0.3040608763694763, 1.8063617944717407, 0.013174648396670818, 0.17553867399692535, 1.1919668912887573, 1.3764145374298096, 0.41603636741638184, 0.12069108337163925, -1.1870967149734497, 0.7078888416290283, -1.0151820182800293, -0.6448400616645813, -0.49615973234176636, -1.0327565670013428, -0.6425669193267822, -0.6629519462585449, -1.484736680984497, -0.12330655008554459, 0.8968380093574524, 0.6536939144134521, 0.21878157556056976, -1.1751986742019653, 0.33349844813346863, 1.1486653089523315, -0.7164613604545593, -1.7560555934906006, 0.8387380838394165, 0.053715821355581284, -0.3713158071041107, 0.12457393109798431, 0.8423455357551575], [-1.8159127235412598, 1.5773457288742065, 2.430805206298828, -0.5909885764122009, 1.2049230337142944, -1.2282947301864624, 0.9459255337715149, -0.7544856071472168, 0.6262722611427307, 0.34566330909729004, -0.11609841883182526, 0.9345786571502686, -0.1944359689950943, -0.8081040978431702, -0.15300728380680084, -0.5567206740379333, -0.15758349001407623, -0.10311774909496307, 1.7658390998840332, -0.3921116292476654, 0.2113414704799652, -1.5586438179016113, -0.15072204172611237, 0.9412212371826172, -0.34204769134521484, -0.3246137499809265, 1.095402717590332, 0.31302016973495483, -0.5551732182502747, -1.618955135345459, -1.3501557111740112, 0.07198271155357361, -1.12039053440094, -0.4866192936897278, 1.6412752866744995, 0.4224631190299988, -0.5445185899734497, -1.7218222618103027, -0.7500463724136353, 1.3887535333633423, 0.15622560679912567, 0.6699307560920715, 0.20234021544456482, 0.6419313549995422, 0.2680555582046509, -0.1619214415550232, 0.2020488977432251, -0.3238102197647095, 1.8291103839874268, -0.6927430629730225], [-0.34658217430114746, -0.6253684163093567, 0.5608362555503845, 0.451987087726593, 0.29313549399375916, 1.9346731901168823, -0.5420930981636047, -1.6564743518829346, -0.6393349170684814, 2.006680488586426, 2.224684715270996, 0.26174402236938477, -0.30972516536712646, -1.0727704763412476, 1.0113803148269653, 0.7258895039558411, 1.2292309999465942, -1.5357189178466797, -0.6990501880645752, -0.2827761769294739, -1.8712079524993896, 1.8983781337738037, 0.18610762059688568, -0.5166558623313904, 1.3514052629470825, 0.30235373973846436, -0.8607435822486877, 0.1580842137336731, 0.6270586848258972, 0.38367918133735657, -0.6027792096138, 0.20957916975021362, -0.7005157470703125, -1.3976484537124634, 0.3368065059185028, -0.018001895397901535, -0.5849143266677856, 1.408794641494751, -1.656821370124817, 0.056049056351184845, 0.05517064779996872, 0.06157189607620239, 1.5290899276733398, 0.370378702878952, 0.40686774253845215, 0.8468754887580872, 1.6491113901138306, 0.8998315334320068, -0.21348828077316284, 0.37570449709892273], [1.2216684818267822, -0.8243957757949829, 0.7346711158752441, 0.9074644446372986, 0.3952062726020813, 0.849003791809082, -0.32657483220100403, -0.3461562395095825, 0.7680150270462036, -1.0972676277160645, 0.825826108455658, 0.3064926862716675, -0.22611069679260254, 0.6071484088897705, 0.319637268781662, -0.366860032081604, 0.5014727711677551, 1.915850281715393, 0.7627096772193909, 0.3398197591304779, 2.3391942977905273, 0.07678981125354767, 1.5179798603057861, 0.7455734014511108, -2.129331588745117, -1.4036502838134766, 0.7201893925666809, 0.02930634841322899, 0.5609317421913147, 1.050183653831482, 0.5102083683013916, -1.6873668432235718, 1.3074296712875366, 0.0954393744468689, -0.12825153768062592, 1.9537489414215088, 1.6118121147155762, 0.04957955330610275, 0.44478917121887207, -0.2518611550331116, 0.5357028245925903, 0.24597634375095367, 2.158254861831665, 0.08778167515993118, 0.8060258030891418, -0.38346680998802185, -0.8526027202606201, 0.9229353666305542, 0.8182671070098877, -0.1787356585264206], [1.126404881477356, 1.4645311832427979, -0.4916010797023773, -0.2533175051212311, -0.3582483232021332, 1.818682312965393, -0.12452720105648041, 0.45939239859580994, 0.05111580342054367, 0.5352597236633301, 1.0102825164794922, -0.49027737975120544, -0.3683732748031616, -0.6155998706817627, -0.12185591459274292, 0.4790084660053253, 0.0737006887793541, 0.31874534487724304, -0.5948939919471741, 0.8541567325592041, 2.5827291011810303, 0.27431240677833557, 0.5473858118057251, 1.0847375392913818, -0.3648432493209839, -1.256758689880371, 0.20198500156402588, 0.9235950708389282, -0.25737935304641724, 1.6106417179107666, 0.3089880347251892, 2.1953513622283936, -0.0550968311727047, 0.754802405834198, 0.6878138780593872, 0.7907648682594299, -1.2117388248443604, -1.5867935419082642, -0.4619193375110626, -1.2821086645126343, 1.7389503717422485, -1.6343330144882202, 1.4479340314865112, -0.29781875014305115, -1.4682241678237915, -0.8108173608779907, -1.2889634370803833, -0.5022318959236145, 0.6337520480155945, 0.2585809826850891]]"
"[[0.9722281098365784, 0.15224531292915344, -0.045956697314977646, -0.08337654173374176, -1.5913410186767578, 1.3509670495986938, -0.44780439138412476, -0.3028816878795624, 0.40548697113990784, -1.8855284452438354, -0.22233322262763977, 1.2349028587341309, 0.993337869644165, -0.49263235926628113, 1.1079998016357422, -1.533731460571289, 0.2809138596057892, -0.2709135413169861, 1.2200899124145508, -0.31238335371017456, 1.7910776138305664, 0.0023836027830839157, 0.14883506298065186, 1.1649184226989746, 1.3703277111053467, 0.4039953649044037, 0.10865022987127304, -1.1931830644607544, 0.6975448131561279, -1.021797776222229, -0.653716504573822, -0.5006353855133057, -1.0372318029403687, -0.6514084339141846, -0.6647236347198486, -1.4883660078048706, -0.10880797356367111, 0.9113367795944214, 0.6500632166862488, 0.2329239696264267, -1.1797910928726196, 0.3292153775691986, 1.144382119178772, -0.7089702486991882, -1.760511040687561, 0.8342797756195068, 0.052994098514318466, -0.37090981006622314, 0.12497992068529129, 0.8818183541297913], [-1.8223458528518677, 1.5709097385406494, 2.4425652027130127, -0.5978487133979797, 1.2088305950164795, -1.2243876457214355, 0.9390650391578674, -0.7575114369392395, 0.6767576932907104, 0.3351983428001404, -0.11703279614448547, 0.9346149563789368, -0.19439947605133057, -0.8090237379074097, -0.1520790159702301, -0.5675281286239624, -0.1596628874540329, -0.10519714653491974, 1.7550318241119385, -0.40301209688186646, 0.21110521256923676, -1.558976411819458, -0.16371828317642212, 0.9280164837837219, -0.34223276376724243, -0.32899001240730286, 1.0910260677337646, 0.31283488869667053, -0.5596108436584473, -1.6193594932556152, -1.3513150215148926, 0.07203685492277145, -1.1203361749649048, -0.4877486526966095, 1.6435425281524658, 0.4198090136051178, -0.5299102663993835, -1.7072163820266724, -0.7527004480361938, 1.3970558643341064, 0.15571989119052887, 0.669010579586029, 0.2014201283454895, 0.6428568959236145, 0.26783737540245056, -0.16213959455490112, 0.20120103657245636, -0.32813137769699097, 1.824789047241211, -0.6921175718307495], [-0.3146205246448517, -0.5934084057807922, 0.5937627553939819, 0.43736183643341064, 0.2982705533504486, 1.9398082494735718, -0.5567181706428528, -1.6677361726760864, -0.6608291864395142, 1.9793570041656494, 2.2710583209991455, 0.31321391463279724, -0.2582574784755707, -1.0264149904251099, 1.045204997062683, 0.7508952021598816, 1.2789992094039917, -1.4859670400619507, -0.6740474104881287, -0.239221453666687, -1.8389567136764526, 1.902229905128479, 0.21674543619155884, -0.5139890313148499, 1.354785442352295, 0.3284236192703247, -0.83467698097229, 0.16146381199359894, 0.6299477815628052, 0.3818831443786621, -0.5712308883666992, 0.24265283346176147, -0.6674456596374512, -1.3660942316055298, 0.37071388959884644, 0.01502039935439825, -0.5582855343818665, 1.4354254007339478, -1.6238123178482056, 0.08259066939353943, 0.07670095562934875, 0.09417890757322311, 1.5616986751556396, 0.3939250111579895, 0.41631636023521423, 0.8563241958618164, 1.6511176824569702, 0.9310320019721985, -0.18229003250598907, 0.3984318673610687], [1.2441655397415161, -0.8019017577171326, 0.7577710151672363, 0.9297086596488953, 0.41816383600234985, 0.8719616532325745, -0.30433186888694763, -0.3233014643192291, 0.8016420602798462, -1.0749378204345703, 0.8496183156967163, 0.33031749725341797, -0.20228654146194458, 0.6309483647346497, 0.3422059118747711, -0.344903826713562, 0.4798506200313568, 1.8942279815673828, 0.7846672534942627, 0.3181488811969757, 2.3610591888427734, 0.09746410697698593, 1.5006392002105713, 0.7279338240623474, -2.107900381088257, -1.3863755464553833, 0.7374675273895264, 0.05074753239750862, 0.5775538682937622, 1.0702776908874512, 0.5265381932258606, -1.6632702350616455, 1.3315340280532837, 0.11178699135780334, -0.10410432517528534, 1.956134557723999, 1.6267677545547485, 0.06453460454940796, 0.44717511534690857, -0.2464572638273239, 0.5580093264579773, 0.26759931445121765, 2.1798787117004395, 0.10954656451940536, 0.8283599615097046, -0.3611338138580322, -0.830366849899292, 0.9432867765426636, 0.8386185169219971, -0.15927128493785858], [1.1311334371566772, 1.4692597389221191, -0.4860498607158661, -0.24941439926624298, -0.3567504584789276, 1.8201795816421509, -0.12062407284975052, 0.4606395363807678, 0.08120778948068619, 0.538408100605011, 1.0147634744644165, -0.4857563078403473, -0.36385223269462585, -0.611105740070343, -0.11586781591176987, 0.4814959764480591, 0.07310940325260162, 0.31815406680107117, -0.592406690120697, 0.8518514037132263, 2.590034008026123, 0.26480820775032043, 0.5400779843330383, 1.07224702835083, -0.3678942322731018, -1.269278645515442, 0.1894616186618805, 0.920543909072876, -0.2621398866176605, 1.6041470766067505, 0.3179655075073242, 2.2044122219085693, -0.04603658989071846, 0.7638068795204163, 0.6941108107566833, 0.7996667623519897, -1.2070462703704834, -1.5821012258529663, -0.45301827788352966, -1.273070216178894, 1.740870714187622, -1.629754662513733, 1.4525145292282104, -0.2946060597896576, -1.4636998176574707, -0.8062924146652222, -1.2867801189422607, -0.4972526729106903, 0.6387320160865784, 0.2769424021244049]]"
"[[0.9736018180847168, 0.15361885726451874, -0.04113290086388588, -0.0814821869134903, -1.5459935665130615, 1.3963285684585571, -0.44591009616851807, -0.25697338581085205, 0.46143946051597595, -1.8808603286743164, -0.2220531702041626, 1.2350389957427979, 0.9934735894203186, -0.4923335611820221, 1.110946536064148, -1.5209033489227295, 0.27039071917533875, -0.28143608570098877, 1.2329210042953491, -0.3072177767753601, 1.7851017713546753, -0.011015992611646652, 0.08393839001655579, 1.0996060371398926, 1.341651439666748, 0.44205084443092346, 0.14670541882514954, -1.2218587398529053, 0.6886253952980042, -1.0517346858978271, -0.6670980453491211, -0.5000274181365967, -1.0366237163543701, -0.6648389101028442, -0.6623106598854065, -1.490401268005371, -0.07495206594467163, 0.9451932907104492, 0.6480273008346558, 0.26455599069595337, -1.1788489818572998, 0.3308333456516266, 1.1460000276565552, -0.6988090872764587, -1.76142156124115, 0.8333691358566284, 0.053744882345199585, -0.36071792244911194, 0.1351722776889801, 0.9498931765556335], [-1.8511872291564941, 1.5420589447021484, 2.4432103633880615, -0.6217988729476929, 1.1952950954437256, -1.2379199266433716, 0.9151127934455872, -0.7682602405548096, 0.7283052206039429, 0.31270748376846313, -0.14388178288936615, 0.907518208026886, -0.22149494290351868, -0.8358651995658875, -0.17775076627731323, -0.5478304624557495, -0.1892530620098114, -0.13478749990463257, 1.7747294902801514, -0.38379451632499695, 0.18381306529045105, -1.586876630783081, -0.2259209156036377, 0.865471363067627, -0.3693564534187317, -0.32606300711631775, 1.093953013420105, 0.28571000695228577, -0.5569849610328674, -1.647440791130066, -1.382656216621399, 0.044353507459163666, -1.1480153799057007, -0.519139289855957, 1.6165064573287964, 0.3854116201400757, -0.5180724263191223, -1.695380449295044, -0.7870961427688599, 1.3877688646316528, 0.1296921819448471, 0.6415575742721558, 0.17396767437458038, 0.6161240339279175, 0.23895612359046936, -0.19101983308792114, 0.16926780343055725, -0.3299217224121094, 1.8229985237121582, -0.6867235898971558], [-0.3360963463783264, -0.6148831844329834, 0.5761502385139465, 0.45605507493019104, 0.35407042503356934, 1.9956088066101074, -0.5380250811576843, -1.6204183101654053, -0.6419680714607239, 1.997841238975525, 2.2366411685943604, 0.2877027094364166, -0.28376758098602295, -1.0608017444610596, 1.0239163637161255, 0.7187613248825073, 1.2390867471694946, -1.5258680582046509, -0.7061773538589478, -0.285550594329834, -1.8634448051452637, 1.868884563446045, 0.18644963204860687, -0.5508431792259216, 1.3250465393066406, 0.31510791182518005, -0.847990870475769, 0.13172540068626404, 0.6023562550544739, 0.3467644155025482, -0.598267674446106, 0.21959632635116577, -0.6904997229576111, -1.3931471109390259, 0.34942588210105896, -0.007401023525744677, -0.5420041084289551, 1.4517079591751099, -1.646224856376648, 0.09884685277938843, 0.06683191657066345, 0.06969384104013443, 1.5372121334075928, 0.3859080970287323, 0.38573840260505676, 0.8257462382316589, 1.5997446775436401, 0.9101232886314392, -0.20319721102714539, 0.4174003303050995], [1.3011682033538818, -0.7449049353599548, 0.8146492838859558, 0.9869785904884338, 0.4763830006122589, 0.9301814436912537, -0.24706491827964783, -0.2648243010044098, 0.8447067141532898, -1.0176128149032593, 0.9055253267288208, 0.3862147629261017, -0.14639097452163696, 0.6868573427200317, 0.39970099925994873, -0.28686508536338806, 0.4379098117351532, 1.8522870540618896, 0.8427093625068665, 0.27634602785110474, 2.4170804023742676, 0.15084096789360046, 1.4473382234573364, 0.6742004156112671, -2.0545167922973633, -1.332714319229126, 0.7911373972892761, 0.10415102541446686, 0.6281399130821228, 1.1207879781723022, 0.567733645439148, -1.6040782928466797, 1.3907418251037598, 0.1529640108346939, -0.046351414173841476, 1.955553650856018, 1.659775733947754, 0.09754197299480438, 0.44659411907196045, -0.24252593517303467, 0.6150702834129333, 0.32463106513023376, 2.236912488937378, 0.1661282181739807, 0.8851767182350159, -0.30432000756263733, -0.774286687374115, 0.99903404712677, 0.8943656086921692, -0.11436527222394943], [1.1286041736602783, 1.4667303562164307, -0.4850362241268158, -0.24735283851623535, -0.2921340763568878, 1.8847975730895996, -0.11856245994567871, 0.5254136919975281, 0.11133743077516556, 0.5409141778945923, 1.0114076137542725, -0.4891098737716675, -0.36720579862594604, -0.6144457459449768, -0.11777295917272568, 0.4819214940071106, 0.051224514842033386, 0.29626888036727905, -0.5919812917709351, 0.834499716758728, 2.5974466800689697, 0.24662087857723236, 0.4792938530445099, 1.0291446447372437, -0.3898988366127014, -1.274358868598938, 0.18438008427619934, 0.8985392451286316, -0.28345465660095215, 1.5789889097213745, 0.3282885253429413, 2.215043306350708, -0.03540699928998947, 0.7740921378135681, 0.6916438341140747, 0.8094891905784607, -1.2100610733032227, -1.5851160287857056, -0.4431968927383423, -1.2631865739822388, 1.742996335029602, -1.6327426433563232, 1.4495253562927246, -0.2915950417518616, -1.4667792320251465, -0.8093727231025696, -1.2852188348770142, -0.4992848038673401, 0.6366997361183167, 0.3044349253177643]]"
